{"ip":0,"fr":60,"v":"5.1.20","assets":[],"layers":[{"ty":4,"nm":"talksppttxt","ip":0,"st":0,"ind":7,"hix":1,"ks":{"o":{"a":0,"k":100},"or":{"a":0,"k":[0,0,0]},"a":{"a":0,"k":[160.356,31.186,0]},"p":{"s":true,"x":{"a":0,"k":305.891},"y":{"a":0,"k":47.098}},"rx":{"a":1,"k":[{"t":0,"s":[0],"e":[0],"i":{"x":[0.515],"y":[0.955]},"o":{"x":[0.455],"y":[0.03]}},{"t":15}]},"ry":{"a":0,"k":0},"rz":{"a":1,"k":[{"t":0,"s":[0],"e":[0],"i":{"x":[0.515],"y":[0.955]},"o":{"x":[0.455],"y":[0.03]}},{"t":15}]},"s":{"a":1,"k":[{"t":0,"s":[35.8,0],"e":[35.8,68.5],"i":{"x":[1,0.32],"y":[1,1.275]},"o":{"x":[0,0.175],"y":[0,0.885]}},{"t":51}]}},"shapes":[{"ty":"gr","nm":"talksppttxt shape group","it":[{"ty":"sh","ks":{"a":0,"k":{"c":true,"v":[[0.304,0],[0.21,-0.025],[0.144,-0.094],[0.12,-0.193],[0.12,-0.682],[0.131,-0.71],[0.158,-0.721],[0.186,-0.71],[0.197,-0.682],[0.197,-0.193],[0.227,-0.11],[0.304,-0.077],[0.331,-0.077],[0.357,-0.066],[0.367,-0.038],[0.355,-0.011],[0.325,0]],"i":[[0,0],[0.026999999999999996,0.017],[0.016000000000000014,0.028999999999999998],[0,0.037000000000000005],[0,0],[-0.007000000000000006,0.007000000000000006],[-0.01100000000000001,0],[-0.007000000000000006,-0.007000000000000006],[0,-0.010999999999999899],[0,0],[-0.020000000000000018,-0.021000000000000005],[-0.030999999999999972,0],[0,0],[-0.007000000000000006,-0.006999999999999992],[0,-0.011000000000000003],[0.008000000000000007,-0.006999999999999999],[0.01200000000000001,0]],"o":[[-0.034999999999999976,0],[-0.027999999999999997,-0.017],[-0.015999999999999986,-0.028999999999999998],[0,0],[0,-0.010999999999999899],[0.007000000000000006,-0.007000000000000006],[0.01100000000000001,0],[0.007000000000000006,0.007000000000000006],[0,0],[0,0.034],[0.01999999999999999,0.022000000000000006],[0,0],[0.01100000000000001,0],[0.007000000000000006,0.007000000000000006],[0,0.011],[-0.008000000000000007,0.006999999999999999],[0,0]]}}},{"ty":"sh","ks":{"a":0,"k":{"c":true,"v":[[0.055,-0.46],[0.03,-0.47],[0.02,-0.493],[0.03,-0.518],[0.055,-0.527],[0.31,-0.527],[0.335,-0.518],[0.345,-0.493],[0.335,-0.47],[0.31,-0.46]],"i":[[0,0],[0.006999999999999999,0.006999999999999951],[0,0.009000000000000008],[-0.006999999999999999,0.007000000000000006],[-0.010000000000000002,0],[0,0],[-0.007000000000000006,-0.006000000000000005],[0,-0.010000000000000009],[0.007000000000000006,-0.006000000000000005],[0.010000000000000009,0]],"o":[[-0.010000000000000002,0],[-0.006999999999999999,-0.006000000000000005],[0,-0.010000000000000009],[0.006999999999999999,-0.006000000000000005],[0,0],[0.010000000000000009,0],[0.007000000000000006,0.007000000000000006],[0,0.009000000000000008],[-0.007000000000000006,0.006999999999999951],[0,0]]}}},{"ty":"st","o":{"a":0,"k":0},"w":{"a":0,"k":0},"c":{"a":0,"k":[0,0,0,0]},"lc":3,"lj":1,"ml":1},{"ty":"fl","o":{"a":0,"k":100},"r":1,"c":{"a":0,"k":[0.3764705882352941,0.3764705882352941,0.3764705882352941,1]}},{"ty":"tr","o":{"a":0,"k":100},"a":{"a":0,"k":[0,0]},"s":{"a":0,"k":[3000,3000]},"p":{"a":0,"k":[310.504,23.73]},"r":{"a":0,"k":0}}]},{"ty":"gr","nm":"talksppttxt shape group","it":[{"ty":"sh","ks":{"a":0,"k":{"c":true,"v":[[0.122,-0.337],[0.155,-0.448],[0.232,-0.525],[0.337,-0.553],[0.408,-0.54],[0.427,-0.502],[0.414,-0.482],[0.391,-0.478],[0.36,-0.48],[0.261,-0.469],[0.192,-0.418],[0.166,-0.337]],"i":[[0,0],[-0.01999999999999999,0.03300000000000003],[-0.032,0.019000000000000017],[-0.039000000000000035,0],[-0.01699999999999996,-0.009000000000000008],[0.0040000000000000036,-0.017000000000000015],[0.006000000000000005,-0.0030000000000000027],[0.009000000000000008,0.0010000000000000009],[0.01100000000000001,0.0010000000000000009],[0.02899999999999997,-0.01100000000000001],[0.016999999999999987,-0.02300000000000002],[0,-0.030999999999999972]],"o":[[0.0020000000000000018,-0.04099999999999998],[0.01899999999999999,-0.032999999999999974],[0.031,-0.019000000000000017],[0.030999999999999972,0],[0.017000000000000015,0.009000000000000008],[-0.0030000000000000027,0.010000000000000009],[-0.007000000000000006,0.0030000000000000027],[-0.009000000000000008,-0.0010000000000000009],[-0.03699999999999998,-0.0030000000000000027],[-0.028999999999999998,0.010999999999999954],[-0.017000000000000015,0.022999999999999965],[0,0]]}}},{"ty":"sh","ks":{"a":0,"k":{"c":true,"v":[[0.128,0],[0.1,-0.01],[0.09,-0.038],[0.09,-0.509],[0.1,-0.537],[0.128,-0.547],[0.156,-0.537],[0.166,-0.509],[0.166,-0.038],[0.156,-0.01]],"i":[[0.01200000000000001,0],[0.006999999999999992,0.007],[0,0.012],[0,0],[-0.007000000000000006,0.007000000000000006],[-0.011999999999999997,0],[-0.007000000000000006,-0.007000000000000006],[0,-0.01200000000000001],[0,0],[0.007000000000000006,-0.007000000000000001]],"o":[[-0.011999999999999997,0],[-0.007000000000000006,-0.007000000000000001],[0,0],[0,-0.01200000000000001],[0.006999999999999992,-0.007000000000000006],[0.01200000000000001,0],[0.007000000000000006,0.007000000000000006],[0,0],[0,0.012],[-0.007000000000000006,0.007]]}}},{"ty":"st","o":{"a":0,"k":0},"w":{"a":0,"k":0},"c":{"a":0,"k":[0,0,0,0]},"lc":3,"lj":1,"ml":1},{"ty":"fl","o":{"a":0,"k":100},"r":1,"c":{"a":0,"k":[0.3764705882352941,0.3764705882352941,0.3764705882352941,1]}},{"ty":"tr","o":{"a":0,"k":100},"a":{"a":0,"k":[0,0]},"s":{"a":0,"k":[3000,3000]},"p":{"a":0,"k":[296.764,23.73]},"r":{"a":0,"k":0}}]},{"ty":"gr","nm":"talksppttxt shape group","it":[{"ty":"sh","ks":{"a":0,"k":{"c":true,"v":[[0.339,0.005],[0.196,-0.031],[0.097,-0.13],[0.061,-0.273],[0.097,-0.417],[0.196,-0.516],[0.339,-0.552],[0.482,-0.516],[0.58,-0.417],[0.617,-0.273],[0.581,-0.13],[0.482,-0.031]],"i":[[0.05299999999999999,0],[0.04199999999999998,0.024],[0.023999999999999994,0.04200000000000001],[0,0.05300000000000002],[-0.024000000000000007,0.04199999999999998],[-0.04200000000000001,0.02400000000000002],[-0.05300000000000005,0],[-0.04199999999999998,-0.02400000000000002],[-0.02399999999999991,-0.04200000000000004],[-0.0010000000000000009,-0.05399999999999999],[0.02400000000000002,-0.04199999999999998],[0.041000000000000036,-0.024]],"o":[[-0.05300000000000005,0],[-0.04200000000000001,-0.024],[-0.024000000000000007,-0.04199999999999998],[0,-0.05399999999999999],[0.023999999999999994,-0.04200000000000004],[0.04199999999999998,-0.02400000000000002],[0.05299999999999999,0],[0.041000000000000036,0.02400000000000002],[0.02400000000000002,0.04199999999999998],[0,0.05300000000000002],[-0.02499999999999991,0.04200000000000001],[-0.04199999999999998,0.024]]}}},{"ty":"sh","ks":{"a":0,"k":{"c":true,"v":[[0.339,-0.065],[0.443,-0.092],[0.515,-0.166],[0.541,-0.273],[0.515,-0.381],[0.443,-0.455],[0.339,-0.482],[0.235,-0.455],[0.163,-0.381],[0.136,-0.273],[0.163,-0.166],[0.235,-0.092]],"i":[[-0.039000000000000035,0],[-0.031000000000000028,0.018000000000000002],[-0.017000000000000015,0.031],[0,0.04000000000000001],[0.017000000000000015,0.03200000000000003],[0.030999999999999972,0.018000000000000016],[0.03899999999999998,0],[0.031000000000000028,-0.01799999999999996],[0.016999999999999987,-0.030999999999999972],[0,-0.03999999999999998],[-0.018000000000000016,-0.031],[-0.031,-0.018000000000000002]],"o":[[0.03899999999999998,0],[0.030999999999999972,-0.018000000000000002],[0.017000000000000015,-0.031],[0,-0.03999999999999998],[-0.017000000000000015,-0.030999999999999972],[-0.031000000000000028,-0.01799999999999996],[-0.039000000000000035,0],[-0.031,0.018000000000000016],[-0.018000000000000016,0.03200000000000003],[0,0.04000000000000001],[0.016999999999999987,0.031],[0.031000000000000028,0.018000000000000002]]}}},{"ty":"st","o":{"a":0,"k":0},"w":{"a":0,"k":0},"c":{"a":0,"k":[0,0,0,0]},"lc":3,"lj":1,"ml":1},{"ty":"fl","o":{"a":0,"k":100},"r":1,"c":{"a":0,"k":[0.3764705882352941,0.3764705882352941,0.3764705882352941,1]}},{"ty":"tr","o":{"a":0,"k":100},"a":{"a":0,"k":[0,0]},"s":{"a":0,"k":[3000,3000]},"p":{"a":0,"k":[276.454,23.73]},"r":{"a":0,"k":0}}]},{"ty":"gr","nm":"talksppttxt shape group","it":[{"ty":"sh","ks":{"a":0,"k":{"c":true,"v":[[0.129,0.234],[0.101,0.224],[0.09,0.195],[0.09,-0.277],[0.128,-0.418],[0.227,-0.516],[0.367,-0.552],[0.51,-0.516],[0.61,-0.416],[0.646,-0.273],[0.611,-0.131],[0.514,-0.032],[0.376,0.005],[0.255,-0.024],[0.167,-0.099],[0.167,0.195],[0.157,0.224]],"i":[[0.01100000000000001,0],[0.006999999999999992,0.007000000000000006],[0,0.011999999999999983],[0,0],[-0.02500000000000001,0.04199999999999998],[-0.04200000000000001,0.02400000000000002],[-0.05199999999999999,0],[-0.04199999999999998,-0.02400000000000002],[-0.025000000000000022,-0.04200000000000004],[0,-0.05299999999999999],[0.02300000000000002,-0.04199999999999998],[0.041000000000000036,-0.024],[0.05099999999999999,0],[0.035999999999999976,0.019],[0.021999999999999992,0.031],[0,0],[0.007000000000000006,-0.007000000000000006]],"o":[[-0.011999999999999997,0],[-0.008000000000000007,-0.007000000000000006],[0,0],[0.0010000000000000009,-0.05199999999999999],[0.023999999999999994,-0.041000000000000036],[0.04100000000000001,-0.02400000000000002],[0.05299999999999999,0],[0.04200000000000004,0.025000000000000022],[0.02400000000000002,0.04199999999999998],[0,0.05300000000000002],[-0.02400000000000002,0.04200000000000001],[-0.041000000000000036,0.025],[-0.044999999999999984,0],[-0.037000000000000005,-0.018999999999999996],[0,0],[0,0.011999999999999983],[-0.007000000000000006,0.007000000000000006]]}}},{"ty":"sh","ks":{"a":0,"k":{"c":true,"v":[[0.367,-0.065],[0.471,-0.092],[0.544,-0.167],[0.57,-0.273],[0.544,-0.38],[0.471,-0.455],[0.367,-0.482],[0.264,-0.455],[0.192,-0.38],[0.166,-0.273],[0.192,-0.167],[0.264,-0.092]],"i":[[-0.03799999999999998,0],[-0.030999999999999972,0.018000000000000002],[-0.018000000000000016,0.032],[0,0.03900000000000001],[0.017000000000000015,0.031000000000000028],[0.031000000000000028,0.019000000000000017],[0.039000000000000035,0],[0.030999999999999972,-0.01799999999999996],[0.016999999999999987,-0.030999999999999972],[0,-0.03999999999999998],[-0.017000000000000015,-0.031],[-0.031,-0.018000000000000002]],"o":[[0.039000000000000035,0],[0.031000000000000028,-0.018000000000000002],[0.017000000000000015,-0.031],[0,-0.03999999999999998],[-0.018000000000000016,-0.030999999999999972],[-0.030999999999999972,-0.01799999999999996],[-0.03799999999999998,0],[-0.031,0.019000000000000017],[-0.017000000000000015,0.031000000000000028],[0,0.03900000000000001],[0.016999999999999987,0.032],[0.030999999999999972,0.018000000000000002]]}}},{"ty":"st","o":{"a":0,"k":0},"w":{"a":0,"k":0},"c":{"a":0,"k":[0,0,0,0]},"lc":3,"lj":1,"ml":1},{"ty":"fl","o":{"a":0,"k":100},"r":1,"c":{"a":0,"k":[0.3764705882352941,0.3764705882352941,0.3764705882352941,1]}},{"ty":"tr","o":{"a":0,"k":100},"a":{"a":0,"k":[0,0]},"s":{"a":0,"k":[3000,3000]},"p":{"a":0,"k":[255.244,23.73]},"r":{"a":0,"k":0}}]},{"ty":"gr","nm":"talksppttxt shape group","it":[{"ty":"sh","ks":{"a":0,"k":{"c":true,"v":[[0.129,0.234],[0.101,0.224],[0.09,0.195],[0.09,-0.277],[0.128,-0.418],[0.227,-0.516],[0.367,-0.552],[0.51,-0.516],[0.61,-0.416],[0.646,-0.273],[0.611,-0.131],[0.514,-0.032],[0.376,0.005],[0.255,-0.024],[0.167,-0.099],[0.167,0.195],[0.157,0.224]],"i":[[0.01100000000000001,0],[0.006999999999999992,0.007000000000000006],[0,0.011999999999999983],[0,0],[-0.02500000000000001,0.04199999999999998],[-0.04200000000000001,0.02400000000000002],[-0.05199999999999999,0],[-0.04199999999999998,-0.02400000000000002],[-0.025000000000000022,-0.04200000000000004],[0,-0.05299999999999999],[0.02300000000000002,-0.04199999999999998],[0.041000000000000036,-0.024],[0.05099999999999999,0],[0.035999999999999976,0.019],[0.021999999999999992,0.031],[0,0],[0.007000000000000006,-0.007000000000000006]],"o":[[-0.011999999999999997,0],[-0.008000000000000007,-0.007000000000000006],[0,0],[0.0010000000000000009,-0.05199999999999999],[0.023999999999999994,-0.041000000000000036],[0.04100000000000001,-0.02400000000000002],[0.05299999999999999,0],[0.04200000000000004,0.025000000000000022],[0.02400000000000002,0.04199999999999998],[0,0.05300000000000002],[-0.02400000000000002,0.04200000000000001],[-0.041000000000000036,0.025],[-0.044999999999999984,0],[-0.037000000000000005,-0.018999999999999996],[0,0],[0,0.011999999999999983],[-0.007000000000000006,0.007000000000000006]]}}},{"ty":"sh","ks":{"a":0,"k":{"c":true,"v":[[0.367,-0.065],[0.471,-0.092],[0.544,-0.167],[0.57,-0.273],[0.544,-0.38],[0.471,-0.455],[0.367,-0.482],[0.264,-0.455],[0.192,-0.38],[0.166,-0.273],[0.192,-0.167],[0.264,-0.092]],"i":[[-0.03799999999999998,0],[-0.030999999999999972,0.018000000000000002],[-0.018000000000000016,0.032],[0,0.03900000000000001],[0.017000000000000015,0.031000000000000028],[0.031000000000000028,0.019000000000000017],[0.039000000000000035,0],[0.030999999999999972,-0.01799999999999996],[0.016999999999999987,-0.030999999999999972],[0,-0.03999999999999998],[-0.017000000000000015,-0.031],[-0.031,-0.018000000000000002]],"o":[[0.039000000000000035,0],[0.031000000000000028,-0.018000000000000002],[0.017000000000000015,-0.031],[0,-0.03999999999999998],[-0.018000000000000016,-0.030999999999999972],[-0.030999999999999972,-0.01799999999999996],[-0.03799999999999998,0],[-0.031,0.019000000000000017],[-0.017000000000000015,0.031000000000000028],[0,0.03900000000000001],[0.016999999999999987,0.032],[0.030999999999999972,0.018000000000000002]]}}},{"ty":"st","o":{"a":0,"k":0},"w":{"a":0,"k":0},"c":{"a":0,"k":[0,0,0,0]},"lc":3,"lj":1,"ml":1},{"ty":"fl","o":{"a":0,"k":100},"r":1,"c":{"a":0,"k":[0.3764705882352941,0.3764705882352941,0.3764705882352941,1]}},{"ty":"tr","o":{"a":0,"k":100},"a":{"a":0,"k":[0,0]},"s":{"a":0,"k":[3000,3000]},"p":{"a":0,"k":[234.034,23.73]},"r":{"a":0,"k":0}}]},{"ty":"gr","nm":"talksppttxt shape group","it":[{"ty":"sh","ks":{"a":0,"k":{"c":true,"v":[[0.328,0.006],[0.201,-0.024],[0.113,-0.11],[0.08,-0.249],[0.08,-0.509],[0.091,-0.536],[0.118,-0.547],[0.146,-0.536],[0.157,-0.509],[0.157,-0.249],[0.181,-0.147],[0.245,-0.087],[0.336,-0.067],[0.425,-0.086],[0.487,-0.138],[0.51,-0.213],[0.565,-0.213],[0.531,-0.101],[0.446,-0.023]],"i":[[0.04299999999999998,0],[0.03699999999999998,0.02],[0.021000000000000005,0.038000000000000006],[0,0.05499999999999999],[0,0],[-0.006999999999999992,0.007000000000000006],[-0.010999999999999996,0],[-0.0069999999999999785,-0.007000000000000006],[0,-0.01100000000000001],[0,0],[-0.015999999999999986,-0.026999999999999996],[-0.026999999999999996,-0.013000000000000012],[-0.03400000000000003,0],[-0.02699999999999997,0.012999999999999998],[-0.015000000000000013,0.022000000000000006],[0,0.027999999999999997],[0,0],[0.02100000000000002,-0.032],[0.034999999999999976,-0.019000000000000003]],"o":[[-0.046999999999999986,0],[-0.037000000000000005,-0.018999999999999996],[-0.022000000000000006,-0.03799999999999999],[0,0],[0,-0.01100000000000001],[0.007000000000000006,-0.007000000000000006],[0.01100000000000001,0],[0.007000000000000006,0.007000000000000006],[0,0],[0,0.04100000000000001],[0.015000000000000013,0.026999999999999996],[0.027000000000000024,0.012999999999999998],[0.032999999999999974,0],[0.026000000000000023,-0.013000000000000012],[0.015000000000000013,-0.021999999999999992],[0,0],[-0.0020000000000000018,0.04199999999999998],[-0.02200000000000002,0.033],[-0.03500000000000003,0.02]]}}},{"ty":"sh","ks":{"a":0,"k":{"c":true,"v":[[0.548,0],[0.521,-0.011],[0.51,-0.039],[0.51,-0.509],[0.521,-0.537],[0.548,-0.547],[0.576,-0.537],[0.587,-0.509],[0.587,-0.039],[0.576,-0.011]],"i":[[0.01100000000000001,0],[0.007000000000000006,0.006999999999999999],[0,0.012],[0,0],[-0.007000000000000006,0.007000000000000006],[-0.01100000000000001,0],[-0.007000000000000006,-0.007000000000000006],[0,-0.01100000000000001],[0,0],[0.007000000000000006,-0.006999999999999999]],"o":[[-0.01100000000000001,0],[-0.007000000000000006,-0.006999999999999999],[0,0],[0,-0.01100000000000001],[0.007000000000000006,-0.007000000000000006],[0.01100000000000001,0],[0.007000000000000006,0.007000000000000006],[0,0],[0,0.012],[-0.007000000000000006,0.006999999999999999]]}}},{"ty":"st","o":{"a":0,"k":0},"w":{"a":0,"k":0},"c":{"a":0,"k":[0,0,0,0]},"lc":3,"lj":1,"ml":1},{"ty":"fl","o":{"a":0,"k":100},"r":1,"c":{"a":0,"k":[0.3764705882352941,0.3764705882352941,0.3764705882352941,1]}},{"ty":"tr","o":{"a":0,"k":100},"a":{"a":0,"k":[0,0]},"s":{"a":0,"k":[3000,3000]},"p":{"a":0,"k":[213.724,23.73]},"r":{"a":0,"k":0}}]},{"ty":"gr","nm":"talksppttxt shape group","it":[{"ty":"sh","ks":{"a":0,"k":{"c":true,"v":[[0.34,0.01],[0.222,-0.009],[0.127,-0.061],[0.066,-0.14],[0.066,-0.17],[0.091,-0.188],[0.119,-0.185],[0.139,-0.164],[0.183,-0.112],[0.252,-0.077],[0.34,-0.064],[0.434,-0.082],[0.499,-0.133],[0.522,-0.214],[0.477,-0.319],[0.336,-0.375],[0.153,-0.448],[0.087,-0.591],[0.12,-0.697],[0.209,-0.767],[0.34,-0.791],[0.44,-0.774],[0.519,-0.728],[0.573,-0.665],[0.58,-0.634],[0.562,-0.611],[0.532,-0.609],[0.508,-0.628],[0.471,-0.672],[0.416,-0.704],[0.339,-0.717],[0.212,-0.684],[0.164,-0.586],[0.182,-0.524],[0.242,-0.475],[0.353,-0.444],[0.539,-0.368],[0.599,-0.215],[0.58,-0.119],[0.525,-0.049],[0.442,-0.005]],"i":[[0.035999999999999976,0],[0.036000000000000004,0.013],[0.026999999999999996,0.023],[0.013999999999999999,0.030000000000000013],[-0.0050000000000000044,0.009000000000000008],[-0.011999999999999997,0.0030000000000000027],[-0.008999999999999994,-0.0050000000000000044],[-0.0050000000000000044,-0.00899999999999998],[-0.01899999999999999,-0.015],[-0.026999999999999996,-0.008000000000000007],[-0.03200000000000003,0],[-0.027000000000000024,0.011999999999999997],[-0.016000000000000014,0.023000000000000007],[0,0.032],[0.030000000000000027,0.029000000000000026],[0.064,0.008000000000000007],[0.04400000000000001,0.039000000000000035],[0,0.05699999999999994],[-0.021999999999999992,0.029999999999999916],[-0.03799999999999998,0.017000000000000015],[-0.049000000000000044,0],[-0.030000000000000027,-0.01100000000000001],[-0.02300000000000002,-0.019000000000000017],[-0.013999999999999901,-0.02299999999999991],[0.0020000000000000018,-0.010000000000000009],[0.008999999999999897,-0.0050000000000000044],[0.010000000000000009,0.0030000000000000027],[0.0050000000000000044,0.009000000000000008],[0.015000000000000013,0.014000000000000012],[0.02100000000000002,0.008000000000000007],[0.02999999999999997,0.0010000000000000009],[0.032,-0.02199999999999991],[0,-0.04300000000000004],[-0.011999999999999983,-0.019000000000000017],[-0.027999999999999997,-0.013000000000000012],[-0.046999999999999986,-0.007000000000000006],[-0.041000000000000036,-0.03899999999999998],[0,-0.06300000000000003],[0.01200000000000001,-0.027999999999999997],[0.02300000000000002,-0.019000000000000003],[0.030999999999999972,-0.009999999999999998]],"o":[[-0.04300000000000004,0],[-0.037000000000000005,-0.012000000000000002],[-0.026999999999999996,-0.023000000000000007],[-0.0050000000000000044,-0.010999999999999982],[0.0040000000000000036,-0.00899999999999998],[0.009000000000000008,-0.0030000000000000027],[0.009000000000000008,0.0050000000000000044],[0.009999999999999981,0.019000000000000017],[0.019000000000000017,0.015],[0.027000000000000024,0.008999999999999994],[0.034999999999999976,0],[0.027000000000000024,-0.010999999999999996],[0.015000000000000013,-0.021999999999999992],[0,-0.04100000000000001],[-0.02999999999999997,-0.02899999999999997],[-0.07800000000000001,-0.009000000000000008],[-0.044,-0.03899999999999998],[0,-0.041000000000000036],[0.02099999999999999,-0.030000000000000027],[0.038000000000000006,-0.016000000000000014],[0.03699999999999998,0],[0.02999999999999997,0.01200000000000001],[0.02200000000000002,0.019000000000000017],[0.007000000000000006,0.01100000000000001],[-0.0030000000000000027,0.010000000000000009],[-0.010000000000000009,0.0050000000000000044],[-0.01100000000000001,-0.0030000000000000027],[-0.010000000000000009,-0.015000000000000013],[-0.014999999999999958,-0.013000000000000012],[-0.020999999999999963,-0.008000000000000007],[-0.05300000000000005,0],[-0.032,0.02300000000000002],[0,0.02300000000000002],[0.01200000000000001,0.019000000000000017],[0.027000000000000024,0.013999999999999957],[0.08300000000000002,0.01200000000000001],[0.039999999999999925,0.03899999999999998],[0,0.036000000000000004],[-0.013000000000000012,0.027999999999999997],[-0.02400000000000002,0.02],[-0.03200000000000003,0.01]]}}},{"ty":"st","o":{"a":0,"k":0},"w":{"a":0,"k":0},"c":{"a":0,"k":[0,0,0,0]},"lc":3,"lj":1,"ml":1},{"ty":"fl","o":{"a":0,"k":100},"r":1,"c":{"a":0,"k":[0.3764705882352941,0.3764705882352941,0.3764705882352941,1]}},{"ty":"tr","o":{"a":0,"k":100},"a":{"a":0,"k":[0,0]},"s":{"a":0,"k":[3000,3000]},"p":{"a":0,"k":[193.864,23.73]},"r":{"a":0,"k":0}}]},{"ty":"gr","nm":"talksppttxt shape group","it":[{"ty":"sh","ks":{"a":0,"k":{"c":true,"v":[[0.153,-0.183],[0.106,-0.234],[0.448,-0.543],[0.473,-0.554],[0.497,-0.541],[0.508,-0.516],[0.495,-0.492]],"i":[[0,0],[0,0],[0,0],[-0.008999999999999952,0],[-0.007000000000000006,-0.008000000000000007],[0,-0.009000000000000008],[0.008000000000000007,-0.007000000000000006]],"o":[[0,0],[0,0],[0.008000000000000007,-0.007000000000000006],[0.009000000000000008,0.0010000000000000009],[0.007000000000000006,0.008000000000000007],[-0.0010000000000000009,0.010000000000000009],[0,0]]}}},{"ty":"sh","ks":{"a":0,"k":{"c":true,"v":[[0.128,0],[0.101,-0.011],[0.09,-0.038],[0.09,-0.743],[0.101,-0.771],[0.128,-0.781],[0.156,-0.771],[0.166,-0.743],[0.166,-0.038],[0.156,-0.011]],"i":[[0.01100000000000001,0],[0.006999999999999992,0.006999999999999999],[0,0.011],[0,0],[-0.008000000000000007,0.008000000000000007],[-0.010999999999999996,0],[-0.007000000000000006,-0.007000000000000006],[0,-0.01100000000000001],[0,0],[0.007000000000000006,-0.006999999999999999]],"o":[[-0.010999999999999996,0],[-0.008000000000000007,-0.006999999999999999],[0,0],[0,-0.01100000000000001],[0.006999999999999992,-0.007000000000000006],[0.01100000000000001,0],[0.007000000000000006,0.008000000000000007],[0,0],[0,0.011],[-0.007000000000000006,0.006999999999999999]]}}},{"ty":"sh","ks":{"a":0,"k":{"c":true,"v":[[0.498,-0.005],[0.471,0.005],[0.447,-0.01],[0.224,-0.284],[0.278,-0.332],[0.503,-0.055],[0.512,-0.03]],"i":[[0.009000000000000008,-0.007],[0.009000000000000008,0.001],[0.007000000000000006,0.009000000000000001],[0,0],[0,0],[0,0],[0.0010000000000000009,-0.009000000000000001]],"o":[[-0.009000000000000008,0.007],[-0.008999999999999952,-0.001],[0,0],[0,0],[0,0],[0.007000000000000006,0.008],[-0.0010000000000000009,0.008999999999999998]]}}},{"ty":"st","o":{"a":0,"k":0},"w":{"a":0,"k":0},"c":{"a":0,"k":[0,0,0,0]},"lc":3,"lj":1,"ml":1},{"ty":"fl","o":{"a":0,"k":100},"r":1,"c":{"a":0,"k":[0.3764705882352941,0.3764705882352941,0.3764705882352941,1]}},{"ty":"tr","o":{"a":0,"k":100},"a":{"a":0,"k":[0,0]},"s":{"a":0,"k":[3000,3000]},"p":{"a":0,"k":[167.914,23.73]},"r":{"a":0,"k":0}}]},{"ty":"gr","nm":"talksppttxt shape group","it":[{"ty":"sh","ks":{"a":0,"k":{"c":true,"v":[[0.208,0],[0.137,-0.022],[0.088,-0.083],[0.07,-0.173],[0.07,-0.743],[0.081,-0.771],[0.108,-0.781],[0.136,-0.771],[0.146,-0.743],[0.146,-0.173],[0.164,-0.103],[0.208,-0.076],[0.233,-0.076],[0.257,-0.066],[0.266,-0.038],[0.254,-0.011],[0.221,0]],"i":[[0,0],[0.02099999999999999,0.015],[0.01100000000000001,0.026000000000000002],[0,0.033999999999999975],[0,0],[-0.007000000000000006,0.008000000000000007],[-0.010999999999999996,0],[-0.007000000000000006,-0.007000000000000006],[0,-0.01100000000000001],[0,0],[-0.01200000000000001,-0.018000000000000002],[-0.017999999999999988,0],[0,0],[-0.006000000000000005,-0.006999999999999992],[0,-0.011000000000000003],[0.008000000000000007,-0.006999999999999999],[0.013000000000000012,0]],"o":[[-0.026999999999999996,0],[-0.021000000000000005,-0.015],[-0.011999999999999997,-0.025999999999999995],[0,0],[0,-0.01100000000000001],[0.006999999999999992,-0.007000000000000006],[0.010999999999999996,0],[0.005999999999999978,0.008000000000000007],[0,0],[0,0.028999999999999998],[0.010999999999999982,0.017999999999999988],[0,0],[0.009999999999999981,0],[0.006000000000000005,0.008],[0,0.011],[-0.009000000000000008,0.006999999999999999],[0,0]]}}},{"ty":"st","o":{"a":0,"k":0},"w":{"a":0,"k":0},"c":{"a":0,"k":[0,0,0,0]},"lc":3,"lj":1,"ml":1},{"ty":"fl","o":{"a":0,"k":100},"r":1,"c":{"a":0,"k":[0.3764705882352941,0.3764705882352941,0.3764705882352941,1]}},{"ty":"tr","o":{"a":0,"k":100},"a":{"a":0,"k":[0,0]},"s":{"a":0,"k":[3000,3000]},"p":{"a":0,"k":[159.454,23.73]},"r":{"a":0,"k":0}}]},{"ty":"gr","nm":"talksppttxt shape group","it":[{"ty":"sh","ks":{"a":0,"k":{"c":true,"v":[[0.331,0.005],[0.193,-0.032],[0.097,-0.131],[0.061,-0.273],[0.098,-0.416],[0.197,-0.516],[0.339,-0.552],[0.481,-0.516],[0.58,-0.416],[0.617,-0.273],[0.586,-0.249],[0.553,-0.12],[0.462,-0.029]],"i":[[0.04899999999999999,0],[0.04100000000000001,0.025],[0.022999999999999993,0.04200000000000001],[0,0.05300000000000002],[-0.02500000000000001,0.04199999999999998],[-0.04200000000000001,0.025000000000000022],[-0.05300000000000005,0],[-0.04199999999999998,-0.02400000000000002],[-0.02499999999999991,-0.04200000000000004],[-0.0010000000000000009,-0.05299999999999999],[0,0],[0.02199999999999991,-0.038000000000000006],[0.03799999999999998,-0.021999999999999995]],"o":[[-0.05099999999999999,0],[-0.04100000000000001,-0.024],[-0.024000000000000007,-0.04199999999999998],[0,-0.05299999999999999],[0.023999999999999994,-0.04200000000000004],[0.04199999999999998,-0.02400000000000002],[0.05299999999999999,0],[0.041000000000000036,0.025000000000000022],[0.02400000000000002,0.04199999999999998],[0,0],[0,0.04799999999999999],[-0.02300000000000002,0.03899999999999999],[-0.039000000000000035,0.023]]}}},{"ty":"sh","ks":{"a":0,"k":{"c":true,"v":[[0.339,-0.065],[0.443,-0.092],[0.515,-0.167],[0.541,-0.273],[0.515,-0.38],[0.443,-0.455],[0.339,-0.482],[0.236,-0.455],[0.163,-0.38],[0.136,-0.273],[0.163,-0.167],[0.236,-0.092]],"i":[[-0.038000000000000034,0],[-0.031000000000000028,0.018000000000000002],[-0.018000000000000016,0.032],[0,0.03900000000000001],[0.017000000000000015,0.031000000000000028],[0.02999999999999997,0.019000000000000017],[0.03899999999999998,0],[0.031000000000000028,-0.01799999999999996],[0.017999999999999988,-0.030999999999999972],[0,-0.03999999999999998],[-0.018000000000000016,-0.031],[-0.031,-0.018000000000000002]],"o":[[0.03899999999999998,0],[0.02999999999999997,-0.018000000000000002],[0.017000000000000015,-0.031],[0,-0.03999999999999998],[-0.018000000000000016,-0.030999999999999972],[-0.031000000000000028,-0.01799999999999996],[-0.038000000000000034,0],[-0.031,0.019000000000000017],[-0.018000000000000016,0.031000000000000028],[0,0.03900000000000001],[0.017999999999999988,0.032],[0.031000000000000028,0.018000000000000002]]}}},{"ty":"sh","ks":{"a":0,"k":{"c":true,"v":[[0.578,0],[0.55,-0.011],[0.539,-0.038],[0.539,-0.209],[0.558,-0.288],[0.617,-0.273],[0.617,-0.038],[0.606,-0.011]],"i":[[0.01100000000000001,0],[0.007000000000000006,0.006999999999999999],[0,0.011],[0,0],[0,0],[0,0],[0,0],[0.007000000000000006,-0.006999999999999999]],"o":[[-0.01100000000000001,0],[-0.007000000000000006,-0.006999999999999999],[0,0],[0,0],[0,0],[0,0],[0,0.011],[-0.007000000000000006,0.006999999999999999]]}}},{"ty":"st","o":{"a":0,"k":0},"w":{"a":0,"k":0},"c":{"a":0,"k":[0,0,0,0]},"lc":3,"lj":1,"ml":1},{"ty":"fl","o":{"a":0,"k":100},"r":1,"c":{"a":0,"k":[0.3764705882352941,0.3764705882352941,0.3764705882352941,1]}},{"ty":"tr","o":{"a":0,"k":100},"a":{"a":0,"k":[0,0]},"s":{"a":0,"k":[3000,3000]},"p":{"a":0,"k":[139.144,23.73]},"r":{"a":0,"k":0}}]},{"ty":"gr","nm":"talksppttxt shape group","it":[{"ty":"sh","ks":{"a":0,"k":{"c":true,"v":[[0.327,0],[0.3,-0.012],[0.288,-0.039],[0.288,-0.781],[0.366,-0.781],[0.366,-0.039],[0.355,-0.012]],"i":[[0.01100000000000001,0],[0.007000000000000006,0.008],[0,0.011],[0,0],[0,0],[0,0],[0.007000000000000006,-0.006999999999999999]],"o":[[-0.01100000000000001,0],[-0.008000000000000007,-0.006999999999999999],[0,0],[0,0],[0,0],[0,0.011],[-0.007000000000000006,0.008]]}}},{"ty":"sh","ks":{"a":0,"k":{"c":true,"v":[[0.051,-0.71],[0.025,-0.72],[0.015,-0.745],[0.025,-0.771],[0.051,-0.781],[0.604,-0.781],[0.63,-0.771],[0.64,-0.745],[0.63,-0.72],[0.604,-0.71]],"i":[[0,0],[0.006999999999999999,0.007000000000000006],[0,0.010000000000000009],[-0.007000000000000003,0.007000000000000006],[-0.010999999999999996,0],[0,0],[-0.007000000000000006,-0.007000000000000006],[0,-0.01100000000000001],[0.007000000000000006,-0.007000000000000006],[0.01100000000000001,0]],"o":[[-0.010999999999999996,0],[-0.007000000000000003,-0.007000000000000006],[0,-0.01100000000000001],[0.006999999999999999,-0.007000000000000006],[0,0],[0.01100000000000001,0],[0.007000000000000006,0.007000000000000006],[0,0.010000000000000009],[-0.007000000000000006,0.007000000000000006],[0,0]]}}},{"ty":"st","o":{"a":0,"k":0},"w":{"a":0,"k":0},"c":{"a":0,"k":[0,0,0,0]},"lc":3,"lj":1,"ml":1},{"ty":"fl","o":{"a":0,"k":100},"r":1,"c":{"a":0,"k":[0.3764705882352941,0.3764705882352941,0.3764705882352941,1]}},{"ty":"tr","o":{"a":0,"k":100},"a":{"a":0,"k":[0,0]},"s":{"a":0,"k":[3000,3000]},"p":{"a":0,"k":[123.994,23.73]},"r":{"a":0,"k":0}}]},{"ty":"gr","nm":"talksppttxt shape group","it":[{"ty":"sh","ks":{"a":0,"k":{"c":true,"v":[[0.339,0.005],[0.197,-0.032],[0.098,-0.131],[0.061,-0.274],[0.097,-0.416],[0.193,-0.516],[0.331,-0.552],[0.452,-0.524],[0.539,-0.448],[0.539,-0.742],[0.55,-0.771],[0.578,-0.781],[0.606,-0.771],[0.617,-0.742],[0.617,-0.27],[0.579,-0.13],[0.48,-0.031]],"i":[[0.05199999999999999,0],[0.04199999999999998,0.025],[0.023999999999999994,0.04200000000000001],[0,0.05300000000000002],[-0.024000000000000007,0.04199999999999998],[-0.04100000000000001,0.025000000000000022],[-0.05099999999999999,0],[-0.03600000000000003,-0.019000000000000017],[-0.02200000000000002,-0.030999999999999972],[0,0],[-0.007000000000000006,0.008000000000000007],[-0.01100000000000001,0],[-0.007000000000000006,-0.007000000000000006],[0,-0.01200000000000001],[0,0],[0.02400000000000002,-0.04100000000000001],[0.041000000000000036,-0.024]],"o":[[-0.05300000000000005,0],[-0.04200000000000001,-0.024],[-0.02500000000000001,-0.04199999999999998],[0,-0.05299999999999999],[0.022999999999999993,-0.04200000000000004],[0.04100000000000001,-0.02400000000000002],[0.044999999999999984,0],[0.035999999999999976,0.019000000000000017],[0,0],[0,-0.01200000000000001],[0.007000000000000006,-0.007000000000000006],[0.01100000000000001,0],[0.007000000000000006,0.008000000000000007],[0,0],[-0.0010000000000000009,0.05200000000000002],[-0.02499999999999991,0.04200000000000001],[-0.04199999999999998,0.024]]}}},{"ty":"sh","ks":{"a":0,"k":{"c":true,"v":[[0.339,-0.065],[0.443,-0.093],[0.515,-0.167],[0.541,-0.274],[0.515,-0.381],[0.443,-0.455],[0.339,-0.482],[0.236,-0.455],[0.163,-0.381],[0.136,-0.274],[0.163,-0.167],[0.236,-0.093]],"i":[[-0.038000000000000034,0],[-0.031000000000000028,0.019000000000000003],[-0.018000000000000016,0.031],[0,0.04000000000000001],[0.017000000000000015,0.03200000000000003],[0.02999999999999997,0.018000000000000016],[0.03899999999999998,0],[0.031000000000000028,-0.01799999999999996],[0.017999999999999988,-0.030999999999999972],[0,-0.03899999999999998],[-0.018000000000000016,-0.031],[-0.031,-0.018000000000000002]],"o":[[0.03899999999999998,0],[0.02999999999999997,-0.018000000000000002],[0.017000000000000015,-0.031],[0,-0.03899999999999998],[-0.018000000000000016,-0.030999999999999972],[-0.031000000000000028,-0.01799999999999996],[-0.038000000000000034,0],[-0.031,0.018000000000000016],[-0.018000000000000016,0.03200000000000003],[0,0.04000000000000001],[0.017999999999999988,0.031],[0.031000000000000028,0.019000000000000003]]}}},{"ty":"st","o":{"a":0,"k":0},"w":{"a":0,"k":0},"c":{"a":0,"k":[0,0,0,0]},"lc":3,"lj":1,"ml":1},{"ty":"fl","o":{"a":0,"k":100},"r":1,"c":{"a":0,"k":[0.3764705882352941,0.3764705882352941,0.3764705882352941,1]}},{"ty":"tr","o":{"a":0,"k":100},"a":{"a":0,"k":[0,0]},"s":{"a":0,"k":[3000,3000]},"p":{"a":0,"k":[93.994,23.73]},"r":{"a":0,"k":0}}]},{"ty":"gr","nm":"talksppttxt shape group","it":[{"ty":"sh","ks":{"a":0,"k":{"c":true,"v":[[0.338,0.005],[0.195,-0.031],[0.097,-0.129],[0.061,-0.273],[0.095,-0.418],[0.187,-0.516],[0.323,-0.552],[0.456,-0.518],[0.543,-0.422],[0.574,-0.283],[0.564,-0.258],[0.538,-0.248],[0.113,-0.248],[0.113,-0.312],[0.546,-0.312],[0.503,-0.281],[0.482,-0.385],[0.42,-0.457],[0.323,-0.483],[0.223,-0.456],[0.157,-0.382],[0.133,-0.273],[0.16,-0.165],[0.232,-0.091],[0.338,-0.064],[0.411,-0.077],[0.469,-0.108],[0.494,-0.118],[0.518,-0.11],[0.532,-0.084],[0.52,-0.06],[0.436,-0.014]],"i":[[0.030999999999999972,0],[0.04099999999999998,0.024],[0.022999999999999993,0.04200000000000001],[0,0.05400000000000002],[-0.023000000000000007,0.04199999999999998],[-0.03900000000000001,0.02400000000000002],[-0.05099999999999999,0],[-0.038000000000000034,-0.02300000000000002],[-0.02100000000000002,-0.041000000000000036],[0,-0.052000000000000046],[0.007000000000000006,-0.006000000000000005],[0.01100000000000001,0],[0,0],[0,0],[0,0],[0,0],[0.015000000000000013,0.031000000000000028],[0.027000000000000024,0.017000000000000015],[0.03699999999999998,0],[0.028999999999999998,-0.01799999999999996],[0.014999999999999986,-0.030999999999999972],[0,-0.04099999999999998],[-0.018000000000000016,-0.031],[-0.031,-0.018000000000000002],[-0.040000000000000036,0],[-0.024999999999999967,0.008999999999999994],[-0.014999999999999958,0.012999999999999998],[-0.009000000000000008,0.000999999999999987],[-0.007000000000000006,-0.0050000000000000044],[-0.0010000000000000009,-0.008999999999999994],[0.008000000000000007,-0.007000000000000006],[0.033999999999999975,-0.011999999999999999]],"o":[[-0.05400000000000005,0],[-0.04200000000000001,-0.023],[-0.024000000000000007,-0.04200000000000001],[0,-0.05499999999999999],[0.022000000000000006,-0.041000000000000036],[0.03900000000000001,-0.02400000000000002],[0.05099999999999999,0],[0.03699999999999998,0.02400000000000002],[0.020999999999999908,0.04099999999999998],[0,0.010999999999999954],[-0.006999999999999895,0.007000000000000006],[0,0],[0,0],[0,0],[0,0],[0.0010000000000000009,-0.03899999999999998],[-0.014999999999999958,-0.030999999999999972],[-0.02699999999999997,-0.01699999999999996],[-0.038000000000000034,0],[-0.028999999999999998,0.018000000000000016],[-0.016000000000000014,0.03200000000000003],[0,0.04100000000000001],[0.016999999999999987,0.031],[0.031,0.018000000000000002],[0.023999999999999966,0],[0.02400000000000002,-0.008000000000000007],[0.007000000000000006,-0.006000000000000005],[0.009000000000000008,0],[0.009000000000000008,0.008000000000000007],[0,0.009000000000000008],[-0.02200000000000002,0.018999999999999996],[-0.033999999999999975,0.013000000000000001]]}}},{"ty":"st","o":{"a":0,"k":0},"w":{"a":0,"k":0},"c":{"a":0,"k":[0,0,0,0]},"lc":3,"lj":1,"ml":1},{"ty":"fl","o":{"a":0,"k":100},"r":1,"c":{"a":0,"k":[0.3764705882352941,0.3764705882352941,0.3764705882352941,1]}},{"ty":"tr","o":{"a":0,"k":100},"a":{"a":0,"k":[0,0]},"s":{"a":0,"k":[3000,3000]},"p":{"a":0,"k":[76.174,23.73]},"r":{"a":0,"k":0}}]},{"ty":"gr","nm":"talksppttxt shape group","it":[{"ty":"sh","ks":{"a":0,"k":{"c":true,"v":[[0.304,0],[0.21,-0.025],[0.144,-0.094],[0.12,-0.193],[0.12,-0.682],[0.131,-0.71],[0.158,-0.721],[0.186,-0.71],[0.197,-0.682],[0.197,-0.193],[0.227,-0.11],[0.304,-0.077],[0.331,-0.077],[0.357,-0.066],[0.367,-0.038],[0.355,-0.011],[0.325,0]],"i":[[0,0],[0.026999999999999996,0.017],[0.016000000000000014,0.028999999999999998],[0,0.037000000000000005],[0,0],[-0.007000000000000006,0.007000000000000006],[-0.01100000000000001,0],[-0.007000000000000006,-0.007000000000000006],[0,-0.010999999999999899],[0,0],[-0.020000000000000018,-0.021000000000000005],[-0.030999999999999972,0],[0,0],[-0.007000000000000006,-0.006999999999999992],[0,-0.011000000000000003],[0.008000000000000007,-0.006999999999999999],[0.01200000000000001,0]],"o":[[-0.034999999999999976,0],[-0.027999999999999997,-0.017],[-0.015999999999999986,-0.028999999999999998],[0,0],[0,-0.010999999999999899],[0.007000000000000006,-0.007000000000000006],[0.01100000000000001,0],[0.007000000000000006,0.007000000000000006],[0,0],[0,0.034],[0.01999999999999999,0.022000000000000006],[0,0],[0.01100000000000001,0],[0.007000000000000006,0.007000000000000006],[0,0.011],[-0.008000000000000007,0.006999999999999999],[0,0]]}}},{"ty":"sh","ks":{"a":0,"k":{"c":true,"v":[[0.055,-0.46],[0.03,-0.47],[0.02,-0.493],[0.03,-0.518],[0.055,-0.527],[0.31,-0.527],[0.335,-0.518],[0.345,-0.493],[0.335,-0.47],[0.31,-0.46]],"i":[[0,0],[0.006999999999999999,0.006999999999999951],[0,0.009000000000000008],[-0.006999999999999999,0.007000000000000006],[-0.010000000000000002,0],[0,0],[-0.007000000000000006,-0.006000000000000005],[0,-0.010000000000000009],[0.007000000000000006,-0.006000000000000005],[0.010000000000000009,0]],"o":[[-0.010000000000000002,0],[-0.006999999999999999,-0.006000000000000005],[0,-0.010000000000000009],[0.006999999999999999,-0.006000000000000005],[0,0],[0.010000000000000009,0],[0.007000000000000006,0.007000000000000006],[0,0.009000000000000008],[-0.007000000000000006,0.006999999999999951],[0,0]]}}},{"ty":"st","o":{"a":0,"k":0},"w":{"a":0,"k":0},"c":{"a":0,"k":[0,0,0,0]},"lc":3,"lj":1,"ml":1},{"ty":"fl","o":{"a":0,"k":100},"r":1,"c":{"a":0,"k":[0.3764705882352941,0.3764705882352941,0.3764705882352941,1]}},{"ty":"tr","o":{"a":0,"k":100},"a":{"a":0,"k":[0,0]},"s":{"a":0,"k":[3000,3000]},"p":{"a":0,"k":[64.114,23.73]},"r":{"a":0,"k":0}}]},{"ty":"gr","nm":"talksppttxt shape group","it":[{"ty":"sh","ks":{"a":0,"k":{"c":true,"v":[[0.122,-0.337],[0.155,-0.448],[0.232,-0.525],[0.337,-0.553],[0.408,-0.54],[0.427,-0.502],[0.414,-0.482],[0.391,-0.478],[0.36,-0.48],[0.261,-0.469],[0.192,-0.418],[0.166,-0.337]],"i":[[0,0],[-0.01999999999999999,0.03300000000000003],[-0.032,0.019000000000000017],[-0.039000000000000035,0],[-0.01699999999999996,-0.009000000000000008],[0.0040000000000000036,-0.017000000000000015],[0.006000000000000005,-0.0030000000000000027],[0.009000000000000008,0.0010000000000000009],[0.01100000000000001,0.0010000000000000009],[0.02899999999999997,-0.01100000000000001],[0.016999999999999987,-0.02300000000000002],[0,-0.030999999999999972]],"o":[[0.0020000000000000018,-0.04099999999999998],[0.01899999999999999,-0.032999999999999974],[0.031,-0.019000000000000017],[0.030999999999999972,0],[0.017000000000000015,0.009000000000000008],[-0.0030000000000000027,0.010000000000000009],[-0.007000000000000006,0.0030000000000000027],[-0.009000000000000008,-0.0010000000000000009],[-0.03699999999999998,-0.0030000000000000027],[-0.028999999999999998,0.010999999999999954],[-0.017000000000000015,0.022999999999999965],[0,0]]}}},{"ty":"sh","ks":{"a":0,"k":{"c":true,"v":[[0.128,0],[0.1,-0.01],[0.09,-0.038],[0.09,-0.509],[0.1,-0.537],[0.128,-0.547],[0.156,-0.537],[0.166,-0.509],[0.166,-0.038],[0.156,-0.01]],"i":[[0.01200000000000001,0],[0.006999999999999992,0.007],[0,0.012],[0,0],[-0.007000000000000006,0.007000000000000006],[-0.011999999999999997,0],[-0.007000000000000006,-0.007000000000000006],[0,-0.01200000000000001],[0,0],[0.007000000000000006,-0.007000000000000001]],"o":[[-0.011999999999999997,0],[-0.007000000000000006,-0.007000000000000001],[0,0],[0,-0.01200000000000001],[0.006999999999999992,-0.007000000000000006],[0.01200000000000001,0],[0.007000000000000006,0.007000000000000006],[0,0],[0,0.012],[-0.007000000000000006,0.007]]}}},{"ty":"st","o":{"a":0,"k":0},"w":{"a":0,"k":0},"c":{"a":0,"k":[0,0,0,0]},"lc":3,"lj":1,"ml":1},{"ty":"fl","o":{"a":0,"k":100},"r":1,"c":{"a":0,"k":[0.3764705882352941,0.3764705882352941,0.3764705882352941,1]}},{"ty":"tr","o":{"a":0,"k":100},"a":{"a":0,"k":[0,0]},"s":{"a":0,"k":[3000,3000]},"p":{"a":0,"k":[50.374,23.73]},"r":{"a":0,"k":0}}]},{"ty":"gr","nm":"talksppttxt shape group","it":[{"ty":"sh","ks":{"a":0,"k":{"c":true,"v":[[0.331,0.005],[0.193,-0.032],[0.097,-0.131],[0.061,-0.273],[0.098,-0.416],[0.197,-0.516],[0.339,-0.552],[0.481,-0.516],[0.58,-0.416],[0.617,-0.273],[0.586,-0.249],[0.553,-0.12],[0.462,-0.029]],"i":[[0.04899999999999999,0],[0.04100000000000001,0.025],[0.022999999999999993,0.04200000000000001],[0,0.05300000000000002],[-0.02500000000000001,0.04199999999999998],[-0.04200000000000001,0.025000000000000022],[-0.05300000000000005,0],[-0.04199999999999998,-0.02400000000000002],[-0.02499999999999991,-0.04200000000000004],[-0.0010000000000000009,-0.05299999999999999],[0,0],[0.02199999999999991,-0.038000000000000006],[0.03799999999999998,-0.021999999999999995]],"o":[[-0.05099999999999999,0],[-0.04100000000000001,-0.024],[-0.024000000000000007,-0.04199999999999998],[0,-0.05299999999999999],[0.023999999999999994,-0.04200000000000004],[0.04199999999999998,-0.02400000000000002],[0.05299999999999999,0],[0.041000000000000036,0.025000000000000022],[0.02400000000000002,0.04199999999999998],[0,0],[0,0.04799999999999999],[-0.02300000000000002,0.03899999999999999],[-0.039000000000000035,0.023]]}}},{"ty":"sh","ks":{"a":0,"k":{"c":true,"v":[[0.339,-0.065],[0.443,-0.092],[0.515,-0.167],[0.541,-0.273],[0.515,-0.38],[0.443,-0.455],[0.339,-0.482],[0.236,-0.455],[0.163,-0.38],[0.136,-0.273],[0.163,-0.167],[0.236,-0.092]],"i":[[-0.038000000000000034,0],[-0.031000000000000028,0.018000000000000002],[-0.018000000000000016,0.032],[0,0.03900000000000001],[0.017000000000000015,0.031000000000000028],[0.02999999999999997,0.019000000000000017],[0.03899999999999998,0],[0.031000000000000028,-0.01799999999999996],[0.017999999999999988,-0.030999999999999972],[0,-0.03999999999999998],[-0.018000000000000016,-0.031],[-0.031,-0.018000000000000002]],"o":[[0.03899999999999998,0],[0.02999999999999997,-0.018000000000000002],[0.017000000000000015,-0.031],[0,-0.03999999999999998],[-0.018000000000000016,-0.030999999999999972],[-0.031000000000000028,-0.01799999999999996],[-0.038000000000000034,0],[-0.031,0.019000000000000017],[-0.018000000000000016,0.031000000000000028],[0,0.03900000000000001],[0.017999999999999988,0.032],[0.031000000000000028,0.018000000000000002]]}}},{"ty":"sh","ks":{"a":0,"k":{"c":true,"v":[[0.578,0],[0.55,-0.011],[0.539,-0.038],[0.539,-0.209],[0.558,-0.288],[0.617,-0.273],[0.617,-0.038],[0.606,-0.011]],"i":[[0.01100000000000001,0],[0.007000000000000006,0.006999999999999999],[0,0.011],[0,0],[0,0],[0,0],[0,0],[0.007000000000000006,-0.006999999999999999]],"o":[[-0.01100000000000001,0],[-0.007000000000000006,-0.006999999999999999],[0,0],[0,0],[0,0],[0,0],[0,0.011],[-0.007000000000000006,0.006999999999999999]]}}},{"ty":"st","o":{"a":0,"k":0},"w":{"a":0,"k":0},"c":{"a":0,"k":[0,0,0,0]},"lc":3,"lj":1,"ml":1},{"ty":"fl","o":{"a":0,"k":100},"r":1,"c":{"a":0,"k":[0.3764705882352941,0.3764705882352941,0.3764705882352941,1]}},{"ty":"tr","o":{"a":0,"k":100},"a":{"a":0,"k":[0,0]},"s":{"a":0,"k":[3000,3000]},"p":{"a":0,"k":[30.064,23.73]},"r":{"a":0,"k":0}}]},{"ty":"gr","nm":"talksppttxt shape group","it":[{"ty":"sh","ks":{"a":0,"k":{"c":true,"v":[[0.304,0],[0.21,-0.025],[0.144,-0.094],[0.12,-0.193],[0.12,-0.682],[0.131,-0.71],[0.158,-0.721],[0.186,-0.71],[0.197,-0.682],[0.197,-0.193],[0.227,-0.11],[0.304,-0.077],[0.331,-0.077],[0.357,-0.066],[0.367,-0.038],[0.355,-0.011],[0.325,0]],"i":[[0,0],[0.026999999999999996,0.017],[0.016000000000000014,0.028999999999999998],[0,0.037000000000000005],[0,0],[-0.007000000000000006,0.007000000000000006],[-0.01100000000000001,0],[-0.007000000000000006,-0.007000000000000006],[0,-0.010999999999999899],[0,0],[-0.020000000000000018,-0.021000000000000005],[-0.030999999999999972,0],[0,0],[-0.007000000000000006,-0.006999999999999992],[0,-0.011000000000000003],[0.008000000000000007,-0.006999999999999999],[0.01200000000000001,0]],"o":[[-0.034999999999999976,0],[-0.027999999999999997,-0.017],[-0.015999999999999986,-0.028999999999999998],[0,0],[0,-0.010999999999999899],[0.007000000000000006,-0.007000000000000006],[0.01100000000000001,0],[0.007000000000000006,0.007000000000000006],[0,0],[0,0.034],[0.01999999999999999,0.022000000000000006],[0,0],[0.01100000000000001,0],[0.007000000000000006,0.007000000000000006],[0,0.011],[-0.008000000000000007,0.006999999999999999],[0,0]]}}},{"ty":"sh","ks":{"a":0,"k":{"c":true,"v":[[0.055,-0.46],[0.03,-0.47],[0.02,-0.493],[0.03,-0.518],[0.055,-0.527],[0.31,-0.527],[0.335,-0.518],[0.345,-0.493],[0.335,-0.47],[0.31,-0.46]],"i":[[0,0],[0.006999999999999999,0.006999999999999951],[0,0.009000000000000008],[-0.006999999999999999,0.007000000000000006],[-0.010000000000000002,0],[0,0],[-0.007000000000000006,-0.006000000000000005],[0,-0.010000000000000009],[0.007000000000000006,-0.006000000000000005],[0.010000000000000009,0]],"o":[[-0.010000000000000002,0],[-0.006999999999999999,-0.006000000000000005],[0,-0.010000000000000009],[0.006999999999999999,-0.006000000000000005],[0,0],[0.010000000000000009,0],[0.007000000000000006,0.007000000000000006],[0,0.009000000000000008],[-0.007000000000000006,0.006999999999999951],[0,0]]}}},{"ty":"st","o":{"a":0,"k":0},"w":{"a":0,"k":0},"c":{"a":0,"k":[0,0,0,0]},"lc":3,"lj":1,"ml":1},{"ty":"fl","o":{"a":0,"k":100},"r":1,"c":{"a":0,"k":[0.3764705882352941,0.3764705882352941,0.3764705882352941,1]}},{"ty":"tr","o":{"a":0,"k":100},"a":{"a":0,"k":[0,0]},"s":{"a":0,"k":[3000,3000]},"p":{"a":0,"k":[18.004,23.73]},"r":{"a":0,"k":0}}]},{"ty":"gr","nm":"talksppttxt shape group","it":[{"ty":"sh","ks":{"a":0,"k":{"c":true,"v":[[0.34,0.01],[0.222,-0.009],[0.127,-0.061],[0.066,-0.14],[0.066,-0.17],[0.091,-0.188],[0.119,-0.185],[0.139,-0.164],[0.183,-0.112],[0.252,-0.077],[0.34,-0.064],[0.434,-0.082],[0.499,-0.133],[0.522,-0.214],[0.477,-0.319],[0.336,-0.375],[0.153,-0.448],[0.087,-0.591],[0.12,-0.697],[0.209,-0.767],[0.34,-0.791],[0.44,-0.774],[0.519,-0.728],[0.573,-0.665],[0.58,-0.634],[0.562,-0.611],[0.532,-0.609],[0.508,-0.628],[0.471,-0.672],[0.416,-0.704],[0.339,-0.717],[0.212,-0.684],[0.164,-0.586],[0.182,-0.524],[0.242,-0.475],[0.353,-0.444],[0.539,-0.368],[0.599,-0.215],[0.58,-0.119],[0.525,-0.049],[0.442,-0.005]],"i":[[0.035999999999999976,0],[0.036000000000000004,0.013],[0.026999999999999996,0.023],[0.013999999999999999,0.030000000000000013],[-0.0050000000000000044,0.009000000000000008],[-0.011999999999999997,0.0030000000000000027],[-0.008999999999999994,-0.0050000000000000044],[-0.0050000000000000044,-0.00899999999999998],[-0.01899999999999999,-0.015],[-0.026999999999999996,-0.008000000000000007],[-0.03200000000000003,0],[-0.027000000000000024,0.011999999999999997],[-0.016000000000000014,0.023000000000000007],[0,0.032],[0.030000000000000027,0.029000000000000026],[0.064,0.008000000000000007],[0.04400000000000001,0.039000000000000035],[0,0.05699999999999994],[-0.021999999999999992,0.029999999999999916],[-0.03799999999999998,0.017000000000000015],[-0.049000000000000044,0],[-0.030000000000000027,-0.01100000000000001],[-0.02300000000000002,-0.019000000000000017],[-0.013999999999999901,-0.02299999999999991],[0.0020000000000000018,-0.010000000000000009],[0.008999999999999897,-0.0050000000000000044],[0.010000000000000009,0.0030000000000000027],[0.0050000000000000044,0.009000000000000008],[0.015000000000000013,0.014000000000000012],[0.02100000000000002,0.008000000000000007],[0.02999999999999997,0.0010000000000000009],[0.032,-0.02199999999999991],[0,-0.04300000000000004],[-0.011999999999999983,-0.019000000000000017],[-0.027999999999999997,-0.013000000000000012],[-0.046999999999999986,-0.007000000000000006],[-0.041000000000000036,-0.03899999999999998],[0,-0.06300000000000003],[0.01200000000000001,-0.027999999999999997],[0.02300000000000002,-0.019000000000000003],[0.030999999999999972,-0.009999999999999998]],"o":[[-0.04300000000000004,0],[-0.037000000000000005,-0.012000000000000002],[-0.026999999999999996,-0.023000000000000007],[-0.0050000000000000044,-0.010999999999999982],[0.0040000000000000036,-0.00899999999999998],[0.009000000000000008,-0.0030000000000000027],[0.009000000000000008,0.0050000000000000044],[0.009999999999999981,0.019000000000000017],[0.019000000000000017,0.015],[0.027000000000000024,0.008999999999999994],[0.034999999999999976,0],[0.027000000000000024,-0.010999999999999996],[0.015000000000000013,-0.021999999999999992],[0,-0.04100000000000001],[-0.02999999999999997,-0.02899999999999997],[-0.07800000000000001,-0.009000000000000008],[-0.044,-0.03899999999999998],[0,-0.041000000000000036],[0.02099999999999999,-0.030000000000000027],[0.038000000000000006,-0.016000000000000014],[0.03699999999999998,0],[0.02999999999999997,0.01200000000000001],[0.02200000000000002,0.019000000000000017],[0.007000000000000006,0.01100000000000001],[-0.0030000000000000027,0.010000000000000009],[-0.010000000000000009,0.0050000000000000044],[-0.01100000000000001,-0.0030000000000000027],[-0.010000000000000009,-0.015000000000000013],[-0.014999999999999958,-0.013000000000000012],[-0.020999999999999963,-0.008000000000000007],[-0.05300000000000005,0],[-0.032,0.02300000000000002],[0,0.02300000000000002],[0.01200000000000001,0.019000000000000017],[0.027000000000000024,0.013999999999999957],[0.08300000000000002,0.01200000000000001],[0.039999999999999925,0.03899999999999998],[0,0.036000000000000004],[-0.013000000000000012,0.027999999999999997],[-0.02400000000000002,0.02],[-0.03200000000000003,0.01]]}}},{"ty":"st","o":{"a":0,"k":0},"w":{"a":0,"k":0},"c":{"a":0,"k":[0,0,0,0]},"lc":3,"lj":1,"ml":1},{"ty":"fl","o":{"a":0,"k":100},"r":1,"c":{"a":0,"k":[0.3764705882352941,0.3764705882352941,0.3764705882352941,1]}},{"ty":"tr","o":{"a":0,"k":100},"a":{"a":0,"k":[0,0]},"s":{"a":0,"k":[3000,3000]},"p":{"a":0,"k":[-1.856,23.73]},"r":{"a":0,"k":0}}]}],"op":78},{"ty":4,"nm":"heart","ip":0,"st":0,"ind":6,"hix":2,"ks":{"o":{"a":0,"k":100},"or":{"a":0,"k":[0,0,0]},"a":{"a":0,"k":[13.793991088867188,9.828498840332031,0]},"p":{"s":true,"x":{"a":0,"k":176.15975033680726},"y":{"a":0,"k":20.407346283752442}},"rx":{"a":0,"k":0},"ry":{"a":0,"k":0},"rz":{"a":0,"k":0},"s":{"a":1,"k":[{"t":0,"s":[0,0],"e":[0,0],"i":{"x":[1,1],"y":[1,1]},"o":{"x":[0,0],"y":[0,0]}},{"t":30,"s":[0,0],"e":[70,70],"i":{"x":[0.68,0.68],"y":[0.53,0.53]},"o":{"x":[0.55,0.55],"y":[0.085,0.085]}},{"t":47,"s":[70,70],"e":[52.49999999999999,52.49999999999999],"i":{"x":[0.45,0.45],"y":[0.94,0.94]},"o":{"x":[0.25,0.25],"y":[0.46,0.46]}},{"t":56,"s":[52.49999999999999,52.49999999999999],"e":[70,70],"i":{"x":[0.68,0.68],"y":[0.53,0.53]},"o":{"x":[0.55,0.55],"y":[0.085,0.085]}},{"t":64,"s":[70,70],"e":[65.625,65.625],"i":{"x":[0.45,0.45],"y":[0.94,0.94]},"o":{"x":[0.25,0.25],"y":[0.46,0.46]}},{"t":69,"s":[65.625,65.625],"e":[70,70],"i":{"x":[0.68,0.68],"y":[0.53,0.53]},"o":{"x":[0.55,0.55],"y":[0.085,0.085]}},{"t":73,"s":[70,70],"e":[68.908,68.908],"i":{"x":[0.45,0.45],"y":[0.94,0.94]},"o":{"x":[0.25,0.25],"y":[0.46,0.46]}},{"t":75,"s":[68.908,68.908],"e":[70,70],"i":{"x":[0.68,0.68],"y":[0.53,0.53]},"o":{"x":[0.55,0.55],"y":[0.085,0.085]}},{"t":78}]}},"shapes":[{"ty":"gr","nm":"heart shape group","it":[{"ty":"sh","ks":{"a":0,"k":{"c":true,"v":[[406.24,171.349],[417.275,169.383],[417.275,179.211],[406.24,187.074],[395.205,179.211],[395.205,169.383]],"i":[[-2.7590000000000146,-3.931999999999988],[-2.7589999999999577,-1.9660000000000082],[2.7590000000000146,-3.9310000000000116],[4.137999999999977,-1.9660000000000082],[1.93100000000004,2.948999999999984],[-2.7589999999999577,1.9659999999999798]],"o":[[2.7590000000000146,-3.931999999999988],[2.7590000000000146,1.9659999999999798],[-1.9309999999999832,2.948999999999984],[-4.138000000000034,-1.9660000000000082],[-2.7589999999999577,-3.9310000000000116],[2.7590000000000146,-1.9660000000000082]]}}},{"ty":"st","o":{"a":0,"k":0},"w":{"a":0,"k":0},"c":{"a":0,"k":[0,0,0,0]},"lc":3,"lj":1,"ml":1},{"ty":"fl","o":{"a":0,"k":60},"r":2,"c":{"a":0,"k":[0.9411764705882353,0.06274509803921569,0.06274509803921569,1]}},{"ty":"tr","o":{"a":0,"k":100},"a":{"a":0,"k":[0,0]},"s":{"a":0,"k":[100,100]},"p":{"a":0,"k":[-392.446,-167.417]},"r":{"a":0,"k":0}}]}],"op":78},{"ty":4,"nm":"speechbbl","ip":0,"st":0,"ind":5,"hix":3,"ks":{"o":{"a":0,"k":100},"or":{"a":0,"k":[0,0,0]},"a":{"a":0,"k":[26.548321685791016,53.36921340942383,0]},"p":{"s":true,"x":{"a":0,"k":176.596},"y":{"a":0,"k":40.001000000000005}},"rx":{"a":0,"k":180.08063500961774},"ry":{"a":0,"k":0},"rz":{"a":0,"k":0},"s":{"a":1,"k":[{"t":0,"s":[-59.699999999999996,0],"e":[-59.699999999999996,-63.4],"i":{"x":[1,0.32],"y":[1,1.275]},"o":{"x":[0,0.175],"y":[0,0.885]}},{"t":51}]}},"shapes":[{"ty":"gr","nm":"speechbbl shape group","it":[{"ty":"sh","ks":{"a":0,"k":{"c":true,"v":[[425.426,170.398],[398.169,148.379],[370.912,170.398],[383.293,188.849],[384.037,202.893],[395.491,192.311],[398.169,192.417]],"i":[[0,12.152999999999992],[15.043000000000006,0],[0,-12.152999999999992],[-7.723000000000013,-4.063999999999993],[0,0],[0,0],[-0.8949999999999818,0]],"o":[[0,-12.152999999999992],[-15.043999999999983,0],[0,7.445999999999998],[0,0],[0,0],[0.8899999999999864,0.07099999999999795],[15.043000000000006,0]]}}},{"ty":"st","o":{"a":0,"k":0},"w":{"a":0,"k":0},"c":{"a":0,"k":[0,0,0,0]},"lc":3,"lj":1,"ml":1},{"ty":"fl","o":{"a":0,"k":100},"r":2,"c":{"a":0,"k":[1,1,1,1]}},{"ty":"tr","o":{"a":0,"k":100},"a":{"a":0,"k":[0,0]},"s":{"a":0,"k":[100,100]},"p":{"a":0,"k":[-370.912,-148.379]},"r":{"a":0,"k":0}}]}],"op":78},{"ty":4,"nm":"text","ip":0,"st":0,"ind":4,"hix":5,"ks":{"o":{"a":1,"k":[{"t":0,"s":[0],"e":[0],"i":{"x":[0.515],"y":[0.955]},"o":{"x":[0.455],"y":[0.03]}},{"t":15}]},"or":{"a":0,"k":[0,0,0]},"a":{"a":0,"k":[152.91925286865234,31.703249999999997,0]},"p":{"s":true,"x":{"a":1,"k":[{"t":0,"s":[307.113],"e":[307.987],"i":{"x":[0.515],"y":[0.955]},"o":{"x":[0.455],"y":[0.03]}},{"t":51}]},"y":{"a":1,"k":[{"t":0,"s":[44.116],"e":[43.241],"i":{"x":[0.515],"y":[0.955]},"o":{"x":[0.455],"y":[0.03]}},{"t":51}]}},"rx":{"a":0,"k":0},"ry":{"a":0,"k":0},"rz":{"a":0,"k":0},"s":{"a":1,"k":[{"t":0,"s":[64.7,0],"e":[64.7,91.2],"i":{"x":[1,0.367],"y":[1,0.556]},"o":{"x":[0,0.4],"y":[0,2.5]}},{"t":25,"s":[64.7,91.2],"e":[64.7,92.76864000000002],"i":{"x":[1,0.565],"y":[1,1]},"o":{"x":[0,0.39],"y":[0,0.575]}},{"t":29,"s":[64.7,92.76864000000002],"e":[64.7,91.2],"i":{"x":[1,0.745],"y":[1,0.715]},"o":{"x":[0,0.47],"y":[0,0]}},{"t":35,"s":[64.7,91.2],"e":[64.7,90.80784000000001],"i":{"x":[1,0.565],"y":[1,1]},"o":{"x":[0,0.39],"y":[0,0.575]}},{"t":39,"s":[64.7,90.80784000000001],"e":[64.7,91.2],"i":{"x":[1,0.745],"y":[1,0.715]},"o":{"x":[0,0.47],"y":[0,0]}},{"t":51}]}},"shapes":[{"ty":"gr","nm":"text shape group","it":[{"ty":"sh","ks":{"a":0,"k":{"c":true,"v":[[0.304,0],[0.21,-0.025],[0.144,-0.094],[0.12,-0.193],[0.12,-0.682],[0.131,-0.71],[0.158,-0.721],[0.186,-0.71],[0.197,-0.682],[0.197,-0.193],[0.227,-0.11],[0.304,-0.077],[0.331,-0.077],[0.357,-0.066],[0.367,-0.038],[0.355,-0.011],[0.325,0]],"i":[[0,0],[0.026999999999999996,0.017],[0.016000000000000014,0.028999999999999998],[0,0.037000000000000005],[0,0],[-0.007000000000000006,0.007000000000000006],[-0.01100000000000001,0],[-0.007000000000000006,-0.007000000000000006],[0,-0.010999999999999899],[0,0],[-0.020000000000000018,-0.021000000000000005],[-0.030999999999999972,0],[0,0],[-0.007000000000000006,-0.006999999999999992],[0,-0.011000000000000003],[0.008000000000000007,-0.006999999999999999],[0.01200000000000001,0]],"o":[[-0.034999999999999976,0],[-0.027999999999999997,-0.017],[-0.015999999999999986,-0.028999999999999998],[0,0],[0,-0.010999999999999899],[0.007000000000000006,-0.007000000000000006],[0.01100000000000001,0],[0.007000000000000006,0.007000000000000006],[0,0],[0,0.034],[0.01999999999999999,0.022000000000000006],[0,0],[0.01100000000000001,0],[0.007000000000000006,0.007000000000000006],[0,0.011],[-0.008000000000000007,0.006999999999999999],[0,0]]}}},{"ty":"sh","ks":{"a":0,"k":{"c":true,"v":[[0.055,-0.46],[0.03,-0.47],[0.02,-0.493],[0.03,-0.518],[0.055,-0.527],[0.31,-0.527],[0.335,-0.518],[0.345,-0.493],[0.335,-0.47],[0.31,-0.46]],"i":[[0,0],[0.006999999999999999,0.006999999999999951],[0,0.009000000000000008],[-0.006999999999999999,0.007000000000000006],[-0.010000000000000002,0],[0,0],[-0.007000000000000006,-0.006000000000000005],[0,-0.010000000000000009],[0.007000000000000006,-0.006000000000000005],[0.010000000000000009,0]],"o":[[-0.010000000000000002,0],[-0.006999999999999999,-0.006000000000000005],[0,-0.010000000000000009],[0.006999999999999999,-0.006000000000000005],[0,0],[0.010000000000000009,0],[0.007000000000000006,0.007000000000000006],[0,0.009000000000000008],[-0.007000000000000006,0.006999999999999951],[0,0]]}}},{"ty":"st","o":{"a":0,"k":0},"w":{"a":0,"k":0},"c":{"a":0,"k":[0,0,0,0]},"lc":3,"lj":1,"ml":1},{"ty":"fl","o":{"a":0,"k":100},"r":1,"c":{"a":0,"k":[0.3764705882352941,0.3764705882352941,0.3764705882352941,1]}},{"ty":"tr","o":{"a":0,"k":100},"a":{"a":0,"k":[0,0]},"s":{"a":0,"k":[3000,3000]},"p":{"a":0,"k":[293.61,23.73]},"r":{"a":0,"k":0}}]},{"ty":"gr","nm":"text shape group","it":[{"ty":"sh","ks":{"a":0,"k":{"c":true,"v":[[0.122,-0.337],[0.155,-0.448],[0.232,-0.525],[0.337,-0.553],[0.408,-0.54],[0.427,-0.502],[0.414,-0.482],[0.391,-0.478],[0.36,-0.48],[0.261,-0.469],[0.192,-0.418],[0.166,-0.337]],"i":[[0,0],[-0.01999999999999999,0.03300000000000003],[-0.032,0.019000000000000017],[-0.039000000000000035,0],[-0.01699999999999996,-0.009000000000000008],[0.0040000000000000036,-0.017000000000000015],[0.006000000000000005,-0.0030000000000000027],[0.009000000000000008,0.0010000000000000009],[0.01100000000000001,0.0010000000000000009],[0.02899999999999997,-0.01100000000000001],[0.016999999999999987,-0.02300000000000002],[0,-0.030999999999999972]],"o":[[0.0020000000000000018,-0.04099999999999998],[0.01899999999999999,-0.032999999999999974],[0.031,-0.019000000000000017],[0.030999999999999972,0],[0.017000000000000015,0.009000000000000008],[-0.0030000000000000027,0.010000000000000009],[-0.007000000000000006,0.0030000000000000027],[-0.009000000000000008,-0.0010000000000000009],[-0.03699999999999998,-0.0030000000000000027],[-0.028999999999999998,0.010999999999999954],[-0.017000000000000015,0.022999999999999965],[0,0]]}}},{"ty":"sh","ks":{"a":0,"k":{"c":true,"v":[[0.128,0],[0.1,-0.01],[0.09,-0.038],[0.09,-0.509],[0.1,-0.537],[0.128,-0.547],[0.156,-0.537],[0.166,-0.509],[0.166,-0.038],[0.156,-0.01]],"i":[[0.01200000000000001,0],[0.006999999999999992,0.007],[0,0.012],[0,0],[-0.007000000000000006,0.007000000000000006],[-0.011999999999999997,0],[-0.007000000000000006,-0.007000000000000006],[0,-0.01200000000000001],[0,0],[0.007000000000000006,-0.007000000000000001]],"o":[[-0.011999999999999997,0],[-0.007000000000000006,-0.007000000000000001],[0,0],[0,-0.01200000000000001],[0.006999999999999992,-0.007000000000000006],[0.01200000000000001,0],[0.007000000000000006,0.007000000000000006],[0,0],[0,0.012],[-0.007000000000000006,0.007]]}}},{"ty":"st","o":{"a":0,"k":0},"w":{"a":0,"k":0},"c":{"a":0,"k":[0,0,0,0]},"lc":3,"lj":1,"ml":1},{"ty":"fl","o":{"a":0,"k":100},"r":1,"c":{"a":0,"k":[0.3764705882352941,0.3764705882352941,0.3764705882352941,1]}},{"ty":"tr","o":{"a":0,"k":100},"a":{"a":0,"k":[0,0]},"s":{"a":0,"k":[3000,3000]},"p":{"a":0,"k":[279.87,23.73]},"r":{"a":0,"k":0}}]},{"ty":"gr","nm":"text shape group","it":[{"ty":"sh","ks":{"a":0,"k":{"c":true,"v":[[0.339,0.005],[0.196,-0.031],[0.097,-0.13],[0.061,-0.273],[0.097,-0.417],[0.196,-0.516],[0.339,-0.552],[0.482,-0.516],[0.58,-0.417],[0.617,-0.273],[0.581,-0.13],[0.482,-0.031]],"i":[[0.05299999999999999,0],[0.04199999999999998,0.024],[0.023999999999999994,0.04200000000000001],[0,0.05300000000000002],[-0.024000000000000007,0.04199999999999998],[-0.04200000000000001,0.02400000000000002],[-0.05300000000000005,0],[-0.04199999999999998,-0.02400000000000002],[-0.02399999999999991,-0.04200000000000004],[-0.0010000000000000009,-0.05399999999999999],[0.02400000000000002,-0.04199999999999998],[0.041000000000000036,-0.024]],"o":[[-0.05300000000000005,0],[-0.04200000000000001,-0.024],[-0.024000000000000007,-0.04199999999999998],[0,-0.05399999999999999],[0.023999999999999994,-0.04200000000000004],[0.04199999999999998,-0.02400000000000002],[0.05299999999999999,0],[0.041000000000000036,0.02400000000000002],[0.02400000000000002,0.04199999999999998],[0,0.05300000000000002],[-0.02499999999999991,0.04200000000000001],[-0.04199999999999998,0.024]]}}},{"ty":"sh","ks":{"a":0,"k":{"c":true,"v":[[0.339,-0.065],[0.443,-0.092],[0.515,-0.166],[0.541,-0.273],[0.515,-0.381],[0.443,-0.455],[0.339,-0.482],[0.235,-0.455],[0.163,-0.381],[0.136,-0.273],[0.163,-0.166],[0.235,-0.092]],"i":[[-0.039000000000000035,0],[-0.031000000000000028,0.018000000000000002],[-0.017000000000000015,0.031],[0,0.04000000000000001],[0.017000000000000015,0.03200000000000003],[0.030999999999999972,0.018000000000000016],[0.03899999999999998,0],[0.031000000000000028,-0.01799999999999996],[0.016999999999999987,-0.030999999999999972],[0,-0.03999999999999998],[-0.018000000000000016,-0.031],[-0.031,-0.018000000000000002]],"o":[[0.03899999999999998,0],[0.030999999999999972,-0.018000000000000002],[0.017000000000000015,-0.031],[0,-0.03999999999999998],[-0.017000000000000015,-0.030999999999999972],[-0.031000000000000028,-0.01799999999999996],[-0.039000000000000035,0],[-0.031,0.018000000000000016],[-0.018000000000000016,0.03200000000000003],[0,0.04000000000000001],[0.016999999999999987,0.031],[0.031000000000000028,0.018000000000000002]]}}},{"ty":"st","o":{"a":0,"k":0},"w":{"a":0,"k":0},"c":{"a":0,"k":[0,0,0,0]},"lc":3,"lj":1,"ml":1},{"ty":"fl","o":{"a":0,"k":100},"r":1,"c":{"a":0,"k":[0.3764705882352941,0.3764705882352941,0.3764705882352941,1]}},{"ty":"tr","o":{"a":0,"k":100},"a":{"a":0,"k":[0,0]},"s":{"a":0,"k":[3000,3000]},"p":{"a":0,"k":[259.56,23.73]},"r":{"a":0,"k":0}}]},{"ty":"gr","nm":"text shape group","it":[{"ty":"sh","ks":{"a":0,"k":{"c":true,"v":[[0.129,0.234],[0.101,0.224],[0.09,0.195],[0.09,-0.277],[0.128,-0.418],[0.227,-0.516],[0.367,-0.552],[0.51,-0.516],[0.61,-0.416],[0.646,-0.273],[0.611,-0.131],[0.514,-0.032],[0.376,0.005],[0.255,-0.024],[0.167,-0.099],[0.167,0.195],[0.157,0.224]],"i":[[0.01100000000000001,0],[0.006999999999999992,0.007000000000000006],[0,0.011999999999999983],[0,0],[-0.02500000000000001,0.04199999999999998],[-0.04200000000000001,0.02400000000000002],[-0.05199999999999999,0],[-0.04199999999999998,-0.02400000000000002],[-0.025000000000000022,-0.04200000000000004],[0,-0.05299999999999999],[0.02300000000000002,-0.04199999999999998],[0.041000000000000036,-0.024],[0.05099999999999999,0],[0.035999999999999976,0.019],[0.021999999999999992,0.031],[0,0],[0.007000000000000006,-0.007000000000000006]],"o":[[-0.011999999999999997,0],[-0.008000000000000007,-0.007000000000000006],[0,0],[0.0010000000000000009,-0.05199999999999999],[0.023999999999999994,-0.041000000000000036],[0.04100000000000001,-0.02400000000000002],[0.05299999999999999,0],[0.04200000000000004,0.025000000000000022],[0.02400000000000002,0.04199999999999998],[0,0.05300000000000002],[-0.02400000000000002,0.04200000000000001],[-0.041000000000000036,0.025],[-0.044999999999999984,0],[-0.037000000000000005,-0.018999999999999996],[0,0],[0,0.011999999999999983],[-0.007000000000000006,0.007000000000000006]]}}},{"ty":"sh","ks":{"a":0,"k":{"c":true,"v":[[0.367,-0.065],[0.471,-0.092],[0.544,-0.167],[0.57,-0.273],[0.544,-0.38],[0.471,-0.455],[0.367,-0.482],[0.264,-0.455],[0.192,-0.38],[0.166,-0.273],[0.192,-0.167],[0.264,-0.092]],"i":[[-0.03799999999999998,0],[-0.030999999999999972,0.018000000000000002],[-0.018000000000000016,0.032],[0,0.03900000000000001],[0.017000000000000015,0.031000000000000028],[0.031000000000000028,0.019000000000000017],[0.039000000000000035,0],[0.030999999999999972,-0.01799999999999996],[0.016999999999999987,-0.030999999999999972],[0,-0.03999999999999998],[-0.017000000000000015,-0.031],[-0.031,-0.018000000000000002]],"o":[[0.039000000000000035,0],[0.031000000000000028,-0.018000000000000002],[0.017000000000000015,-0.031],[0,-0.03999999999999998],[-0.018000000000000016,-0.030999999999999972],[-0.030999999999999972,-0.01799999999999996],[-0.03799999999999998,0],[-0.031,0.019000000000000017],[-0.017000000000000015,0.031000000000000028],[0,0.03900000000000001],[0.016999999999999987,0.032],[0.030999999999999972,0.018000000000000002]]}}},{"ty":"st","o":{"a":0,"k":0},"w":{"a":0,"k":0},"c":{"a":0,"k":[0,0,0,0]},"lc":3,"lj":1,"ml":1},{"ty":"fl","o":{"a":0,"k":100},"r":1,"c":{"a":0,"k":[0.3764705882352941,0.3764705882352941,0.3764705882352941,1]}},{"ty":"tr","o":{"a":0,"k":100},"a":{"a":0,"k":[0,0]},"s":{"a":0,"k":[3000,3000]},"p":{"a":0,"k":[238.35,23.73]},"r":{"a":0,"k":0}}]},{"ty":"gr","nm":"text shape group","it":[{"ty":"sh","ks":{"a":0,"k":{"c":true,"v":[[0.129,0.234],[0.101,0.224],[0.09,0.195],[0.09,-0.277],[0.128,-0.418],[0.227,-0.516],[0.367,-0.552],[0.51,-0.516],[0.61,-0.416],[0.646,-0.273],[0.611,-0.131],[0.514,-0.032],[0.376,0.005],[0.255,-0.024],[0.167,-0.099],[0.167,0.195],[0.157,0.224]],"i":[[0.01100000000000001,0],[0.006999999999999992,0.007000000000000006],[0,0.011999999999999983],[0,0],[-0.02500000000000001,0.04199999999999998],[-0.04200000000000001,0.02400000000000002],[-0.05199999999999999,0],[-0.04199999999999998,-0.02400000000000002],[-0.025000000000000022,-0.04200000000000004],[0,-0.05299999999999999],[0.02300000000000002,-0.04199999999999998],[0.041000000000000036,-0.024],[0.05099999999999999,0],[0.035999999999999976,0.019],[0.021999999999999992,0.031],[0,0],[0.007000000000000006,-0.007000000000000006]],"o":[[-0.011999999999999997,0],[-0.008000000000000007,-0.007000000000000006],[0,0],[0.0010000000000000009,-0.05199999999999999],[0.023999999999999994,-0.041000000000000036],[0.04100000000000001,-0.02400000000000002],[0.05299999999999999,0],[0.04200000000000004,0.025000000000000022],[0.02400000000000002,0.04199999999999998],[0,0.05300000000000002],[-0.02400000000000002,0.04200000000000001],[-0.041000000000000036,0.025],[-0.044999999999999984,0],[-0.037000000000000005,-0.018999999999999996],[0,0],[0,0.011999999999999983],[-0.007000000000000006,0.007000000000000006]]}}},{"ty":"sh","ks":{"a":0,"k":{"c":true,"v":[[0.367,-0.065],[0.471,-0.092],[0.544,-0.167],[0.57,-0.273],[0.544,-0.38],[0.471,-0.455],[0.367,-0.482],[0.264,-0.455],[0.192,-0.38],[0.166,-0.273],[0.192,-0.167],[0.264,-0.092]],"i":[[-0.03799999999999998,0],[-0.030999999999999972,0.018000000000000002],[-0.018000000000000016,0.032],[0,0.03900000000000001],[0.017000000000000015,0.031000000000000028],[0.031000000000000028,0.019000000000000017],[0.039000000000000035,0],[0.030999999999999972,-0.01799999999999996],[0.016999999999999987,-0.030999999999999972],[0,-0.03999999999999998],[-0.017000000000000015,-0.031],[-0.031,-0.018000000000000002]],"o":[[0.039000000000000035,0],[0.031000000000000028,-0.018000000000000002],[0.017000000000000015,-0.031],[0,-0.03999999999999998],[-0.018000000000000016,-0.030999999999999972],[-0.030999999999999972,-0.01799999999999996],[-0.03799999999999998,0],[-0.031,0.019000000000000017],[-0.017000000000000015,0.031000000000000028],[0,0.03900000000000001],[0.016999999999999987,0.032],[0.030999999999999972,0.018000000000000002]]}}},{"ty":"st","o":{"a":0,"k":0},"w":{"a":0,"k":0},"c":{"a":0,"k":[0,0,0,0]},"lc":3,"lj":1,"ml":1},{"ty":"fl","o":{"a":0,"k":100},"r":1,"c":{"a":0,"k":[0.3764705882352941,0.3764705882352941,0.3764705882352941,1]}},{"ty":"tr","o":{"a":0,"k":100},"a":{"a":0,"k":[0,0]},"s":{"a":0,"k":[3000,3000]},"p":{"a":0,"k":[217.14,23.73]},"r":{"a":0,"k":0}}]},{"ty":"gr","nm":"text shape group","it":[{"ty":"sh","ks":{"a":0,"k":{"c":true,"v":[[0.328,0.006],[0.201,-0.024],[0.113,-0.11],[0.08,-0.249],[0.08,-0.509],[0.091,-0.536],[0.118,-0.547],[0.146,-0.536],[0.157,-0.509],[0.157,-0.249],[0.181,-0.147],[0.245,-0.087],[0.336,-0.067],[0.425,-0.086],[0.487,-0.138],[0.51,-0.213],[0.565,-0.213],[0.531,-0.101],[0.446,-0.023]],"i":[[0.04299999999999998,0],[0.03699999999999998,0.02],[0.021000000000000005,0.038000000000000006],[0,0.05499999999999999],[0,0],[-0.006999999999999992,0.007000000000000006],[-0.010999999999999996,0],[-0.0069999999999999785,-0.007000000000000006],[0,-0.01100000000000001],[0,0],[-0.015999999999999986,-0.026999999999999996],[-0.026999999999999996,-0.013000000000000012],[-0.03400000000000003,0],[-0.02699999999999997,0.012999999999999998],[-0.015000000000000013,0.022000000000000006],[0,0.027999999999999997],[0,0],[0.02100000000000002,-0.032],[0.034999999999999976,-0.019000000000000003]],"o":[[-0.046999999999999986,0],[-0.037000000000000005,-0.018999999999999996],[-0.022000000000000006,-0.03799999999999999],[0,0],[0,-0.01100000000000001],[0.007000000000000006,-0.007000000000000006],[0.01100000000000001,0],[0.007000000000000006,0.007000000000000006],[0,0],[0,0.04100000000000001],[0.015000000000000013,0.026999999999999996],[0.027000000000000024,0.012999999999999998],[0.032999999999999974,0],[0.026000000000000023,-0.013000000000000012],[0.015000000000000013,-0.021999999999999992],[0,0],[-0.0020000000000000018,0.04199999999999998],[-0.02200000000000002,0.033],[-0.03500000000000003,0.02]]}}},{"ty":"sh","ks":{"a":0,"k":{"c":true,"v":[[0.548,0],[0.521,-0.011],[0.51,-0.039],[0.51,-0.509],[0.521,-0.537],[0.548,-0.547],[0.576,-0.537],[0.587,-0.509],[0.587,-0.039],[0.576,-0.011]],"i":[[0.01100000000000001,0],[0.007000000000000006,0.006999999999999999],[0,0.012],[0,0],[-0.007000000000000006,0.007000000000000006],[-0.01100000000000001,0],[-0.007000000000000006,-0.007000000000000006],[0,-0.01100000000000001],[0,0],[0.007000000000000006,-0.006999999999999999]],"o":[[-0.01100000000000001,0],[-0.007000000000000006,-0.006999999999999999],[0,0],[0,-0.01100000000000001],[0.007000000000000006,-0.007000000000000006],[0.01100000000000001,0],[0.007000000000000006,0.007000000000000006],[0,0],[0,0.012],[-0.007000000000000006,0.006999999999999999]]}}},{"ty":"st","o":{"a":0,"k":0},"w":{"a":0,"k":0},"c":{"a":0,"k":[0,0,0,0]},"lc":3,"lj":1,"ml":1},{"ty":"fl","o":{"a":0,"k":100},"r":1,"c":{"a":0,"k":[0.3764705882352941,0.3764705882352941,0.3764705882352941,1]}},{"ty":"tr","o":{"a":0,"k":100},"a":{"a":0,"k":[0,0]},"s":{"a":0,"k":[3000,3000]},"p":{"a":0,"k":[196.83,23.73]},"r":{"a":0,"k":0}}]},{"ty":"gr","nm":"text shape group","it":[{"ty":"sh","ks":{"a":0,"k":{"c":true,"v":[[0.34,0.01],[0.222,-0.009],[0.127,-0.061],[0.066,-0.14],[0.066,-0.17],[0.091,-0.188],[0.119,-0.185],[0.139,-0.164],[0.183,-0.112],[0.252,-0.077],[0.34,-0.064],[0.434,-0.082],[0.499,-0.133],[0.522,-0.214],[0.477,-0.319],[0.336,-0.375],[0.153,-0.448],[0.087,-0.591],[0.12,-0.697],[0.209,-0.767],[0.34,-0.791],[0.44,-0.774],[0.519,-0.728],[0.573,-0.665],[0.58,-0.634],[0.562,-0.611],[0.532,-0.609],[0.508,-0.628],[0.471,-0.672],[0.416,-0.704],[0.339,-0.717],[0.212,-0.684],[0.164,-0.586],[0.182,-0.524],[0.242,-0.475],[0.353,-0.444],[0.539,-0.368],[0.599,-0.215],[0.58,-0.119],[0.525,-0.049],[0.442,-0.005]],"i":[[0.035999999999999976,0],[0.036000000000000004,0.013],[0.026999999999999996,0.023],[0.013999999999999999,0.030000000000000013],[-0.0050000000000000044,0.009000000000000008],[-0.011999999999999997,0.0030000000000000027],[-0.008999999999999994,-0.0050000000000000044],[-0.0050000000000000044,-0.00899999999999998],[-0.01899999999999999,-0.015],[-0.026999999999999996,-0.008000000000000007],[-0.03200000000000003,0],[-0.027000000000000024,0.011999999999999997],[-0.016000000000000014,0.023000000000000007],[0,0.032],[0.030000000000000027,0.029000000000000026],[0.064,0.008000000000000007],[0.04400000000000001,0.039000000000000035],[0,0.05699999999999994],[-0.021999999999999992,0.029999999999999916],[-0.03799999999999998,0.017000000000000015],[-0.049000000000000044,0],[-0.030000000000000027,-0.01100000000000001],[-0.02300000000000002,-0.019000000000000017],[-0.013999999999999901,-0.02299999999999991],[0.0020000000000000018,-0.010000000000000009],[0.008999999999999897,-0.0050000000000000044],[0.010000000000000009,0.0030000000000000027],[0.0050000000000000044,0.009000000000000008],[0.015000000000000013,0.014000000000000012],[0.02100000000000002,0.008000000000000007],[0.02999999999999997,0.0010000000000000009],[0.032,-0.02199999999999991],[0,-0.04300000000000004],[-0.011999999999999983,-0.019000000000000017],[-0.027999999999999997,-0.013000000000000012],[-0.046999999999999986,-0.007000000000000006],[-0.041000000000000036,-0.03899999999999998],[0,-0.06300000000000003],[0.01200000000000001,-0.027999999999999997],[0.02300000000000002,-0.019000000000000003],[0.030999999999999972,-0.009999999999999998]],"o":[[-0.04300000000000004,0],[-0.037000000000000005,-0.012000000000000002],[-0.026999999999999996,-0.023000000000000007],[-0.0050000000000000044,-0.010999999999999982],[0.0040000000000000036,-0.00899999999999998],[0.009000000000000008,-0.0030000000000000027],[0.009000000000000008,0.0050000000000000044],[0.009999999999999981,0.019000000000000017],[0.019000000000000017,0.015],[0.027000000000000024,0.008999999999999994],[0.034999999999999976,0],[0.027000000000000024,-0.010999999999999996],[0.015000000000000013,-0.021999999999999992],[0,-0.04100000000000001],[-0.02999999999999997,-0.02899999999999997],[-0.07800000000000001,-0.009000000000000008],[-0.044,-0.03899999999999998],[0,-0.041000000000000036],[0.02099999999999999,-0.030000000000000027],[0.038000000000000006,-0.016000000000000014],[0.03699999999999998,0],[0.02999999999999997,0.01200000000000001],[0.02200000000000002,0.019000000000000017],[0.007000000000000006,0.01100000000000001],[-0.0030000000000000027,0.010000000000000009],[-0.010000000000000009,0.0050000000000000044],[-0.01100000000000001,-0.0030000000000000027],[-0.010000000000000009,-0.015000000000000013],[-0.014999999999999958,-0.013000000000000012],[-0.020999999999999963,-0.008000000000000007],[-0.05300000000000005,0],[-0.032,0.02300000000000002],[0,0.02300000000000002],[0.01200000000000001,0.019000000000000017],[0.027000000000000024,0.013999999999999957],[0.08300000000000002,0.01200000000000001],[0.039999999999999925,0.03899999999999998],[0,0.036000000000000004],[-0.013000000000000012,0.027999999999999997],[-0.02400000000000002,0.02],[-0.03200000000000003,0.01]]}}},{"ty":"st","o":{"a":0,"k":0},"w":{"a":0,"k":0},"c":{"a":0,"k":[0,0,0,0]},"lc":3,"lj":1,"ml":1},{"ty":"fl","o":{"a":0,"k":100},"r":1,"c":{"a":0,"k":[0.3764705882352941,0.3764705882352941,0.3764705882352941,1]}},{"ty":"tr","o":{"a":0,"k":100},"a":{"a":0,"k":[0,0]},"s":{"a":0,"k":[3000,3000]},"p":{"a":0,"k":[176.97,23.73]},"r":{"a":0,"k":0}}]},{"ty":"gr","nm":"text shape group","it":[{"ty":"sh","ks":{"a":0,"k":{"c":true,"v":[[0.153,-0.183],[0.106,-0.234],[0.448,-0.543],[0.473,-0.554],[0.497,-0.541],[0.508,-0.516],[0.495,-0.492]],"i":[[0,0],[0,0],[0,0],[-0.008999999999999952,0],[-0.007000000000000006,-0.008000000000000007],[0,-0.009000000000000008],[0.008000000000000007,-0.007000000000000006]],"o":[[0,0],[0,0],[0.008000000000000007,-0.007000000000000006],[0.009000000000000008,0.0010000000000000009],[0.007000000000000006,0.008000000000000007],[-0.0010000000000000009,0.010000000000000009],[0,0]]}}},{"ty":"sh","ks":{"a":0,"k":{"c":true,"v":[[0.128,0],[0.101,-0.011],[0.09,-0.038],[0.09,-0.743],[0.101,-0.771],[0.128,-0.781],[0.156,-0.771],[0.166,-0.743],[0.166,-0.038],[0.156,-0.011]],"i":[[0.01100000000000001,0],[0.006999999999999992,0.006999999999999999],[0,0.011],[0,0],[-0.008000000000000007,0.008000000000000007],[-0.010999999999999996,0],[-0.007000000000000006,-0.007000000000000006],[0,-0.01100000000000001],[0,0],[0.007000000000000006,-0.006999999999999999]],"o":[[-0.010999999999999996,0],[-0.008000000000000007,-0.006999999999999999],[0,0],[0,-0.01100000000000001],[0.006999999999999992,-0.007000000000000006],[0.01100000000000001,0],[0.007000000000000006,0.008000000000000007],[0,0],[0,0.011],[-0.007000000000000006,0.006999999999999999]]}}},{"ty":"sh","ks":{"a":0,"k":{"c":true,"v":[[0.498,-0.005],[0.471,0.005],[0.447,-0.01],[0.224,-0.284],[0.278,-0.332],[0.503,-0.055],[0.512,-0.03]],"i":[[0.009000000000000008,-0.007],[0.009000000000000008,0.001],[0.007000000000000006,0.009000000000000001],[0,0],[0,0],[0,0],[0.0010000000000000009,-0.009000000000000001]],"o":[[-0.009000000000000008,0.007],[-0.008999999999999952,-0.001],[0,0],[0,0],[0,0],[0.007000000000000006,0.008],[-0.0010000000000000009,0.008999999999999998]]}}},{"ty":"st","o":{"a":0,"k":0},"w":{"a":0,"k":0},"c":{"a":0,"k":[0,0,0,0]},"lc":3,"lj":1,"ml":1},{"ty":"fl","o":{"a":0,"k":100},"r":1,"c":{"a":0,"k":[0.3764705882352941,0.3764705882352941,0.3764705882352941,1]}},{"ty":"tr","o":{"a":0,"k":100},"a":{"a":0,"k":[0,0]},"s":{"a":0,"k":[3000,3000]},"p":{"a":0,"k":[151.02,23.73]},"r":{"a":0,"k":0}}]},{"ty":"gr","nm":"text shape group","it":[{"ty":"sh","ks":{"a":0,"k":{"c":true,"v":[[0.208,0],[0.137,-0.022],[0.088,-0.083],[0.07,-0.173],[0.07,-0.743],[0.081,-0.771],[0.108,-0.781],[0.136,-0.771],[0.146,-0.743],[0.146,-0.173],[0.164,-0.103],[0.208,-0.076],[0.233,-0.076],[0.257,-0.066],[0.266,-0.038],[0.254,-0.011],[0.221,0]],"i":[[0,0],[0.02099999999999999,0.015],[0.01100000000000001,0.026000000000000002],[0,0.033999999999999975],[0,0],[-0.007000000000000006,0.008000000000000007],[-0.010999999999999996,0],[-0.007000000000000006,-0.007000000000000006],[0,-0.01100000000000001],[0,0],[-0.01200000000000001,-0.018000000000000002],[-0.017999999999999988,0],[0,0],[-0.006000000000000005,-0.006999999999999992],[0,-0.011000000000000003],[0.008000000000000007,-0.006999999999999999],[0.013000000000000012,0]],"o":[[-0.026999999999999996,0],[-0.021000000000000005,-0.015],[-0.011999999999999997,-0.025999999999999995],[0,0],[0,-0.01100000000000001],[0.006999999999999992,-0.007000000000000006],[0.010999999999999996,0],[0.005999999999999978,0.008000000000000007],[0,0],[0,0.028999999999999998],[0.010999999999999982,0.017999999999999988],[0,0],[0.009999999999999981,0],[0.006000000000000005,0.008],[0,0.011],[-0.009000000000000008,0.006999999999999999],[0,0]]}}},{"ty":"st","o":{"a":0,"k":0},"w":{"a":0,"k":0},"c":{"a":0,"k":[0,0,0,0]},"lc":3,"lj":1,"ml":1},{"ty":"fl","o":{"a":0,"k":100},"r":1,"c":{"a":0,"k":[0.3764705882352941,0.3764705882352941,0.3764705882352941,1]}},{"ty":"tr","o":{"a":0,"k":100},"a":{"a":0,"k":[0,0]},"s":{"a":0,"k":[3000,3000]},"p":{"a":0,"k":[142.56,23.73]},"r":{"a":0,"k":0}}]},{"ty":"gr","nm":"text shape group","it":[{"ty":"sh","ks":{"a":0,"k":{"c":true,"v":[[0.331,0.005],[0.193,-0.032],[0.097,-0.131],[0.061,-0.273],[0.098,-0.416],[0.197,-0.516],[0.339,-0.552],[0.481,-0.516],[0.58,-0.416],[0.617,-0.273],[0.586,-0.249],[0.553,-0.12],[0.462,-0.029]],"i":[[0.04899999999999999,0],[0.04100000000000001,0.025],[0.022999999999999993,0.04200000000000001],[0,0.05300000000000002],[-0.02500000000000001,0.04199999999999998],[-0.04200000000000001,0.025000000000000022],[-0.05300000000000005,0],[-0.04199999999999998,-0.02400000000000002],[-0.02499999999999991,-0.04200000000000004],[-0.0010000000000000009,-0.05299999999999999],[0,0],[0.02199999999999991,-0.038000000000000006],[0.03799999999999998,-0.021999999999999995]],"o":[[-0.05099999999999999,0],[-0.04100000000000001,-0.024],[-0.024000000000000007,-0.04199999999999998],[0,-0.05299999999999999],[0.023999999999999994,-0.04200000000000004],[0.04199999999999998,-0.02400000000000002],[0.05299999999999999,0],[0.041000000000000036,0.025000000000000022],[0.02400000000000002,0.04199999999999998],[0,0],[0,0.04799999999999999],[-0.02300000000000002,0.03899999999999999],[-0.039000000000000035,0.023]]}}},{"ty":"sh","ks":{"a":0,"k":{"c":true,"v":[[0.339,-0.065],[0.443,-0.092],[0.515,-0.167],[0.541,-0.273],[0.515,-0.38],[0.443,-0.455],[0.339,-0.482],[0.236,-0.455],[0.163,-0.38],[0.136,-0.273],[0.163,-0.167],[0.236,-0.092]],"i":[[-0.038000000000000034,0],[-0.031000000000000028,0.018000000000000002],[-0.018000000000000016,0.032],[0,0.03900000000000001],[0.017000000000000015,0.031000000000000028],[0.02999999999999997,0.019000000000000017],[0.03899999999999998,0],[0.031000000000000028,-0.01799999999999996],[0.017999999999999988,-0.030999999999999972],[0,-0.03999999999999998],[-0.018000000000000016,-0.031],[-0.031,-0.018000000000000002]],"o":[[0.03899999999999998,0],[0.02999999999999997,-0.018000000000000002],[0.017000000000000015,-0.031],[0,-0.03999999999999998],[-0.018000000000000016,-0.030999999999999972],[-0.031000000000000028,-0.01799999999999996],[-0.038000000000000034,0],[-0.031,0.019000000000000017],[-0.018000000000000016,0.031000000000000028],[0,0.03900000000000001],[0.017999999999999988,0.032],[0.031000000000000028,0.018000000000000002]]}}},{"ty":"sh","ks":{"a":0,"k":{"c":true,"v":[[0.578,0],[0.55,-0.011],[0.539,-0.038],[0.539,-0.209],[0.558,-0.288],[0.617,-0.273],[0.617,-0.038],[0.606,-0.011]],"i":[[0.01100000000000001,0],[0.007000000000000006,0.006999999999999999],[0,0.011],[0,0],[0,0],[0,0],[0,0],[0.007000000000000006,-0.006999999999999999]],"o":[[-0.01100000000000001,0],[-0.007000000000000006,-0.006999999999999999],[0,0],[0,0],[0,0],[0,0],[0,0.011],[-0.007000000000000006,0.006999999999999999]]}}},{"ty":"st","o":{"a":0,"k":0},"w":{"a":0,"k":0},"c":{"a":0,"k":[0,0,0,0]},"lc":3,"lj":1,"ml":1},{"ty":"fl","o":{"a":0,"k":100},"r":1,"c":{"a":0,"k":[0.3764705882352941,0.3764705882352941,0.3764705882352941,1]}},{"ty":"tr","o":{"a":0,"k":100},"a":{"a":0,"k":[0,0]},"s":{"a":0,"k":[3000,3000]},"p":{"a":0,"k":[122.25,23.73]},"r":{"a":0,"k":0}}]},{"ty":"gr","nm":"text shape group","it":[{"ty":"sh","ks":{"a":0,"k":{"c":true,"v":[[0.327,0],[0.3,-0.012],[0.288,-0.039],[0.288,-0.781],[0.366,-0.781],[0.366,-0.039],[0.355,-0.012]],"i":[[0.01100000000000001,0],[0.007000000000000006,0.008],[0,0.011],[0,0],[0,0],[0,0],[0.007000000000000006,-0.006999999999999999]],"o":[[-0.01100000000000001,0],[-0.008000000000000007,-0.006999999999999999],[0,0],[0,0],[0,0],[0,0.011],[-0.007000000000000006,0.008]]}}},{"ty":"sh","ks":{"a":0,"k":{"c":true,"v":[[0.051,-0.71],[0.025,-0.72],[0.015,-0.745],[0.025,-0.771],[0.051,-0.781],[0.604,-0.781],[0.63,-0.771],[0.64,-0.745],[0.63,-0.72],[0.604,-0.71]],"i":[[0,0],[0.006999999999999999,0.007000000000000006],[0,0.010000000000000009],[-0.007000000000000003,0.007000000000000006],[-0.010999999999999996,0],[0,0],[-0.007000000000000006,-0.007000000000000006],[0,-0.01100000000000001],[0.007000000000000006,-0.007000000000000006],[0.01100000000000001,0]],"o":[[-0.010999999999999996,0],[-0.007000000000000003,-0.007000000000000006],[0,-0.01100000000000001],[0.006999999999999999,-0.007000000000000006],[0,0],[0.01100000000000001,0],[0.007000000000000006,0.007000000000000006],[0,0.010000000000000009],[-0.007000000000000006,0.007000000000000006],[0,0]]}}},{"ty":"st","o":{"a":0,"k":0},"w":{"a":0,"k":0},"c":{"a":0,"k":[0,0,0,0]},"lc":3,"lj":1,"ml":1},{"ty":"fl","o":{"a":0,"k":100},"r":1,"c":{"a":0,"k":[0.3764705882352941,0.3764705882352941,0.3764705882352941,1]}},{"ty":"tr","o":{"a":0,"k":100},"a":{"a":0,"k":[0,0]},"s":{"a":0,"k":[3000,3000]},"p":{"a":0,"k":[107.1,23.73]},"r":{"a":0,"k":0}}]},{"ty":"gr","nm":"text shape group","it":[{"ty":"sh","ks":{"a":0,"k":{"c":true,"v":[[0.339,0.005],[0.197,-0.032],[0.098,-0.131],[0.061,-0.274],[0.097,-0.416],[0.193,-0.516],[0.331,-0.552],[0.452,-0.524],[0.539,-0.448],[0.539,-0.742],[0.55,-0.771],[0.578,-0.781],[0.606,-0.771],[0.617,-0.742],[0.617,-0.27],[0.579,-0.13],[0.48,-0.031]],"i":[[0.05199999999999999,0],[0.04199999999999998,0.025],[0.023999999999999994,0.04200000000000001],[0,0.05300000000000002],[-0.024000000000000007,0.04199999999999998],[-0.04100000000000001,0.025000000000000022],[-0.05099999999999999,0],[-0.03600000000000003,-0.019000000000000017],[-0.02200000000000002,-0.030999999999999972],[0,0],[-0.007000000000000006,0.008000000000000007],[-0.01100000000000001,0],[-0.007000000000000006,-0.007000000000000006],[0,-0.01200000000000001],[0,0],[0.02400000000000002,-0.04100000000000001],[0.041000000000000036,-0.024]],"o":[[-0.05300000000000005,0],[-0.04200000000000001,-0.024],[-0.02500000000000001,-0.04199999999999998],[0,-0.05299999999999999],[0.022999999999999993,-0.04200000000000004],[0.04100000000000001,-0.02400000000000002],[0.044999999999999984,0],[0.035999999999999976,0.019000000000000017],[0,0],[0,-0.01200000000000001],[0.007000000000000006,-0.007000000000000006],[0.01100000000000001,0],[0.007000000000000006,0.008000000000000007],[0,0],[-0.0010000000000000009,0.05200000000000002],[-0.02499999999999991,0.04200000000000001],[-0.04199999999999998,0.024]]}}},{"ty":"sh","ks":{"a":0,"k":{"c":true,"v":[[0.339,-0.065],[0.443,-0.093],[0.515,-0.167],[0.541,-0.274],[0.515,-0.381],[0.443,-0.455],[0.339,-0.482],[0.236,-0.455],[0.163,-0.381],[0.136,-0.274],[0.163,-0.167],[0.236,-0.093]],"i":[[-0.038000000000000034,0],[-0.031000000000000028,0.019000000000000003],[-0.018000000000000016,0.031],[0,0.04000000000000001],[0.017000000000000015,0.03200000000000003],[0.02999999999999997,0.018000000000000016],[0.03899999999999998,0],[0.031000000000000028,-0.01799999999999996],[0.017999999999999988,-0.030999999999999972],[0,-0.03899999999999998],[-0.018000000000000016,-0.031],[-0.031,-0.018000000000000002]],"o":[[0.03899999999999998,0],[0.02999999999999997,-0.018000000000000002],[0.017000000000000015,-0.031],[0,-0.03899999999999998],[-0.018000000000000016,-0.030999999999999972],[-0.031000000000000028,-0.01799999999999996],[-0.038000000000000034,0],[-0.031,0.018000000000000016],[-0.018000000000000016,0.03200000000000003],[0,0.04000000000000001],[0.017999999999999988,0.031],[0.031000000000000028,0.019000000000000003]]}}},{"ty":"st","o":{"a":0,"k":0},"w":{"a":0,"k":0},"c":{"a":0,"k":[0,0,0,0]},"lc":3,"lj":1,"ml":1},{"ty":"fl","o":{"a":0,"k":100},"r":1,"c":{"a":0,"k":[0.3764705882352941,0.3764705882352941,0.3764705882352941,1]}},{"ty":"tr","o":{"a":0,"k":100},"a":{"a":0,"k":[0,0]},"s":{"a":0,"k":[3000,3000]},"p":{"a":0,"k":[77.1,23.73]},"r":{"a":0,"k":0}}]},{"ty":"gr","nm":"text shape group","it":[{"ty":"sh","ks":{"a":0,"k":{"c":true,"v":[[0.338,0.005],[0.195,-0.031],[0.097,-0.129],[0.061,-0.273],[0.095,-0.418],[0.187,-0.516],[0.323,-0.552],[0.456,-0.518],[0.543,-0.422],[0.574,-0.283],[0.564,-0.258],[0.538,-0.248],[0.113,-0.248],[0.113,-0.312],[0.546,-0.312],[0.503,-0.281],[0.482,-0.385],[0.42,-0.457],[0.323,-0.483],[0.223,-0.456],[0.157,-0.382],[0.133,-0.273],[0.16,-0.165],[0.232,-0.091],[0.338,-0.064],[0.411,-0.077],[0.469,-0.108],[0.494,-0.118],[0.518,-0.11],[0.532,-0.084],[0.52,-0.06],[0.436,-0.014]],"i":[[0.030999999999999972,0],[0.04099999999999998,0.024],[0.022999999999999993,0.04200000000000001],[0,0.05400000000000002],[-0.023000000000000007,0.04199999999999998],[-0.03900000000000001,0.02400000000000002],[-0.05099999999999999,0],[-0.038000000000000034,-0.02300000000000002],[-0.02100000000000002,-0.041000000000000036],[0,-0.052000000000000046],[0.007000000000000006,-0.006000000000000005],[0.01100000000000001,0],[0,0],[0,0],[0,0],[0,0],[0.015000000000000013,0.031000000000000028],[0.027000000000000024,0.017000000000000015],[0.03699999999999998,0],[0.028999999999999998,-0.01799999999999996],[0.014999999999999986,-0.030999999999999972],[0,-0.04099999999999998],[-0.018000000000000016,-0.031],[-0.031,-0.018000000000000002],[-0.040000000000000036,0],[-0.024999999999999967,0.008999999999999994],[-0.014999999999999958,0.012999999999999998],[-0.009000000000000008,0.000999999999999987],[-0.007000000000000006,-0.0050000000000000044],[-0.0010000000000000009,-0.008999999999999994],[0.008000000000000007,-0.007000000000000006],[0.033999999999999975,-0.011999999999999999]],"o":[[-0.05400000000000005,0],[-0.04200000000000001,-0.023],[-0.024000000000000007,-0.04200000000000001],[0,-0.05499999999999999],[0.022000000000000006,-0.041000000000000036],[0.03900000000000001,-0.02400000000000002],[0.05099999999999999,0],[0.03699999999999998,0.02400000000000002],[0.020999999999999908,0.04099999999999998],[0,0.010999999999999954],[-0.006999999999999895,0.007000000000000006],[0,0],[0,0],[0,0],[0,0],[0.0010000000000000009,-0.03899999999999998],[-0.014999999999999958,-0.030999999999999972],[-0.02699999999999997,-0.01699999999999996],[-0.038000000000000034,0],[-0.028999999999999998,0.018000000000000016],[-0.016000000000000014,0.03200000000000003],[0,0.04100000000000001],[0.016999999999999987,0.031],[0.031,0.018000000000000002],[0.023999999999999966,0],[0.02400000000000002,-0.008000000000000007],[0.007000000000000006,-0.006000000000000005],[0.009000000000000008,0],[0.009000000000000008,0.008000000000000007],[0,0.009000000000000008],[-0.02200000000000002,0.018999999999999996],[-0.033999999999999975,0.013000000000000001]]}}},{"ty":"st","o":{"a":0,"k":0},"w":{"a":0,"k":0},"c":{"a":0,"k":[0,0,0,0]},"lc":3,"lj":1,"ml":1},{"ty":"fl","o":{"a":0,"k":100},"r":1,"c":{"a":0,"k":[0.3764705882352941,0.3764705882352941,0.3764705882352941,1]}},{"ty":"tr","o":{"a":0,"k":100},"a":{"a":0,"k":[0,0]},"s":{"a":0,"k":[3000,3000]},"p":{"a":0,"k":[59.28,23.73]},"r":{"a":0,"k":0}}]},{"ty":"gr","nm":"text shape group","it":[{"ty":"sh","ks":{"a":0,"k":{"c":true,"v":[[0.339,0.005],[0.197,-0.032],[0.098,-0.131],[0.061,-0.274],[0.097,-0.416],[0.193,-0.516],[0.331,-0.552],[0.452,-0.524],[0.539,-0.448],[0.539,-0.742],[0.55,-0.771],[0.578,-0.781],[0.606,-0.771],[0.617,-0.742],[0.617,-0.27],[0.579,-0.13],[0.48,-0.031]],"i":[[0.05199999999999999,0],[0.04199999999999998,0.025],[0.023999999999999994,0.04200000000000001],[0,0.05300000000000002],[-0.024000000000000007,0.04199999999999998],[-0.04100000000000001,0.025000000000000022],[-0.05099999999999999,0],[-0.03600000000000003,-0.019000000000000017],[-0.02200000000000002,-0.030999999999999972],[0,0],[-0.007000000000000006,0.008000000000000007],[-0.01100000000000001,0],[-0.007000000000000006,-0.007000000000000006],[0,-0.01200000000000001],[0,0],[0.02400000000000002,-0.04100000000000001],[0.041000000000000036,-0.024]],"o":[[-0.05300000000000005,0],[-0.04200000000000001,-0.024],[-0.02500000000000001,-0.04199999999999998],[0,-0.05299999999999999],[0.022999999999999993,-0.04200000000000004],[0.04100000000000001,-0.02400000000000002],[0.044999999999999984,0],[0.035999999999999976,0.019000000000000017],[0,0],[0,-0.01200000000000001],[0.007000000000000006,-0.007000000000000006],[0.01100000000000001,0],[0.007000000000000006,0.008000000000000007],[0,0],[-0.0010000000000000009,0.05200000000000002],[-0.02499999999999991,0.04200000000000001],[-0.04199999999999998,0.024]]}}},{"ty":"sh","ks":{"a":0,"k":{"c":true,"v":[[0.339,-0.065],[0.443,-0.093],[0.515,-0.167],[0.541,-0.274],[0.515,-0.381],[0.443,-0.455],[0.339,-0.482],[0.236,-0.455],[0.163,-0.381],[0.136,-0.274],[0.163,-0.167],[0.236,-0.093]],"i":[[-0.038000000000000034,0],[-0.031000000000000028,0.019000000000000003],[-0.018000000000000016,0.031],[0,0.04000000000000001],[0.017000000000000015,0.03200000000000003],[0.02999999999999997,0.018000000000000016],[0.03899999999999998,0],[0.031000000000000028,-0.01799999999999996],[0.017999999999999988,-0.030999999999999972],[0,-0.03899999999999998],[-0.018000000000000016,-0.031],[-0.031,-0.018000000000000002]],"o":[[0.03899999999999998,0],[0.02999999999999997,-0.018000000000000002],[0.017000000000000015,-0.031],[0,-0.03899999999999998],[-0.018000000000000016,-0.030999999999999972],[-0.031000000000000028,-0.01799999999999996],[-0.038000000000000034,0],[-0.031,0.018000000000000016],[-0.018000000000000016,0.03200000000000003],[0,0.04000000000000001],[0.017999999999999988,0.031],[0.031000000000000028,0.019000000000000003]]}}},{"ty":"st","o":{"a":0,"k":0},"w":{"a":0,"k":0},"c":{"a":0,"k":[0,0,0,0]},"lc":3,"lj":1,"ml":1},{"ty":"fl","o":{"a":0,"k":100},"r":1,"c":{"a":0,"k":[0.3764705882352941,0.3764705882352941,0.3764705882352941,1]}},{"ty":"tr","o":{"a":0,"k":100},"a":{"a":0,"k":[0,0]},"s":{"a":0,"k":[3000,3000]},"p":{"a":0,"k":[38.07,23.73]},"r":{"a":0,"k":0}}]},{"ty":"gr","nm":"text shape group","it":[{"ty":"sh","ks":{"a":0,"k":{"c":true,"v":[[0.559,0],[0.531,-0.011],[0.52,-0.038],[0.52,-0.298],[0.497,-0.4],[0.433,-0.46],[0.341,-0.48],[0.253,-0.461],[0.19,-0.409],[0.167,-0.334],[0.112,-0.334],[0.146,-0.447],[0.231,-0.525],[0.349,-0.553],[0.476,-0.524],[0.565,-0.437],[0.597,-0.298],[0.597,-0.038],[0.586,-0.011]],"i":[[0.010999999999999899,0],[0.007000000000000006,0.006999999999999999],[0,0.011],[0,0],[0.015000000000000013,0.027000000000000024],[0.027000000000000024,0.013000000000000012],[0.033999999999999975,0],[0.026000000000000023,-0.012999999999999956],[0.014999999999999986,-0.02200000000000002],[0,-0.02799999999999997],[0,0],[-0.02099999999999999,0.03400000000000003],[-0.035,0.020000000000000018],[-0.04299999999999998,0],[-0.03699999999999998,-0.019000000000000017],[-0.02199999999999991,-0.03799999999999998],[0,-0.05499999999999999],[0,0],[0.007000000000000006,-0.006999999999999999]],"o":[[-0.01100000000000001,0],[-0.007000000000000006,-0.006999999999999999],[0,0],[0,-0.041000000000000036],[-0.016000000000000014,-0.02699999999999997],[-0.02799999999999997,-0.012999999999999956],[-0.03300000000000003,0],[-0.026999999999999996,0.013000000000000012],[-0.015000000000000013,0.021999999999999964],[0,0],[0.0010000000000000009,-0.04199999999999998],[0.02100000000000002,-0.032999999999999974],[0.035,-0.019000000000000017],[0.04700000000000004,0],[0.03700000000000003,0.020000000000000018],[0.02100000000000002,0.03799999999999998],[0,0],[0,0.011],[-0.007000000000000006,0.006999999999999999]]}}},{"ty":"sh","ks":{"a":0,"k":{"c":true,"v":[[0.129,0],[0.101,-0.011],[0.09,-0.038],[0.09,-0.508],[0.101,-0.537],[0.129,-0.547],[0.157,-0.537],[0.167,-0.508],[0.167,-0.038],[0.157,-0.011]],"i":[[0.01100000000000001,0],[0.006999999999999992,0.006999999999999999],[0,0.011],[0,0],[-0.008000000000000007,0.007000000000000006],[-0.011999999999999997,0],[-0.007000000000000006,-0.007000000000000006],[0,-0.01200000000000001],[0,0],[0.007000000000000006,-0.006999999999999999]],"o":[[-0.011999999999999997,0],[-0.008000000000000007,-0.006999999999999999],[0,0],[0,-0.01200000000000001],[0.006999999999999992,-0.007000000000000006],[0.01100000000000001,0],[0.007000000000000006,0.007000000000000006],[0,0],[0,0.011],[-0.007000000000000006,0.006999999999999999]]}}},{"ty":"st","o":{"a":0,"k":0},"w":{"a":0,"k":0},"c":{"a":0,"k":[0,0,0,0]},"lc":3,"lj":1,"ml":1},{"ty":"fl","o":{"a":0,"k":100},"r":1,"c":{"a":0,"k":[0.3764705882352941,0.3764705882352941,0.3764705882352941,1]}},{"ty":"tr","o":{"a":0,"k":100},"a":{"a":0,"k":[0,0]},"s":{"a":0,"k":[3000,3000]},"p":{"a":0,"k":[17.76,23.73]},"r":{"a":0,"k":0}}]},{"ty":"gr","nm":"text shape group","it":[{"ty":"sh","ks":{"a":0,"k":{"c":true,"v":[[0.139,0],[0.111,-0.011],[0.1,-0.039],[0.1,-0.742],[0.111,-0.77],[0.139,-0.781],[0.608,-0.781],[0.636,-0.771],[0.647,-0.743],[0.636,-0.717],[0.608,-0.706],[0.178,-0.706],[0.178,-0.43],[0.491,-0.43],[0.519,-0.419],[0.53,-0.392],[0.519,-0.365],[0.491,-0.354],[0.178,-0.354],[0.178,-0.075],[0.608,-0.075],[0.636,-0.064],[0.647,-0.038],[0.636,-0.011],[0.608,0]],"i":[[0,0],[0.006999999999999992,0.006999999999999999],[0,0.011],[0,0],[-0.007000000000000006,0.007000000000000006],[-0.01100000000000001,0],[0,0],[-0.008000000000000007,-0.007000000000000006],[0,-0.01100000000000001],[0.007000000000000006,-0.007000000000000006],[0.01100000000000001,0],[0,0],[0,0],[0,0],[-0.007000000000000006,-0.007000000000000006],[0,-0.01100000000000001],[0.007000000000000006,-0.007000000000000006],[0.01100000000000001,0],[0,0],[0,0],[0,0],[-0.008000000000000007,-0.006999999999999992],[0,-0.010000000000000002],[0.007000000000000006,-0.006999999999999999],[0.01100000000000001,0]],"o":[[-0.01100000000000001,0],[-0.007000000000000006,-0.006999999999999999],[0,0],[0,-0.01100000000000001],[0.006999999999999992,-0.007000000000000006],[0,0],[0.01100000000000001,0],[0.007000000000000006,0.008000000000000007],[0,0.010000000000000009],[-0.008000000000000007,0.007000000000000006],[0,0],[0,0],[0,0],[0.01100000000000001,0],[0.007000000000000006,0.007000000000000006],[0,0.01100000000000001],[-0.007000000000000006,0.007000000000000006],[0,0],[0,0],[0,0],[0.01100000000000001,0],[0.007000000000000006,0.006999999999999999],[0,0.011],[-0.008000000000000007,0.006999999999999999],[0,0]]}}},{"ty":"st","o":{"a":0,"k":0},"w":{"a":0,"k":0},"c":{"a":0,"k":[0,0,0,0]},"lc":3,"lj":1,"ml":1},{"ty":"fl","o":{"a":0,"k":100},"r":1,"c":{"a":0,"k":[0.3764705882352941,0.3764705882352941,0.3764705882352941,1]}},{"ty":"tr","o":{"a":0,"k":100},"a":{"a":0,"k":[0,0]},"s":{"a":0,"k":[3000,3000]},"p":{"a":0,"k":[-3,23.73]},"r":{"a":0,"k":0}}]}],"op":78},{"ty":4,"nm":"rightLIne","ip":0,"st":0,"ind":3,"hix":6,"ks":{"o":{"a":0,"k":100},"or":{"a":0,"k":[0,0,0]},"a":{"a":0,"k":[174.4290008544922,0.5,0]},"p":{"s":true,"x":{"a":1,"k":[{"t":0,"s":[420],"e":[482.6840867302094],"i":{"x":[0.515],"y":[0.955]},"o":{"x":[0.455],"y":[0.03]}},{"t":51}]},"y":{"a":0,"k":28.397814}},"rx":{"a":0,"k":0},"ry":{"a":0,"k":0},"rz":{"a":0,"k":0},"s":{"a":1,"k":[{"t":0,"s":[0,59.199999999999996],"e":[38.5,59.199999999999996],"i":{"x":[0.515,1],"y":[0.955,1]},"o":{"x":[0.455,0],"y":[0.03,0]}},{"t":51}]}},"shapes":[{"ty":"gr","nm":"rightLIne shape group","it":[{"ty":"sh","ks":{"a":0,"k":{"c":false,"v":[[79.27,188.205],[428.128,188.205]],"i":[[0,0],[0,0]],"o":[[0,0],[0,0]]}}},{"ty":"st","o":{"a":0,"k":100},"c":{"a":0,"k":[0.3764705882352941,0.3764705882352941,0.3764705882352941,1]},"lc":2,"lj":2,"ml":1.5,"w":{"a":0,"k":2.49}},{"ty":"fl","o":{"a":0,"k":0},"c":{"a":0,"k":[0,0,0,0]},"r":1},{"ty":"tr","o":{"a":0,"k":100},"a":{"a":0,"k":[0,0]},"s":{"a":0,"k":[100,100]},"p":{"a":0,"k":[-79.27,-188.205]},"r":{"a":0,"k":0}}]}],"op":78},{"ty":4,"nm":"shadow","ip":0,"st":0,"ind":2,"hix":4,"ks":{"o":{"a":0,"k":100},"or":{"a":0,"k":[0,0,0]},"a":{"a":0,"k":[18.108999252319336,3.683000087738037,0]},"p":{"s":true,"x":{"a":0,"k":179.8082029591198},"y":{"a":0,"k":41.496622621624}},"rx":{"a":0,"k":0},"ry":{"a":0,"k":0},"rz":{"a":0,"k":0},"s":{"a":1,"k":[{"t":0,"s":[0,0],"e":[60.199999999999996,79.4],"i":{"x":[0.515,0.515],"y":[0.955,0.955]},"o":{"x":[0.455,0.455],"y":[0.03,0.03]}},{"t":51}]}},"shapes":[{"ty":"gr","nm":"shadow shape group","it":[{"ty":"el","p":{"a":0,"k":[406,206]},"s":{"a":0,"k":[36.218,7.366]}},{"ty":"st","o":{"a":0,"k":0},"w":{"a":0,"k":0},"c":{"a":0,"k":[0,0,0,0]},"lc":3,"lj":1,"ml":1},{"ty":"fl","o":{"a":0,"k":60},"r":2,"c":{"a":0,"k":[0.615686274509804,0.615686274509804,0.615686274509804,1]}},{"ty":"tr","o":{"a":0,"k":100},"a":{"a":0,"k":[0,0]},"s":{"a":0,"k":[100,100]},"p":{"a":0,"k":[-388.834,-202.764]},"r":{"a":0,"k":0}}]}],"op":78},{"ty":4,"nm":"endtlksppt","ip":0,"st":0,"ind":1,"hix":7,"ks":{"o":{"a":0,"k":100},"or":{"a":0,"k":[0,0,0]},"a":{"a":0,"k":[174.4290008544922,0.5,0]},"p":{"s":true,"x":{"a":1,"k":[{"t":0,"s":[150],"e":[74.6954785784607],"i":{"x":[0.515],"y":[0.955]},"o":{"x":[0.455],"y":[0.03]}},{"t":51}]},"y":{"a":0,"k":28.398225999999998}},"rx":{"a":0,"k":0},"ry":{"a":0,"k":0},"rz":{"a":0,"k":0},"s":{"a":1,"k":[{"t":0,"s":[0,59.4],"e":[42.199999999999996,59.4],"i":{"x":[0.515,1],"y":[0.955,1]},"o":{"x":[0.455,0],"y":[0.03,0]}},{"t":51}]}},"shapes":[{"ty":"gr","nm":"endtlksppt shape group","it":[{"ty":"sh","ks":{"a":0,"k":{"c":false,"v":[[79.27,188.205],[428.128,188.205]],"i":[[0,0],[0,0]],"o":[[0,0],[0,0]]}}},{"ty":"st","o":{"a":0,"k":100},"c":{"a":0,"k":[0.3764705882352941,0.3764705882352941,0.3764705882352941,1]},"lc":2,"lj":2,"ml":1.5,"w":{"a":0,"k":2.38}},{"ty":"fl","o":{"a":0,"k":0},"c":{"a":0,"k":[0,0,0,0]},"r":1},{"ty":"tr","o":{"a":0,"k":100},"a":{"a":0,"k":[0,0]},"s":{"a":0,"k":[100,100]},"p":{"a":0,"k":[-79.27,-188.205]},"r":{"a":0,"k":0}}]}],"op":78}],"op":78,"w":550,"h":48}