{"ip":0,"fr":60,"v":"5.1.20","assets":[],"layers":[{"ty":4,"nm":"timelineHeader","ip":0,"st":0,"ind":6,"hix":1,"ks":{"o":{"a":0,"k":100},"or":{"a":0,"k":[0,0,0]},"a":{"a":0,"k":[64.52998352050781,23.579986572265625,0]},"p":{"s":true,"x":{"a":0,"k":316.17012948608397},"y":{"a":0,"k":47.39529016113281}},"rx":{"a":1,"k":[{"t":0,"s":[28.64788975654116],"e":[28.20098267633912],"i":{"x":[0.68],"y":[0.53]},"o":{"x":[0.55],"y":[0.085]}},{"t":4,"s":[28.20098267633912],"e":[28.64788975654116],"i":{"x":[0.45],"y":[0.94]},"o":{"x":[0.25],"y":[0.46]}},{"t":8,"s":[28.64788975654116],"e":[26.85739664675734],"i":{"x":[0.68],"y":[0.53]},"o":{"x":[0.55],"y":[0.085]}},{"t":16,"s":[26.85739664675734],"e":[28.64788975654116],"i":{"x":[0.45],"y":[0.94]},"o":{"x":[0.25],"y":[0.46]}},{"t":24,"s":[28.64788975654116],"e":[21.48591731740587],"i":{"x":[0.68],"y":[0.53]},"o":{"x":[0.55],"y":[0.085]}},{"t":40,"s":[21.48591731740587],"e":[28.64788975654116],"i":{"x":[0.45],"y":[0.94]},"o":{"x":[0.25],"y":[0.46]}},{"t":57,"s":[28.64788975654116],"e":[0],"i":{"x":[0.68],"y":[0.53]},"o":{"x":[0.55],"y":[0.085]}},{"t":90,"s":[0],"e":[-28.64788975654116],"i":{"x":[0.68],"y":[0.53]},"o":{"x":[0.55],"y":[0.085]}},{"t":122,"s":[-28.64788975654116],"e":[-21.48591731740587],"i":{"x":[0.45],"y":[0.94]},"o":{"x":[0.25],"y":[0.46]}},{"t":139,"s":[-21.48591731740587],"e":[-28.64788975654116],"i":{"x":[0.68],"y":[0.53]},"o":{"x":[0.55],"y":[0.085]}},{"t":155,"s":[-28.64788975654116],"e":[-26.85739664675734],"i":{"x":[0.45],"y":[0.94]},"o":{"x":[0.25],"y":[0.46]}},{"t":163,"s":[-26.85739664675734],"e":[-28.64788975654116],"i":{"x":[0.68],"y":[0.53]},"o":{"x":[0.55],"y":[0.085]}},{"t":171,"s":[-28.64788975654116],"e":[-28.200982676339116],"i":{"x":[0.45],"y":[0.94]},"o":{"x":[0.25],"y":[0.46]}},{"t":175,"s":[-28.200982676339116],"e":[-28.64788975654116],"i":{"x":[0.68],"y":[0.53]},"o":{"x":[0.55],"y":[0.085]}},{"t":180,"s":[-28.64788975654116],"e":[-28.524703830588034],"i":{"x":[0.565],"y":[1]},"o":{"x":[0.39],"y":[0.575]}},{"t":200,"s":[-28.524703830588034],"e":[-28.64788975654116],"i":{"x":[0.745],"y":[0.715]},"o":{"x":[0.47],"y":[0]}},{"t":207,"s":[-28.64788975654116],"e":[-29.140633460353676],"i":{"x":[0.565],"y":[1]},"o":{"x":[0.39],"y":[0.575]}},{"t":218,"s":[-29.140633460353676],"e":[-28.64788975654116],"i":{"x":[0.745],"y":[0.715]},"o":{"x":[0.47],"y":[0]}},{"t":225,"s":[-28.64788975654116],"e":[0],"i":{"x":[0.6],"y":[-1.5]},"o":{"x":[0.633],"y":[0.444]}},{"t":270,"s":[0],"e":[28.64788975654116],"i":{"x":[0.367],"y":[0.556]},"o":{"x":[0.4],"y":[2.5]}},{"t":315,"s":[28.64788975654116],"e":[29.140633460353666],"i":{"x":[0.565],"y":[1]},"o":{"x":[0.39],"y":[0.575]}},{"t":321,"s":[29.140633460353666],"e":[28.64788975654116],"i":{"x":[0.745],"y":[0.715]},"o":{"x":[0.47],"y":[0]}},{"t":333,"s":[28.64788975654116],"e":[28.524703830588034],"i":{"x":[0.565],"y":[1]},"o":{"x":[0.39],"y":[0.575]}},{"t":339,"s":[28.524703830588034],"e":[28.64788975654116],"i":{"x":[0.745],"y":[0.715]},"o":{"x":[0.47],"y":[0]}},{"t":360}]},"ry":{"a":1,"k":[{"t":0,"s":[28.64788975654116],"e":[28.64788975654116],"i":{"x":[0.515],"y":[0.955]},"o":{"x":[0.455],"y":[0.03]}},{"t":180}]},"rz":{"a":0,"k":0},"s":{"a":0,"k":[63.800000000000004,74.4]}},"shapes":[{"ty":"gr","nm":"timelineHeader shape group","it":[{"ty":"sh","ks":{"a":0,"k":{"c":true,"v":[[0.338,0.005],[0.195,-0.031],[0.097,-0.129],[0.061,-0.273],[0.095,-0.418],[0.187,-0.516],[0.323,-0.552],[0.456,-0.518],[0.543,-0.422],[0.574,-0.283],[0.564,-0.258],[0.538,-0.248],[0.113,-0.248],[0.113,-0.312],[0.546,-0.312],[0.503,-0.281],[0.482,-0.385],[0.42,-0.457],[0.323,-0.483],[0.223,-0.456],[0.157,-0.382],[0.133,-0.273],[0.16,-0.165],[0.232,-0.091],[0.338,-0.064],[0.411,-0.077],[0.469,-0.108],[0.494,-0.118],[0.518,-0.11],[0.532,-0.084],[0.52,-0.06],[0.436,-0.014]],"i":[[0.030999999999999972,0],[0.04099999999999998,0.024],[0.022999999999999993,0.04200000000000001],[0,0.05400000000000002],[-0.023000000000000007,0.04199999999999998],[-0.03900000000000001,0.02400000000000002],[-0.05099999999999999,0],[-0.038000000000000034,-0.02300000000000002],[-0.02100000000000002,-0.041000000000000036],[0,-0.052000000000000046],[0.007000000000000006,-0.006000000000000005],[0.01100000000000001,0],[0,0],[0,0],[0,0],[0,0],[0.015000000000000013,0.031000000000000028],[0.027000000000000024,0.017000000000000015],[0.03699999999999998,0],[0.028999999999999998,-0.01799999999999996],[0.014999999999999986,-0.030999999999999972],[0,-0.04099999999999998],[-0.018000000000000016,-0.031],[-0.031,-0.018000000000000002],[-0.040000000000000036,0],[-0.024999999999999967,0.008999999999999994],[-0.014999999999999958,0.012999999999999998],[-0.009000000000000008,0.000999999999999987],[-0.007000000000000006,-0.0050000000000000044],[-0.0010000000000000009,-0.008999999999999994],[0.008000000000000007,-0.007000000000000006],[0.033999999999999975,-0.011999999999999999]],"o":[[-0.05400000000000005,0],[-0.04200000000000001,-0.023],[-0.024000000000000007,-0.04200000000000001],[0,-0.05499999999999999],[0.022000000000000006,-0.041000000000000036],[0.03900000000000001,-0.02400000000000002],[0.05099999999999999,0],[0.03699999999999998,0.02400000000000002],[0.020999999999999908,0.04099999999999998],[0,0.010999999999999954],[-0.006999999999999895,0.007000000000000006],[0,0],[0,0],[0,0],[0,0],[0.0010000000000000009,-0.03899999999999998],[-0.014999999999999958,-0.030999999999999972],[-0.02699999999999997,-0.01699999999999996],[-0.038000000000000034,0],[-0.028999999999999998,0.018000000000000016],[-0.016000000000000014,0.03200000000000003],[0,0.04100000000000001],[0.016999999999999987,0.031],[0.031,0.018000000000000002],[0.023999999999999966,0],[0.02400000000000002,-0.008000000000000007],[0.007000000000000006,-0.006000000000000005],[0.009000000000000008,0],[0.009000000000000008,0.008000000000000007],[0,0.009000000000000008],[-0.02200000000000002,0.018999999999999996],[-0.033999999999999975,0.013000000000000001]]}}},{"ty":"st","o":{"a":0,"k":0},"w":{"a":0,"k":0},"c":{"a":0,"k":[0,0,0,0]},"lc":3,"lj":1,"ml":1},{"ty":"fl","o":{"a":0,"k":100},"r":1,"c":{"a":0,"k":[0.3764705882352941,0.3764705882352941,0.3764705882352941,1]}},{"ty":"tr","o":{"a":0,"k":100},"a":{"a":0,"k":[0,0]},"s":{"a":0,"k":[3000,3000]},"p":{"a":0,"k":[111.84,23.43]},"r":{"a":0,"k":0}}]},{"ty":"gr","nm":"timelineHeader shape group","it":[{"ty":"sh","ks":{"a":0,"k":{"c":true,"v":[[0.559,0],[0.531,-0.011],[0.52,-0.038],[0.52,-0.298],[0.497,-0.4],[0.433,-0.46],[0.341,-0.48],[0.253,-0.461],[0.19,-0.409],[0.167,-0.334],[0.112,-0.334],[0.146,-0.447],[0.231,-0.525],[0.349,-0.553],[0.476,-0.524],[0.565,-0.437],[0.597,-0.298],[0.597,-0.038],[0.586,-0.011]],"i":[[0.010999999999999899,0],[0.007000000000000006,0.006999999999999999],[0,0.011],[0,0],[0.015000000000000013,0.027000000000000024],[0.027000000000000024,0.013000000000000012],[0.033999999999999975,0],[0.026000000000000023,-0.012999999999999956],[0.014999999999999986,-0.02200000000000002],[0,-0.02799999999999997],[0,0],[-0.02099999999999999,0.03400000000000003],[-0.035,0.020000000000000018],[-0.04299999999999998,0],[-0.03699999999999998,-0.019000000000000017],[-0.02199999999999991,-0.03799999999999998],[0,-0.05499999999999999],[0,0],[0.007000000000000006,-0.006999999999999999]],"o":[[-0.01100000000000001,0],[-0.007000000000000006,-0.006999999999999999],[0,0],[0,-0.041000000000000036],[-0.016000000000000014,-0.02699999999999997],[-0.02799999999999997,-0.012999999999999956],[-0.03300000000000003,0],[-0.026999999999999996,0.013000000000000012],[-0.015000000000000013,0.021999999999999964],[0,0],[0.0010000000000000009,-0.04199999999999998],[0.02100000000000002,-0.032999999999999974],[0.035,-0.019000000000000017],[0.04700000000000004,0],[0.03700000000000003,0.020000000000000018],[0.02100000000000002,0.03799999999999998],[0,0],[0,0.011],[-0.007000000000000006,0.006999999999999999]]}}},{"ty":"sh","ks":{"a":0,"k":{"c":true,"v":[[0.129,0],[0.101,-0.011],[0.09,-0.038],[0.09,-0.508],[0.101,-0.537],[0.129,-0.547],[0.157,-0.537],[0.167,-0.508],[0.167,-0.038],[0.157,-0.011]],"i":[[0.01100000000000001,0],[0.006999999999999992,0.006999999999999999],[0,0.011],[0,0],[-0.008000000000000007,0.007000000000000006],[-0.011999999999999997,0],[-0.007000000000000006,-0.007000000000000006],[0,-0.01200000000000001],[0,0],[0.007000000000000006,-0.006999999999999999]],"o":[[-0.011999999999999997,0],[-0.008000000000000007,-0.006999999999999999],[0,0],[0,-0.01200000000000001],[0.006999999999999992,-0.007000000000000006],[0.01100000000000001,0],[0.007000000000000006,0.007000000000000006],[0,0],[0,0.011],[-0.007000000000000006,0.006999999999999999]]}}},{"ty":"st","o":{"a":0,"k":0},"w":{"a":0,"k":0},"c":{"a":0,"k":[0,0,0,0]},"lc":3,"lj":1,"ml":1},{"ty":"fl","o":{"a":0,"k":100},"r":1,"c":{"a":0,"k":[0.3764705882352941,0.3764705882352941,0.3764705882352941,1]}},{"ty":"tr","o":{"a":0,"k":100},"a":{"a":0,"k":[0,0]},"s":{"a":0,"k":[3000,3000]},"p":{"a":0,"k":[91.53,23.43]},"r":{"a":0,"k":0}}]},{"ty":"gr","nm":"timelineHeader shape group","it":[{"ty":"sh","ks":{"a":0,"k":{"c":true,"v":[[0.145,0],[0.117,-0.011],[0.106,-0.039],[0.106,-0.508],[0.117,-0.537],[0.145,-0.547],[0.173,-0.537],[0.183,-0.508],[0.183,-0.039],[0.173,-0.011]],"i":[[0.01100000000000001,0],[0.006999999999999992,0.006999999999999999],[0,0.012],[0,0],[-0.007000000000000006,0.007000000000000006],[-0.011999999999999983,0],[-0.0069999999999999785,-0.007000000000000006],[0,-0.01200000000000001],[0,0],[0.007000000000000006,-0.006999999999999999]],"o":[[-0.011999999999999983,0],[-0.007000000000000006,-0.006999999999999999],[0,0],[0,-0.01200000000000001],[0.006999999999999992,-0.007000000000000006],[0.01100000000000001,0],[0.007000000000000006,0.007000000000000006],[0,0],[0,0.012],[-0.0069999999999999785,0.006999999999999999]]}}},{"ty":"sh","ks":{"a":0,"k":{"c":true,"v":[[0.144,-0.651],[0.106,-0.667],[0.09,-0.706],[0.107,-0.746],[0.145,-0.76],[0.183,-0.746],[0.199,-0.706],[0.183,-0.667]],"i":[[0.015000000000000013,0],[0.01100000000000001,0.01100000000000001],[0,0.015000000000000013],[-0.011999999999999997,0.010000000000000009],[-0.014999999999999986,0],[-0.011999999999999983,-0.009000000000000008],[0,-0.017000000000000015],[0.01100000000000001,-0.01100000000000001]],"o":[[-0.014999999999999986,0],[-0.010999999999999996,-0.01100000000000001],[0,-0.017000000000000015],[0.010000000000000009,-0.009000000000000008],[0.014000000000000012,0],[0.01100000000000001,0.010000000000000009],[0,0.015000000000000013],[-0.01100000000000001,0.01100000000000001]]}}},{"ty":"st","o":{"a":0,"k":0},"w":{"a":0,"k":0},"c":{"a":0,"k":[0,0,0,0]},"lc":3,"lj":1,"ml":1},{"ty":"fl","o":{"a":0,"k":100},"r":1,"c":{"a":0,"k":[0.3764705882352941,0.3764705882352941,0.3764705882352941,1]}},{"ty":"tr","o":{"a":0,"k":100},"a":{"a":0,"k":[0,0]},"s":{"a":0,"k":[3000,3000]},"p":{"a":0,"k":[82.86,23.43]},"r":{"a":0,"k":0}}]},{"ty":"gr","nm":"timelineHeader shape group","it":[{"ty":"sh","ks":{"a":0,"k":{"c":true,"v":[[0.208,0],[0.137,-0.022],[0.088,-0.083],[0.07,-0.173],[0.07,-0.743],[0.081,-0.771],[0.108,-0.781],[0.136,-0.771],[0.146,-0.743],[0.146,-0.173],[0.164,-0.103],[0.208,-0.076],[0.233,-0.076],[0.257,-0.066],[0.266,-0.038],[0.254,-0.011],[0.221,0]],"i":[[0,0],[0.02099999999999999,0.015],[0.01100000000000001,0.026000000000000002],[0,0.033999999999999975],[0,0],[-0.007000000000000006,0.008000000000000007],[-0.010999999999999996,0],[-0.007000000000000006,-0.007000000000000006],[0,-0.01100000000000001],[0,0],[-0.01200000000000001,-0.018000000000000002],[-0.017999999999999988,0],[0,0],[-0.006000000000000005,-0.006999999999999992],[0,-0.011000000000000003],[0.008000000000000007,-0.006999999999999999],[0.013000000000000012,0]],"o":[[-0.026999999999999996,0],[-0.021000000000000005,-0.015],[-0.011999999999999997,-0.025999999999999995],[0,0],[0,-0.01100000000000001],[0.006999999999999992,-0.007000000000000006],[0.010999999999999996,0],[0.005999999999999978,0.008000000000000007],[0,0],[0,0.028999999999999998],[0.010999999999999982,0.017999999999999988],[0,0],[0.009999999999999981,0],[0.006000000000000005,0.008],[0,0.011],[-0.009000000000000008,0.006999999999999999],[0,0]]}}},{"ty":"st","o":{"a":0,"k":0},"w":{"a":0,"k":0},"c":{"a":0,"k":[0,0,0,0]},"lc":3,"lj":1,"ml":1},{"ty":"fl","o":{"a":0,"k":100},"r":1,"c":{"a":0,"k":[0.3764705882352941,0.3764705882352941,0.3764705882352941,1]}},{"ty":"tr","o":{"a":0,"k":100},"a":{"a":0,"k":[0,0]},"s":{"a":0,"k":[3000,3000]},"p":{"a":0,"k":[74.4,23.43]},"r":{"a":0,"k":0}}]},{"ty":"gr","nm":"timelineHeader shape group","it":[{"ty":"sh","ks":{"a":0,"k":{"c":true,"v":[[0.338,0.005],[0.195,-0.031],[0.097,-0.129],[0.061,-0.273],[0.095,-0.418],[0.187,-0.516],[0.323,-0.552],[0.456,-0.518],[0.543,-0.422],[0.574,-0.283],[0.564,-0.258],[0.538,-0.248],[0.113,-0.248],[0.113,-0.312],[0.546,-0.312],[0.503,-0.281],[0.482,-0.385],[0.42,-0.457],[0.323,-0.483],[0.223,-0.456],[0.157,-0.382],[0.133,-0.273],[0.16,-0.165],[0.232,-0.091],[0.338,-0.064],[0.411,-0.077],[0.469,-0.108],[0.494,-0.118],[0.518,-0.11],[0.532,-0.084],[0.52,-0.06],[0.436,-0.014]],"i":[[0.030999999999999972,0],[0.04099999999999998,0.024],[0.022999999999999993,0.04200000000000001],[0,0.05400000000000002],[-0.023000000000000007,0.04199999999999998],[-0.03900000000000001,0.02400000000000002],[-0.05099999999999999,0],[-0.038000000000000034,-0.02300000000000002],[-0.02100000000000002,-0.041000000000000036],[0,-0.052000000000000046],[0.007000000000000006,-0.006000000000000005],[0.01100000000000001,0],[0,0],[0,0],[0,0],[0,0],[0.015000000000000013,0.031000000000000028],[0.027000000000000024,0.017000000000000015],[0.03699999999999998,0],[0.028999999999999998,-0.01799999999999996],[0.014999999999999986,-0.030999999999999972],[0,-0.04099999999999998],[-0.018000000000000016,-0.031],[-0.031,-0.018000000000000002],[-0.040000000000000036,0],[-0.024999999999999967,0.008999999999999994],[-0.014999999999999958,0.012999999999999998],[-0.009000000000000008,0.000999999999999987],[-0.007000000000000006,-0.0050000000000000044],[-0.0010000000000000009,-0.008999999999999994],[0.008000000000000007,-0.007000000000000006],[0.033999999999999975,-0.011999999999999999]],"o":[[-0.05400000000000005,0],[-0.04200000000000001,-0.023],[-0.024000000000000007,-0.04200000000000001],[0,-0.05499999999999999],[0.022000000000000006,-0.041000000000000036],[0.03900000000000001,-0.02400000000000002],[0.05099999999999999,0],[0.03699999999999998,0.02400000000000002],[0.020999999999999908,0.04099999999999998],[0,0.010999999999999954],[-0.006999999999999895,0.007000000000000006],[0,0],[0,0],[0,0],[0,0],[0.0010000000000000009,-0.03899999999999998],[-0.014999999999999958,-0.030999999999999972],[-0.02699999999999997,-0.01699999999999996],[-0.038000000000000034,0],[-0.028999999999999998,0.018000000000000016],[-0.016000000000000014,0.03200000000000003],[0,0.04100000000000001],[0.016999999999999987,0.031],[0.031,0.018000000000000002],[0.023999999999999966,0],[0.02400000000000002,-0.008000000000000007],[0.007000000000000006,-0.006000000000000005],[0.009000000000000008,0],[0.009000000000000008,0.008000000000000007],[0,0.009000000000000008],[-0.02200000000000002,0.018999999999999996],[-0.033999999999999975,0.013000000000000001]]}}},{"ty":"st","o":{"a":0,"k":0},"w":{"a":0,"k":0},"c":{"a":0,"k":[0,0,0,0]},"lc":3,"lj":1,"ml":1},{"ty":"fl","o":{"a":0,"k":100},"r":1,"c":{"a":0,"k":[0.3764705882352941,0.3764705882352941,0.3764705882352941,1]}},{"ty":"tr","o":{"a":0,"k":100},"a":{"a":0,"k":[0,0]},"s":{"a":0,"k":[3000,3000]},"p":{"a":0,"k":[55.98,23.43]},"r":{"a":0,"k":0}}]},{"ty":"gr","nm":"timelineHeader shape group","it":[{"ty":"sh","ks":{"a":0,"k":{"c":true,"v":[[0.829,0],[0.801,-0.011],[0.79,-0.038],[0.79,-0.326],[0.753,-0.439],[0.658,-0.48],[0.557,-0.439],[0.518,-0.328],[0.449,-0.328],[0.478,-0.446],[0.555,-0.525],[0.666,-0.553],[0.771,-0.525],[0.842,-0.446],[0.867,-0.326],[0.867,-0.038],[0.857,-0.011]],"i":[[0.01100000000000001,0],[0.007000000000000006,0.006999999999999999],[0,0.011],[0,0],[0.025000000000000022,0.028000000000000025],[0.038999999999999924,0],[0.025999999999999912,-0.027000000000000024],[-0.0010000000000000009,-0.045999999999999985],[0,0],[-0.01899999999999996,0.03400000000000003],[-0.03300000000000003,0.019000000000000017],[-0.041000000000000036,0],[-0.031000000000000028,-0.019000000000000017],[-0.017000000000000015,-0.033999999999999975],[0,-0.045999999999999985],[0,0],[0.007000000000000006,-0.006999999999999999]],"o":[[-0.01100000000000001,0],[-0.007000000000000006,-0.006999999999999999],[0,0],[0,-0.046999999999999986],[-0.025000000000000022,-0.027000000000000024],[-0.041000000000000036,0],[-0.027000000000000024,0.028000000000000025],[0,0],[0.0010000000000000009,-0.044999999999999984],[0.019000000000000017,-0.033999999999999975],[0.03299999999999992,-0.019000000000000017],[0.038999999999999924,0],[0.030000000000000027,0.019000000000000017],[0.016000000000000014,0.03400000000000003],[0,0],[0,0.011],[-0.008000000000000007,0.006999999999999999]]}}},{"ty":"sh","ks":{"a":0,"k":{"c":true,"v":[[0.129,0],[0.101,-0.011],[0.09,-0.038],[0.09,-0.508],[0.101,-0.536],[0.129,-0.547],[0.157,-0.536],[0.167,-0.508],[0.167,-0.038],[0.157,-0.011]],"i":[[0.01100000000000001,0],[0.006999999999999992,0.006999999999999999],[0,0.011],[0,0],[-0.008000000000000007,0.007000000000000006],[-0.011999999999999997,0],[-0.007000000000000006,-0.007000000000000006],[0,-0.01100000000000001],[0,0],[0.007000000000000006,-0.006999999999999999]],"o":[[-0.011999999999999997,0],[-0.008000000000000007,-0.006999999999999999],[0,0],[0,-0.01100000000000001],[0.006999999999999992,-0.007000000000000006],[0.01100000000000001,0],[0.007000000000000006,0.007000000000000006],[0,0],[0,0.011],[-0.007000000000000006,0.006999999999999999]]}}},{"ty":"sh","ks":{"a":0,"k":{"c":true,"v":[[0.48,0],[0.452,-0.011],[0.441,-0.038],[0.441,-0.326],[0.404,-0.439],[0.309,-0.48],[0.207,-0.44],[0.167,-0.334],[0.112,-0.334],[0.141,-0.448],[0.213,-0.525],[0.317,-0.553],[0.422,-0.525],[0.493,-0.446],[0.518,-0.326],[0.518,-0.038],[0.508,-0.011]],"i":[[0.01100000000000001,0],[0.007000000000000006,0.006999999999999999],[0,0.011],[0,0],[0.024999999999999967,0.028000000000000025],[0.03899999999999998,0],[0.027000000000000024,-0.026000000000000023],[0,-0.04299999999999998],[0,0],[-0.017999999999999988,0.03300000000000003],[-0.031,0.019000000000000017],[-0.03899999999999998,0],[-0.030999999999999972,-0.019000000000000017],[-0.017000000000000015,-0.033999999999999975],[0,-0.045999999999999985],[0,0],[0.007000000000000006,-0.006999999999999999]],"o":[[-0.01100000000000001,0],[-0.007000000000000006,-0.006999999999999999],[0,0],[0,-0.046999999999999986],[-0.025000000000000022,-0.027000000000000024],[-0.04099999999999998,0],[-0.026999999999999996,0.027000000000000024],[0,0],[0.0010000000000000009,-0.04299999999999998],[0.017000000000000015,-0.032999999999999974],[0.031,-0.019000000000000017],[0.03899999999999998,0],[0.030000000000000027,0.019000000000000017],[0.016000000000000014,0.03400000000000003],[0,0],[0,0.011],[-0.007000000000000006,0.006999999999999999]]}}},{"ty":"st","o":{"a":0,"k":0},"w":{"a":0,"k":0},"c":{"a":0,"k":[0,0,0,0]},"lc":3,"lj":1,"ml":1},{"ty":"fl","o":{"a":0,"k":100},"r":1,"c":{"a":0,"k":[0.3764705882352941,0.3764705882352941,0.3764705882352941,1]}},{"ty":"tr","o":{"a":0,"k":100},"a":{"a":0,"k":[0,0]},"s":{"a":0,"k":[3000,3000]},"p":{"a":0,"k":[27.57,23.43]},"r":{"a":0,"k":0}}]},{"ty":"gr","nm":"timelineHeader shape group","it":[{"ty":"sh","ks":{"a":0,"k":{"c":true,"v":[[0.145,0],[0.117,-0.011],[0.106,-0.039],[0.106,-0.508],[0.117,-0.537],[0.145,-0.547],[0.173,-0.537],[0.183,-0.508],[0.183,-0.039],[0.173,-0.011]],"i":[[0.01100000000000001,0],[0.006999999999999992,0.006999999999999999],[0,0.012],[0,0],[-0.007000000000000006,0.007000000000000006],[-0.011999999999999983,0],[-0.0069999999999999785,-0.007000000000000006],[0,-0.01200000000000001],[0,0],[0.007000000000000006,-0.006999999999999999]],"o":[[-0.011999999999999983,0],[-0.007000000000000006,-0.006999999999999999],[0,0],[0,-0.01200000000000001],[0.006999999999999992,-0.007000000000000006],[0.01100000000000001,0],[0.007000000000000006,0.007000000000000006],[0,0],[0,0.012],[-0.0069999999999999785,0.006999999999999999]]}}},{"ty":"sh","ks":{"a":0,"k":{"c":true,"v":[[0.144,-0.651],[0.106,-0.667],[0.09,-0.706],[0.107,-0.746],[0.145,-0.76],[0.183,-0.746],[0.199,-0.706],[0.183,-0.667]],"i":[[0.015000000000000013,0],[0.01100000000000001,0.01100000000000001],[0,0.015000000000000013],[-0.011999999999999997,0.010000000000000009],[-0.014999999999999986,0],[-0.011999999999999983,-0.009000000000000008],[0,-0.017000000000000015],[0.01100000000000001,-0.01100000000000001]],"o":[[-0.014999999999999986,0],[-0.010999999999999996,-0.01100000000000001],[0,-0.017000000000000015],[0.010000000000000009,-0.009000000000000008],[0.014000000000000012,0],[0.01100000000000001,0.010000000000000009],[0,0.015000000000000013],[-0.01100000000000001,0.01100000000000001]]}}},{"ty":"st","o":{"a":0,"k":0},"w":{"a":0,"k":0},"c":{"a":0,"k":[0,0,0,0]},"lc":3,"lj":1,"ml":1},{"ty":"fl","o":{"a":0,"k":100},"r":1,"c":{"a":0,"k":[0.3764705882352941,0.3764705882352941,0.3764705882352941,1]}},{"ty":"tr","o":{"a":0,"k":100},"a":{"a":0,"k":[0,0]},"s":{"a":0,"k":[3000,3000]},"p":{"a":0,"k":[18.9,23.43]},"r":{"a":0,"k":0}}]},{"ty":"gr","nm":"timelineHeader shape group","it":[{"ty":"sh","ks":{"a":0,"k":{"c":true,"v":[[0.327,0],[0.3,-0.012],[0.288,-0.039],[0.288,-0.781],[0.366,-0.781],[0.366,-0.039],[0.355,-0.012]],"i":[[0.01100000000000001,0],[0.007000000000000006,0.008],[0,0.011],[0,0],[0,0],[0,0],[0.007000000000000006,-0.006999999999999999]],"o":[[-0.01100000000000001,0],[-0.008000000000000007,-0.006999999999999999],[0,0],[0,0],[0,0],[0,0.011],[-0.007000000000000006,0.008]]}}},{"ty":"sh","ks":{"a":0,"k":{"c":true,"v":[[0.051,-0.71],[0.025,-0.72],[0.015,-0.745],[0.025,-0.771],[0.051,-0.781],[0.604,-0.781],[0.63,-0.771],[0.64,-0.745],[0.63,-0.72],[0.604,-0.71]],"i":[[0,0],[0.006999999999999999,0.007000000000000006],[0,0.010000000000000009],[-0.007000000000000003,0.007000000000000006],[-0.010999999999999996,0],[0,0],[-0.007000000000000006,-0.007000000000000006],[0,-0.01100000000000001],[0.007000000000000006,-0.007000000000000006],[0.01100000000000001,0]],"o":[[-0.010999999999999996,0],[-0.007000000000000003,-0.007000000000000006],[0,-0.01100000000000001],[0.006999999999999999,-0.007000000000000006],[0,0],[0.01100000000000001,0],[0.007000000000000006,0.007000000000000006],[0,0.010000000000000009],[-0.007000000000000006,0.007000000000000006],[0,0]]}}},{"ty":"st","o":{"a":0,"k":0},"w":{"a":0,"k":0},"c":{"a":0,"k":[0,0,0,0]},"lc":3,"lj":1,"ml":1},{"ty":"fl","o":{"a":0,"k":100},"r":1,"c":{"a":0,"k":[0.3764705882352941,0.3764705882352941,0.3764705882352941,1]}},{"ty":"tr","o":{"a":0,"k":100},"a":{"a":0,"k":[0,0]},"s":{"a":0,"k":[3000,3000]},"p":{"a":0,"k":[-0.45,23.43]},"r":{"a":0,"k":0}}]}],"op":360},{"ty":4,"nm":"right-line","ip":0,"st":0,"ind":5,"hix":5,"ks":{"o":{"a":0,"k":100},"or":{"a":0,"k":[0,0,0]},"a":{"a":0,"k":[174.4290008544922,0.5,0]},"p":{"s":true,"x":{"a":0,"k":468.2216980274353},"y":{"a":0,"k":38.62247272442627}},"rx":{"a":0,"k":0},"ry":{"a":0,"k":0},"rz":{"a":0,"k":0},"s":{"a":0,"k":[47,59.699999999999996]}},"shapes":[{"ty":"gr","nm":"right-line shape group","it":[{"ty":"sh","ks":{"a":0,"k":{"c":false,"v":[[79.27,188.205],[428.128,188.205]],"i":[[0,0],[0,0]],"o":[[0,0],[0,0]]}}},{"ty":"st","o":{"a":0,"k":100},"c":{"a":0,"k":[0.3764705882352941,0.3764705882352941,0.3764705882352941,1]},"lc":2,"lj":2,"ml":1.5,"w":{"a":0,"k":1.01}},{"ty":"fl","o":{"a":0,"k":0},"c":{"a":0,"k":[0,0,0,0]},"r":1},{"ty":"tr","o":{"a":0,"k":100},"a":{"a":0,"k":[0,0]},"s":{"a":0,"k":[100,100]},"p":{"a":0,"k":[-79.27,-188.205]},"r":{"a":0,"k":0}}]}],"op":360},{"ty":4,"nm":"left-line","ip":0,"st":0,"ind":4,"hix":6,"ks":{"o":{"a":0,"k":100},"or":{"a":0,"k":[0,0,0]},"a":{"a":0,"k":[174.4290008544922,0.5,0]},"p":{"s":true,"x":{"a":0,"k":83.32771314450073},"y":{"a":0,"k":38.60152727008057}},"rx":{"a":0,"k":0},"ry":{"a":0,"k":0},"rz":{"a":0,"k":0},"s":{"a":0,"k":[47.599999999999994,55.50000000000001]}},"shapes":[{"ty":"gr","nm":"left-line shape group","it":[{"ty":"sh","ks":{"a":0,"k":{"c":false,"v":[[79.27,188.205],[428.128,188.205]],"i":[[0,0],[0,0]],"o":[[0,0],[0,0]]}}},{"ty":"st","o":{"a":0,"k":100},"c":{"a":0,"k":[0.3764705882352941,0.3764705882352941,0.3764705882352941,1]},"lc":2,"lj":2,"ml":1.5,"w":{"a":0,"k":1.04}},{"ty":"fl","o":{"a":0,"k":0},"c":{"a":0,"k":[0,0,0,0]},"r":1},{"ty":"tr","o":{"a":0,"k":100},"a":{"a":0,"k":[0,0]},"s":{"a":0,"k":[100,100]},"p":{"a":0,"k":[-79.27,-188.205]},"r":{"a":0,"k":0}}]}],"op":360},{"ty":4,"nm":"hourHand","ip":0,"st":0,"ind":3,"hix":2,"ks":{"o":{"a":0,"k":100},"or":{"a":0,"k":[0,0,0]},"a":{"a":0,"k":[0.5,26.963854248046875,0]},"p":{"s":true,"x":{"a":0,"k":222.549},"y":{"a":0,"k":40}},"rx":{"a":0,"k":0},"ry":{"a":0,"k":0},"rz":{"a":1,"k":[{"t":0,"s":[0],"e":[359.9893826806963],"i":{"x":[1],"y":[1]},"o":{"x":[0],"y":[0]}},{"t":360}]},"s":{"a":0,"k":[49.4,31.3]}},"shapes":[{"ty":"gr","nm":"hourHand shape group","it":[{"ty":"sh","ks":{"a":0,"k":{"c":false,"v":[[451.029,1393.96],[451.029,1420.87]],"i":[[0,0],[0,0]],"o":[[0,0],[0,0]]}}},{"ty":"st","o":{"a":0,"k":100},"c":{"a":0,"k":[0.3764705882352941,0.3764705882352941,0.3764705882352941,1]},"lc":2,"lj":2,"ml":1.5,"w":{"a":0,"k":4.97}},{"ty":"fl","o":{"a":0,"k":0},"c":{"a":0,"k":[0,0,0,0]},"r":1},{"ty":"tr","o":{"a":0,"k":100},"a":{"a":0,"k":[0,0]},"s":{"a":0,"k":[100,100]},"p":{"a":0,"k":[-451.029,-1393.96]},"r":{"a":0,"k":0}}]}],"op":360},{"ty":4,"nm":"Timer-Body","ip":0,"st":0,"ind":2,"hix":4,"ks":{"o":{"a":0,"k":100},"or":{"a":0,"k":[0,0,0]},"a":{"a":0,"k":[32.64100646972656,39.85546875,0]},"p":{"s":true,"x":{"a":0,"k":222.3846571960449},"y":{"a":0,"k":35.95474978106737}},"rx":{"a":0,"k":0},"ry":{"a":0,"k":0},"rz":{"a":0,"k":0},"s":{"a":0,"k":[49.4,57.599999999999994]}},"shapes":[{"ty":"gr","nm":"Timer-Body shape group","it":[{"ty":"sh","ks":{"a":0,"k":{"c":false,"v":[[451.196,1388.36],[451.196,1373.93],[443.054,1374.1],[461.112,1373.95]],"i":[[0,0],[0,0],[0,0],[0,0]],"o":[[0,0],[0,0],[0,0],[0,0]]}}},{"ty":"st","o":{"a":0,"k":100},"c":{"a":0,"k":[0.3764705882352941,0.3764705882352941,0.3764705882352941,1]},"lc":2,"lj":2,"ml":1.5,"w":{"a":0,"k":4}},{"ty":"fl","o":{"a":0,"k":0},"c":{"a":0,"k":[0,0,0,0]},"r":1},{"ty":"tr","o":{"a":0,"k":100},"a":{"a":0,"k":[0,0]},"s":{"a":0,"k":[100,100]},"p":{"a":0,"k":[-418.555,-1373.93]},"r":{"a":0,"k":0}}]},{"ty":"gr","nm":"Timer-Body shape group","it":[{"ty":"el","p":{"a":0,"k":[451,1421]},"s":{"a":0,"k":[65.282,65.282]}},{"ty":"st","o":{"a":0,"k":100},"c":{"a":0,"k":[0.3764705882352941,0.3764705882352941,0.3764705882352941,1]},"lc":2,"lj":2,"ml":1.5,"w":{"a":0,"k":4}},{"ty":"fl","o":{"a":0,"k":0},"c":{"a":0,"k":[0,0,0,0]},"r":1},{"ty":"tr","o":{"a":0,"k":100},"a":{"a":0,"k":[0,0]},"s":{"a":0,"k":[100,100]},"p":{"a":0,"k":[-418.555,-1373.93]},"r":{"a":0,"k":0}}]}],"op":360},{"ty":4,"nm":"MinuteHand","ip":0,"st":0,"ind":1,"hix":3,"ks":{"o":{"a":0,"k":100},"or":{"a":0,"k":[0,0,0]},"a":{"a":0,"k":[0.1,26.963854248046875,0]},"p":{"s":true,"x":{"a":0,"k":222.4554},"y":{"a":0,"k":39.93617989875813}},"rx":{"a":0,"k":0},"ry":{"a":0,"k":0},"rz":{"a":1,"k":[{"t":0,"s":[0],"e":[4320.101775286408],"i":{"x":[1],"y":[1]},"o":{"x":[0],"y":[0]}},{"t":360}]},"s":{"a":0,"k":[49.4,57.599999999999994]}},"shapes":[{"ty":"gr","nm":"MinuteHand shape group","it":[{"ty":"sh","ks":{"a":0,"k":{"c":false,"v":[[451.029,1393.96],[451.029,1420.87]],"i":[[0,0],[0,0]],"o":[[0,0],[0,0]]}}},{"ty":"st","o":{"a":0,"k":100},"c":{"a":0,"k":[0.3764705882352941,0.3764705882352941,0.3764705882352941,1]},"lc":2,"lj":2,"ml":1.5,"w":{"a":0,"k":4}},{"ty":"fl","o":{"a":0,"k":0},"c":{"a":0,"k":[0,0,0,0]},"r":1},{"ty":"tr","o":{"a":0,"k":100},"a":{"a":0,"k":[0,0]},"s":{"a":0,"k":[100,100]},"p":{"a":0,"k":[-451.029,-1393.96]},"r":{"a":0,"k":0}}]}],"op":360}],"op":360,"w":550,"h":75}