{"ip":0,"fr":60,"v":"5.1.20","assets":[],"layers":[{"ty":4,"nm":"heart-left","ip":0,"st":0,"ind":5,"hix":1,"ks":{"o":{"a":0,"k":100},"or":{"a":0,"k":[0,0,0]},"a":{"a":0,"k":[6.897003173828125,9.828498840332031,0]},"p":{"s":true,"x":{"a":0,"k":180.414},"y":{"a":0,"k":18.616}},"rx":{"a":0,"k":180.02333923010465},"ry":{"a":0,"k":0},"rz":{"a":0,"k":0},"s":{"a":0,"k":[-113.6,-126.1]}},"shapes":[{"ty":"gr","nm":"heart-left shape group","it":[{"ty":"sh","ks":{"a":0,"k":{"c":false,"v":[[406.24,171.349],[417.275,169.383],[417.275,179.211],[406.24,187.074]],"i":[[0,0],[-2.7589999999999577,-1.9660000000000082],[2.7590000000000146,-3.9310000000000116],[4.137999999999977,-1.9660000000000082]],"o":[[2.7590000000000146,-3.931999999999988],[2.7590000000000146,1.9659999999999798],[-1.9309999999999832,2.948999999999984],[0,0]]}}},{"ty":"st","o":{"a":0,"k":100},"c":{"a":0,"k":[0.3764705882352941,0.3764705882352941,0.3764705882352941,1]},"lc":2,"lj":2,"ml":1.5,"w":{"a":0,"k":1.47},"d":[{"n":"d","v":{"a":0,"k":100},"nm":"0"},{"n":"g","v":{"a":0,"k":100},"nm":"1"},{"n":"o","v":{"a":1,"k":[{"t":0,"s":[-40],"e":[-40],"i":{"x":[1],"y":[1]},"o":{"x":[0],"y":[0]}},{"t":42,"s":[-40],"e":[0],"i":{"x":[0.07],"y":[1]},"o":{"x":[0.86],"y":[0]}},{"t":114}]},"nm":"2"}]},{"ty":"fl","o":{"a":0,"k":0},"c":{"a":0,"k":[0,0,0,0]},"r":1},{"ty":"tr","o":{"a":0,"k":100},"a":{"a":0,"k":[0,0]},"s":{"a":0,"k":[100,100]},"p":{"a":0,"k":[-406.24,-167.417]},"r":{"a":0,"k":0}}]}],"op":114},{"ty":4,"nm":"text","ip":0,"st":0,"ind":4,"hix":3,"ks":{"o":{"a":0,"k":100},"or":{"a":0,"k":[0,0,0]},"a":{"a":0,"k":[125.9932861328125,48.80826690673828,0]},"p":{"s":true,"x":{"a":0,"k":292.997},"y":{"a":1,"k":[{"t":0,"s":[28.675],"e":[28.675],"i":{"x":[1],"y":[1]},"o":{"x":[0],"y":[0]}},{"t":42,"s":[28.675],"e":[25.249290319275453],"i":{"x":[0.515],"y":[0.955]},"o":{"x":[0.455],"y":[0.03]}},{"t":66,"s":[25.249290319275453],"e":[28.675],"i":{"x":[0.515],"y":[0.955]},"o":{"x":[0.455],"y":[0.03]}},{"t":114}]}},"rx":{"a":0,"k":0},"ry":{"a":0,"k":0},"rz":{"a":0,"k":0},"s":{"a":1,"k":[{"t":0,"s":[63,0],"e":[63,0],"i":{"x":[1,1],"y":[1,1]},"o":{"x":[0,0],"y":[0,0]}},{"t":42,"s":[63,0],"e":[63,41.8],"i":{"x":[1,0.44],"y":[1,1.37]},"o":{"x":[0,0.175],"y":[0,0.885]}},{"t":114}]}},"shapes":[{"ty":"gr","nm":"text shape group","it":[{"ty":"sh","ks":{"a":0,"k":{"c":true,"v":[[0.281,0.005],[0.164,-0.015],[0.07,-0.075],[0.061,-0.102],[0.076,-0.128],[0.105,-0.136],[0.13,-0.123],[0.194,-0.08],[0.281,-0.065],[0.388,-0.091],[0.422,-0.152],[0.388,-0.212],[0.276,-0.248],[0.128,-0.304],[0.081,-0.399],[0.108,-0.484],[0.18,-0.535],[0.279,-0.552],[0.395,-0.529],[0.473,-0.467],[0.481,-0.44],[0.465,-0.417],[0.438,-0.413],[0.411,-0.427],[0.353,-0.47],[0.277,-0.483],[0.189,-0.461],[0.156,-0.404],[0.169,-0.364],[0.212,-0.334],[0.297,-0.312],[0.416,-0.277],[0.478,-0.222],[0.496,-0.153],[0.469,-0.071],[0.393,-0.015]],"i":[[0.04199999999999998,0],[0.03900000000000001,0.013],[0.023999999999999994,0.026999999999999996],[-0.0010000000000000009,0.009999999999999995],[-0.008999999999999994,0.007000000000000006],[-0.009999999999999995,-0.0010000000000000009],[-0.007000000000000006,-0.007000000000000006],[-0.026999999999999996,-0.009999999999999995],[-0.03200000000000003,0],[-0.02200000000000002,0.017],[-0.0010000000000000009,0.023999999999999994],[0.022999999999999965,0.015999999999999986],[0.05199999999999999,0.009000000000000008],[0.031,0.02699999999999997],[0,0.03700000000000003],[-0.018000000000000002,0.022999999999999965],[-0.03,0.01100000000000001],[-0.03600000000000003,0],[-0.03300000000000003,-0.015000000000000013],[-0.019999999999999962,-0.025999999999999968],[0.0010000000000000009,-0.009000000000000008],[0.008999999999999952,-0.006000000000000005],[0.010000000000000009,0.0020000000000000018],[0.007000000000000006,0.008000000000000007],[0.02200000000000002,0.009999999999999953],[0.02899999999999997,0],[0.021999999999999992,-0.013999999999999957],[0,-0.022999999999999965],[-0.009000000000000008,-0.01100000000000001],[-0.02099999999999999,-0.009000000000000008],[-0.03699999999999998,-0.006000000000000005],[-0.02899999999999997,-0.014999999999999958],[-0.012999999999999956,-0.02099999999999999],[0,-0.024999999999999994],[0.018000000000000016,-0.023000000000000007],[0.03199999999999997,-0.013000000000000001]],"o":[[-0.039000000000000035,0],[-0.03900000000000001,-0.013000000000000001],[-0.007000000000000006,-0.008000000000000007],[0.0010000000000000009,-0.010000000000000009],[0.009000000000000008,-0.007000000000000006],[0.010000000000000009,0.0010000000000000009],[0.015999999999999986,0.019000000000000003],[0.025999999999999995,0.009999999999999995],[0.04899999999999999,0],[0.021999999999999964,-0.017],[0,-0.023999999999999994],[-0.02300000000000002,-0.015000000000000013],[-0.06700000000000003,-0.01100000000000001],[-0.031,-0.027000000000000024],[0,-0.033999999999999975],[0.018000000000000002,-0.02300000000000002],[0.03,-0.01100000000000001],[0.044999999999999984,0],[0.03199999999999997,0.015000000000000013],[0.007000000000000006,0.009000000000000008],[-0.0010000000000000009,0.009000000000000008],[-0.008000000000000007,0.0050000000000000044],[-0.01100000000000001,-0.0010000000000000009],[-0.01699999999999996,-0.019000000000000017],[-0.021999999999999964,-0.008000000000000007],[-0.03700000000000003,0],[-0.021999999999999992,0.015000000000000013],[0,0.015000000000000013],[0.00799999999999998,0.01100000000000001],[0.020000000000000018,0.009000000000000008],[0.04999999999999999,0.008000000000000007],[0.029000000000000026,0.016000000000000014],[0.01200000000000001,0.02099999999999999],[0,0.031],[-0.01899999999999996,0.023999999999999994],[-0.03300000000000003,0.013]]}}},{"ty":"st","o":{"a":0,"k":0},"w":{"a":0,"k":0},"c":{"a":0,"k":[0,0,0,0]},"lc":3,"lj":1,"ml":1},{"ty":"fl","o":{"a":0,"k":100},"r":1,"c":{"a":0,"k":[0.3764705882352941,0.3764705882352941,0.3764705882352941,1]}},{"ty":"tr","o":{"a":0,"k":100},"a":{"a":0,"k":[0,0]},"s":{"a":0,"k":[3044.1,6080.2]},"p":{"a":0,"k":[236.888,47.486]},"r":{"a":0,"k":0}}]},{"ty":"gr","nm":"text shape group","it":[{"ty":"sh","ks":{"a":0,"k":{"c":true,"v":[[0.304,0],[0.21,-0.025],[0.144,-0.094],[0.12,-0.193],[0.12,-0.682],[0.131,-0.71],[0.158,-0.721],[0.186,-0.71],[0.197,-0.682],[0.197,-0.193],[0.227,-0.11],[0.304,-0.077],[0.331,-0.077],[0.357,-0.066],[0.367,-0.038],[0.355,-0.011],[0.325,0]],"i":[[0,0],[0.026999999999999996,0.017],[0.016000000000000014,0.028999999999999998],[0,0.037000000000000005],[0,0],[-0.007000000000000006,0.007000000000000006],[-0.01100000000000001,0],[-0.007000000000000006,-0.007000000000000006],[0,-0.010999999999999899],[0,0],[-0.020000000000000018,-0.021000000000000005],[-0.030999999999999972,0],[0,0],[-0.007000000000000006,-0.006999999999999992],[0,-0.011000000000000003],[0.008000000000000007,-0.006999999999999999],[0.01200000000000001,0]],"o":[[-0.034999999999999976,0],[-0.027999999999999997,-0.017],[-0.015999999999999986,-0.028999999999999998],[0,0],[0,-0.010999999999999899],[0.007000000000000006,-0.007000000000000006],[0.01100000000000001,0],[0.007000000000000006,0.007000000000000006],[0,0],[0,0.034],[0.01999999999999999,0.022000000000000006],[0,0],[0.01100000000000001,0],[0.007000000000000006,0.007000000000000006],[0,0.011],[-0.008000000000000007,0.006999999999999999],[0,0]]}}},{"ty":"sh","ks":{"a":0,"k":{"c":true,"v":[[0.055,-0.46],[0.03,-0.47],[0.02,-0.493],[0.03,-0.518],[0.055,-0.527],[0.31,-0.527],[0.335,-0.518],[0.345,-0.493],[0.335,-0.47],[0.31,-0.46]],"i":[[0,0],[0.006999999999999999,0.006999999999999951],[0,0.009000000000000008],[-0.006999999999999999,0.007000000000000006],[-0.010000000000000002,0],[0,0],[-0.007000000000000006,-0.006000000000000005],[0,-0.010000000000000009],[0.007000000000000006,-0.006000000000000005],[0.010000000000000009,0]],"o":[[-0.010000000000000002,0],[-0.006999999999999999,-0.006000000000000005],[0,-0.010000000000000009],[0.006999999999999999,-0.006000000000000005],[0,0],[0.010000000000000009,0],[0.007000000000000006,0.007000000000000006],[0,0.009000000000000008],[-0.007000000000000006,0.006999999999999951],[0,0]]}}},{"ty":"st","o":{"a":0,"k":0},"w":{"a":0,"k":0},"c":{"a":0,"k":[0,0,0,0]},"lc":3,"lj":1,"ml":1},{"ty":"fl","o":{"a":0,"k":100},"r":1,"c":{"a":0,"k":[0.3764705882352941,0.3764705882352941,0.3764705882352941,1]}},{"ty":"tr","o":{"a":0,"k":100},"a":{"a":0,"k":[0,0]},"s":{"a":0,"k":[3044.1,6080.2]},"p":{"a":0,"k":[224.651,47.486]},"r":{"a":0,"k":0}}]},{"ty":"gr","nm":"text shape group","it":[{"ty":"sh","ks":{"a":0,"k":{"c":true,"v":[[0.208,0],[0.137,-0.022],[0.088,-0.083],[0.07,-0.173],[0.07,-0.743],[0.081,-0.771],[0.108,-0.781],[0.136,-0.771],[0.146,-0.743],[0.146,-0.173],[0.164,-0.103],[0.208,-0.076],[0.233,-0.076],[0.257,-0.066],[0.266,-0.038],[0.254,-0.011],[0.221,0]],"i":[[0,0],[0.02099999999999999,0.015],[0.01100000000000001,0.026000000000000002],[0,0.033999999999999975],[0,0],[-0.007000000000000006,0.008000000000000007],[-0.010999999999999996,0],[-0.007000000000000006,-0.007000000000000006],[0,-0.01100000000000001],[0,0],[-0.01200000000000001,-0.018000000000000002],[-0.017999999999999988,0],[0,0],[-0.006000000000000005,-0.006999999999999992],[0,-0.011000000000000003],[0.008000000000000007,-0.006999999999999999],[0.013000000000000012,0]],"o":[[-0.026999999999999996,0],[-0.021000000000000005,-0.015],[-0.011999999999999997,-0.025999999999999995],[0,0],[0,-0.01100000000000001],[0.006999999999999992,-0.007000000000000006],[0.010999999999999996,0],[0.005999999999999978,0.008000000000000007],[0,0],[0,0.028999999999999998],[0.010999999999999982,0.017999999999999988],[0,0],[0.009999999999999981,0],[0.006000000000000005,0.008],[0,0.011],[-0.009000000000000008,0.006999999999999999],[0,0]]}}},{"ty":"st","o":{"a":0,"k":0},"w":{"a":0,"k":0},"c":{"a":0,"k":[0,0,0,0]},"lc":3,"lj":1,"ml":1},{"ty":"fl","o":{"a":0,"k":100},"r":1,"c":{"a":0,"k":[0.3764705882352941,0.3764705882352941,0.3764705882352941,1]}},{"ty":"tr","o":{"a":0,"k":100},"a":{"a":0,"k":[0,0]},"s":{"a":0,"k":[3044.1,6080.2]},"p":{"a":0,"k":[216.067,47.486]},"r":{"a":0,"k":0}}]},{"ty":"gr","nm":"text shape group","it":[{"ty":"sh","ks":{"a":0,"k":{"c":true,"v":[[0.328,0.006],[0.201,-0.024],[0.113,-0.11],[0.08,-0.249],[0.08,-0.509],[0.091,-0.536],[0.118,-0.547],[0.146,-0.536],[0.157,-0.509],[0.157,-0.249],[0.181,-0.147],[0.245,-0.087],[0.336,-0.067],[0.425,-0.086],[0.487,-0.138],[0.51,-0.213],[0.565,-0.213],[0.531,-0.101],[0.446,-0.023]],"i":[[0.04299999999999998,0],[0.03699999999999998,0.02],[0.021000000000000005,0.038000000000000006],[0,0.05499999999999999],[0,0],[-0.006999999999999992,0.007000000000000006],[-0.010999999999999996,0],[-0.0069999999999999785,-0.007000000000000006],[0,-0.01100000000000001],[0,0],[-0.015999999999999986,-0.026999999999999996],[-0.026999999999999996,-0.013000000000000012],[-0.03400000000000003,0],[-0.02699999999999997,0.012999999999999998],[-0.015000000000000013,0.022000000000000006],[0,0.027999999999999997],[0,0],[0.02100000000000002,-0.032],[0.034999999999999976,-0.019000000000000003]],"o":[[-0.046999999999999986,0],[-0.037000000000000005,-0.018999999999999996],[-0.022000000000000006,-0.03799999999999999],[0,0],[0,-0.01100000000000001],[0.007000000000000006,-0.007000000000000006],[0.01100000000000001,0],[0.007000000000000006,0.007000000000000006],[0,0],[0,0.04100000000000001],[0.015000000000000013,0.026999999999999996],[0.027000000000000024,0.012999999999999998],[0.032999999999999974,0],[0.026000000000000023,-0.013000000000000012],[0.015000000000000013,-0.021999999999999992],[0,0],[-0.0020000000000000018,0.04199999999999998],[-0.02200000000000002,0.033],[-0.03500000000000003,0.02]]}}},{"ty":"sh","ks":{"a":0,"k":{"c":true,"v":[[0.548,0],[0.521,-0.011],[0.51,-0.039],[0.51,-0.509],[0.521,-0.537],[0.548,-0.547],[0.576,-0.537],[0.587,-0.509],[0.587,-0.039],[0.576,-0.011]],"i":[[0.01100000000000001,0],[0.007000000000000006,0.006999999999999999],[0,0.012],[0,0],[-0.007000000000000006,0.007000000000000006],[-0.01100000000000001,0],[-0.007000000000000006,-0.007000000000000006],[0,-0.01100000000000001],[0,0],[0.007000000000000006,-0.006999999999999999]],"o":[[-0.01100000000000001,0],[-0.007000000000000006,-0.006999999999999999],[0,0],[0,-0.01100000000000001],[0.007000000000000006,-0.007000000000000006],[0.01100000000000001,0],[0.007000000000000006,0.007000000000000006],[0,0],[0,0.012],[-0.007000000000000006,0.006999999999999999]]}}},{"ty":"st","o":{"a":0,"k":0},"w":{"a":0,"k":0},"c":{"a":0,"k":[0,0,0,0]},"lc":3,"lj":1,"ml":1},{"ty":"fl","o":{"a":0,"k":100},"r":1,"c":{"a":0,"k":[0.3764705882352941,0.3764705882352941,0.3764705882352941,1]}},{"ty":"tr","o":{"a":0,"k":100},"a":{"a":0,"k":[0,0]},"s":{"a":0,"k":[3044.1,6080.2]},"p":{"a":0,"k":[195.458,47.486]},"r":{"a":0,"k":0}}]},{"ty":"gr","nm":"text shape group","it":[{"ty":"sh","ks":{"a":0,"k":{"c":true,"v":[[0.281,0.005],[0.164,-0.015],[0.07,-0.075],[0.061,-0.102],[0.076,-0.128],[0.105,-0.136],[0.13,-0.123],[0.194,-0.08],[0.281,-0.065],[0.388,-0.091],[0.422,-0.152],[0.388,-0.212],[0.276,-0.248],[0.128,-0.304],[0.081,-0.399],[0.108,-0.484],[0.18,-0.535],[0.279,-0.552],[0.395,-0.529],[0.473,-0.467],[0.481,-0.44],[0.465,-0.417],[0.438,-0.413],[0.411,-0.427],[0.353,-0.47],[0.277,-0.483],[0.189,-0.461],[0.156,-0.404],[0.169,-0.364],[0.212,-0.334],[0.297,-0.312],[0.416,-0.277],[0.478,-0.222],[0.496,-0.153],[0.469,-0.071],[0.393,-0.015]],"i":[[0.04199999999999998,0],[0.03900000000000001,0.013],[0.023999999999999994,0.026999999999999996],[-0.0010000000000000009,0.009999999999999995],[-0.008999999999999994,0.007000000000000006],[-0.009999999999999995,-0.0010000000000000009],[-0.007000000000000006,-0.007000000000000006],[-0.026999999999999996,-0.009999999999999995],[-0.03200000000000003,0],[-0.02200000000000002,0.017],[-0.0010000000000000009,0.023999999999999994],[0.022999999999999965,0.015999999999999986],[0.05199999999999999,0.009000000000000008],[0.031,0.02699999999999997],[0,0.03700000000000003],[-0.018000000000000002,0.022999999999999965],[-0.03,0.01100000000000001],[-0.03600000000000003,0],[-0.03300000000000003,-0.015000000000000013],[-0.019999999999999962,-0.025999999999999968],[0.0010000000000000009,-0.009000000000000008],[0.008999999999999952,-0.006000000000000005],[0.010000000000000009,0.0020000000000000018],[0.007000000000000006,0.008000000000000007],[0.02200000000000002,0.009999999999999953],[0.02899999999999997,0],[0.021999999999999992,-0.013999999999999957],[0,-0.022999999999999965],[-0.009000000000000008,-0.01100000000000001],[-0.02099999999999999,-0.009000000000000008],[-0.03699999999999998,-0.006000000000000005],[-0.02899999999999997,-0.014999999999999958],[-0.012999999999999956,-0.02099999999999999],[0,-0.024999999999999994],[0.018000000000000016,-0.023000000000000007],[0.03199999999999997,-0.013000000000000001]],"o":[[-0.039000000000000035,0],[-0.03900000000000001,-0.013000000000000001],[-0.007000000000000006,-0.008000000000000007],[0.0010000000000000009,-0.010000000000000009],[0.009000000000000008,-0.007000000000000006],[0.010000000000000009,0.0010000000000000009],[0.015999999999999986,0.019000000000000003],[0.025999999999999995,0.009999999999999995],[0.04899999999999999,0],[0.021999999999999964,-0.017],[0,-0.023999999999999994],[-0.02300000000000002,-0.015000000000000013],[-0.06700000000000003,-0.01100000000000001],[-0.031,-0.027000000000000024],[0,-0.033999999999999975],[0.018000000000000002,-0.02300000000000002],[0.03,-0.01100000000000001],[0.044999999999999984,0],[0.03199999999999997,0.015000000000000013],[0.007000000000000006,0.009000000000000008],[-0.0010000000000000009,0.009000000000000008],[-0.008000000000000007,0.0050000000000000044],[-0.01100000000000001,-0.0010000000000000009],[-0.01699999999999996,-0.019000000000000017],[-0.021999999999999964,-0.008000000000000007],[-0.03700000000000003,0],[-0.021999999999999992,0.015000000000000013],[0,0.015000000000000013],[0.00799999999999998,0.01100000000000001],[0.020000000000000018,0.009000000000000008],[0.04999999999999999,0.008000000000000007],[0.029000000000000026,0.016000000000000014],[0.01200000000000001,0.02099999999999999],[0,0.031],[-0.01899999999999996,0.023999999999999994],[-0.03300000000000003,0.013]]}}},{"ty":"st","o":{"a":0,"k":0},"w":{"a":0,"k":0},"c":{"a":0,"k":[0,0,0,0]},"lc":3,"lj":1,"ml":1},{"ty":"fl","o":{"a":0,"k":100},"r":1,"c":{"a":0,"k":[0.3764705882352941,0.3764705882352941,0.3764705882352941,1]}},{"ty":"tr","o":{"a":0,"k":100},"a":{"a":0,"k":[0,0]},"s":{"a":0,"k":[3044.1,6080.2]},"p":{"a":0,"k":[179.051,47.486]},"r":{"a":0,"k":0}}]},{"ty":"gr","nm":"text shape group","it":[{"ty":"sh","ks":{"a":0,"k":{"c":true,"v":[[0.338,0.005],[0.195,-0.031],[0.097,-0.129],[0.061,-0.273],[0.095,-0.418],[0.187,-0.516],[0.323,-0.552],[0.456,-0.518],[0.543,-0.422],[0.574,-0.283],[0.564,-0.258],[0.538,-0.248],[0.113,-0.248],[0.113,-0.312],[0.546,-0.312],[0.503,-0.281],[0.482,-0.385],[0.42,-0.457],[0.323,-0.483],[0.223,-0.456],[0.157,-0.382],[0.133,-0.273],[0.16,-0.165],[0.232,-0.091],[0.338,-0.064],[0.411,-0.077],[0.469,-0.108],[0.494,-0.118],[0.518,-0.11],[0.532,-0.084],[0.52,-0.06],[0.436,-0.014]],"i":[[0.030999999999999972,0],[0.04099999999999998,0.024],[0.022999999999999993,0.04200000000000001],[0,0.05400000000000002],[-0.023000000000000007,0.04199999999999998],[-0.03900000000000001,0.02400000000000002],[-0.05099999999999999,0],[-0.038000000000000034,-0.02300000000000002],[-0.02100000000000002,-0.041000000000000036],[0,-0.052000000000000046],[0.007000000000000006,-0.006000000000000005],[0.01100000000000001,0],[0,0],[0,0],[0,0],[0,0],[0.015000000000000013,0.031000000000000028],[0.027000000000000024,0.017000000000000015],[0.03699999999999998,0],[0.028999999999999998,-0.01799999999999996],[0.014999999999999986,-0.030999999999999972],[0,-0.04099999999999998],[-0.018000000000000016,-0.031],[-0.031,-0.018000000000000002],[-0.040000000000000036,0],[-0.024999999999999967,0.008999999999999994],[-0.014999999999999958,0.012999999999999998],[-0.009000000000000008,0.000999999999999987],[-0.007000000000000006,-0.0050000000000000044],[-0.0010000000000000009,-0.008999999999999994],[0.008000000000000007,-0.007000000000000006],[0.033999999999999975,-0.011999999999999999]],"o":[[-0.05400000000000005,0],[-0.04200000000000001,-0.023],[-0.024000000000000007,-0.04200000000000001],[0,-0.05499999999999999],[0.022000000000000006,-0.041000000000000036],[0.03900000000000001,-0.02400000000000002],[0.05099999999999999,0],[0.03699999999999998,0.02400000000000002],[0.020999999999999908,0.04099999999999998],[0,0.010999999999999954],[-0.006999999999999895,0.007000000000000006],[0,0],[0,0],[0,0],[0,0],[0.0010000000000000009,-0.03899999999999998],[-0.014999999999999958,-0.030999999999999972],[-0.02699999999999997,-0.01699999999999996],[-0.038000000000000034,0],[-0.028999999999999998,0.018000000000000016],[-0.016000000000000014,0.03200000000000003],[0,0.04100000000000001],[0.016999999999999987,0.031],[0.031,0.018000000000000002],[0.023999999999999966,0],[0.02400000000000002,-0.008000000000000007],[0.007000000000000006,-0.006000000000000005],[0.009000000000000008,0],[0.009000000000000008,0.008000000000000007],[0,0.009000000000000008],[-0.02200000000000002,0.018999999999999996],[-0.033999999999999975,0.013000000000000001]]}}},{"ty":"st","o":{"a":0,"k":0},"w":{"a":0,"k":0},"c":{"a":0,"k":[0,0,0,0]},"lc":3,"lj":1,"ml":1},{"ty":"fl","o":{"a":0,"k":100},"r":1,"c":{"a":0,"k":[0.3764705882352941,0.3764705882352941,0.3764705882352941,1]}},{"ty":"tr","o":{"a":0,"k":100},"a":{"a":0,"k":[0,0]},"s":{"a":0,"k":[3044.1,6080.2]},"p":{"a":0,"k":[160.361,47.486]},"r":{"a":0,"k":0}}]},{"ty":"gr","nm":"text shape group","it":[{"ty":"sh","ks":{"a":0,"k":{"c":true,"v":[[0.139,0],[0.111,-0.011],[0.1,-0.039],[0.1,-0.742],[0.111,-0.77],[0.139,-0.781],[0.326,-0.781],[0.456,-0.751],[0.546,-0.666],[0.578,-0.54],[0.546,-0.419],[0.456,-0.336],[0.326,-0.306],[0.178,-0.306],[0.178,-0.039],[0.167,-0.011]],"i":[[0.010999999999999982,0],[0.006999999999999992,0.006999999999999999],[0,0.011],[0,0],[-0.007000000000000006,0.007000000000000006],[-0.01100000000000001,0],[0,0],[-0.038000000000000034,-0.020000000000000018],[-0.02200000000000002,-0.03599999999999992],[0,-0.04699999999999993],[0.020999999999999908,-0.03500000000000003],[0.03799999999999998,-0.019999999999999962],[0.04899999999999999,0],[0,0],[0,0],[0.0069999999999999785,-0.006999999999999999]],"o":[[-0.01100000000000001,0],[-0.007000000000000006,-0.006999999999999999],[0,0],[0,-0.01100000000000001],[0.006999999999999992,-0.007000000000000006],[0,0],[0.04899999999999999,0],[0.03799999999999998,0.02100000000000002],[0.020999999999999908,0.03700000000000003],[0,0.04500000000000004],[-0.02200000000000002,0.034999999999999976],[-0.038000000000000034,0.020000000000000018],[0,0],[0,0],[0,0.011],[-0.007000000000000006,0.006999999999999999]]}}},{"ty":"sh","ks":{"a":0,"k":{"c":true,"v":[[0.557,0],[0.537,-0.005],[0.523,-0.02],[0.331,-0.326],[0.409,-0.346],[0.588,-0.06],[0.594,-0.018]],"i":[[0.017999999999999905,0],[0.0050000000000000044,0.003],[0.0040000000000000036,0.007000000000000001],[0,0],[0,0],[0,0],[0.006000000000000005,-0.012]],"o":[[-0.009000000000000008,0],[-0.0050000000000000044,-0.003],[0,0],[0,0],[0,0],[0.010000000000000009,0.016],[-0.007000000000000006,0.011999999999999999]]}}},{"ty":"sh","ks":{"a":0,"k":{"c":true,"v":[[0.178,-0.381],[0.326,-0.381],[0.417,-0.402],[0.479,-0.458],[0.502,-0.54],[0.479,-0.627],[0.417,-0.685],[0.326,-0.706],[0.178,-0.706]],"i":[[0,0],[0,0],[-0.02699999999999997,0.014000000000000012],[-0.014999999999999958,0.02400000000000002],[0,0.031000000000000028],[0.015000000000000013,0.025000000000000022],[0.026000000000000023,0.014000000000000012],[0.033999999999999975,0],[0,0]],"o":[[0,0],[0.033999999999999975,0],[0.026000000000000023,-0.012999999999999956],[0.015000000000000013,-0.023999999999999966],[0,-0.03299999999999992],[-0.014999999999999958,-0.025000000000000022],[-0.02699999999999997,-0.013999999999999901],[0,0],[0,0]]}}},{"ty":"st","o":{"a":0,"k":0},"w":{"a":0,"k":0},"c":{"a":0,"k":[0,0,0,0]},"lc":3,"lj":1,"ml":1},{"ty":"fl","o":{"a":0,"k":100},"r":1,"c":{"a":0,"k":[0.3764705882352941,0.3764705882352941,0.3764705882352941,1]}},{"ty":"tr","o":{"a":0,"k":100},"a":{"a":0,"k":[0,0]},"s":{"a":0,"k":[3044.1,6080.2]},"p":{"a":0,"k":[141.548,47.486]},"r":{"a":0,"k":0}}]},{"ty":"gr","nm":"text shape group","it":[{"ty":"sh","ks":{"a":0,"k":{"c":true,"v":[[0.281,0.005],[0.164,-0.015],[0.07,-0.075],[0.061,-0.102],[0.076,-0.128],[0.105,-0.136],[0.13,-0.123],[0.194,-0.08],[0.281,-0.065],[0.388,-0.091],[0.422,-0.152],[0.388,-0.212],[0.276,-0.248],[0.128,-0.304],[0.081,-0.399],[0.108,-0.484],[0.18,-0.535],[0.279,-0.552],[0.395,-0.529],[0.473,-0.467],[0.481,-0.44],[0.465,-0.417],[0.438,-0.413],[0.411,-0.427],[0.353,-0.47],[0.277,-0.483],[0.189,-0.461],[0.156,-0.404],[0.169,-0.364],[0.212,-0.334],[0.297,-0.312],[0.416,-0.277],[0.478,-0.222],[0.496,-0.153],[0.469,-0.071],[0.393,-0.015]],"i":[[0.04199999999999998,0],[0.03900000000000001,0.013],[0.023999999999999994,0.026999999999999996],[-0.0010000000000000009,0.009999999999999995],[-0.008999999999999994,0.007000000000000006],[-0.009999999999999995,-0.0010000000000000009],[-0.007000000000000006,-0.007000000000000006],[-0.026999999999999996,-0.009999999999999995],[-0.03200000000000003,0],[-0.02200000000000002,0.017],[-0.0010000000000000009,0.023999999999999994],[0.022999999999999965,0.015999999999999986],[0.05199999999999999,0.009000000000000008],[0.031,0.02699999999999997],[0,0.03700000000000003],[-0.018000000000000002,0.022999999999999965],[-0.03,0.01100000000000001],[-0.03600000000000003,0],[-0.03300000000000003,-0.015000000000000013],[-0.019999999999999962,-0.025999999999999968],[0.0010000000000000009,-0.009000000000000008],[0.008999999999999952,-0.006000000000000005],[0.010000000000000009,0.0020000000000000018],[0.007000000000000006,0.008000000000000007],[0.02200000000000002,0.009999999999999953],[0.02899999999999997,0],[0.021999999999999992,-0.013999999999999957],[0,-0.022999999999999965],[-0.009000000000000008,-0.01100000000000001],[-0.02099999999999999,-0.009000000000000008],[-0.03699999999999998,-0.006000000000000005],[-0.02899999999999997,-0.014999999999999958],[-0.012999999999999956,-0.02099999999999999],[0,-0.024999999999999994],[0.018000000000000016,-0.023000000000000007],[0.03199999999999997,-0.013000000000000001]],"o":[[-0.039000000000000035,0],[-0.03900000000000001,-0.013000000000000001],[-0.007000000000000006,-0.008000000000000007],[0.0010000000000000009,-0.010000000000000009],[0.009000000000000008,-0.007000000000000006],[0.010000000000000009,0.0010000000000000009],[0.015999999999999986,0.019000000000000003],[0.025999999999999995,0.009999999999999995],[0.04899999999999999,0],[0.021999999999999964,-0.017],[0,-0.023999999999999994],[-0.02300000000000002,-0.015000000000000013],[-0.06700000000000003,-0.01100000000000001],[-0.031,-0.027000000000000024],[0,-0.033999999999999975],[0.018000000000000002,-0.02300000000000002],[0.03,-0.01100000000000001],[0.044999999999999984,0],[0.03199999999999997,0.015000000000000013],[0.007000000000000006,0.009000000000000008],[-0.0010000000000000009,0.009000000000000008],[-0.008000000000000007,0.0050000000000000044],[-0.01100000000000001,-0.0010000000000000009],[-0.01699999999999996,-0.019000000000000017],[-0.021999999999999964,-0.008000000000000007],[-0.03700000000000003,0],[-0.021999999999999992,0.015000000000000013],[0,0.015000000000000013],[0.00799999999999998,0.01100000000000001],[0.020000000000000018,0.009000000000000008],[0.04999999999999999,0.008000000000000007],[0.029000000000000026,0.016000000000000014],[0.01200000000000001,0.02099999999999999],[0,0.031],[-0.01899999999999996,0.023999999999999994],[-0.03300000000000003,0.013]]}}},{"ty":"st","o":{"a":0,"k":0},"w":{"a":0,"k":0},"c":{"a":0,"k":[0,0,0,0]},"lc":3,"lj":1,"ml":1},{"ty":"fl","o":{"a":0,"k":100},"r":1,"c":{"a":0,"k":[0.3764705882352941,0.3764705882352941,0.3764705882352941,1]}},{"ty":"tr","o":{"a":0,"k":100},"a":{"a":0,"k":[0,0]},"s":{"a":0,"k":[3044.1,6080.2]},"p":{"a":0,"k":[116.222,47.486]},"r":{"a":0,"k":0}}]},{"ty":"gr","nm":"text shape group","it":[{"ty":"sh","ks":{"a":0,"k":{"c":true,"v":[[0.281,0.005],[0.164,-0.015],[0.07,-0.075],[0.061,-0.102],[0.076,-0.128],[0.105,-0.136],[0.13,-0.123],[0.194,-0.08],[0.281,-0.065],[0.388,-0.091],[0.422,-0.152],[0.388,-0.212],[0.276,-0.248],[0.128,-0.304],[0.081,-0.399],[0.108,-0.484],[0.18,-0.535],[0.279,-0.552],[0.395,-0.529],[0.473,-0.467],[0.481,-0.44],[0.465,-0.417],[0.438,-0.413],[0.411,-0.427],[0.353,-0.47],[0.277,-0.483],[0.189,-0.461],[0.156,-0.404],[0.169,-0.364],[0.212,-0.334],[0.297,-0.312],[0.416,-0.277],[0.478,-0.222],[0.496,-0.153],[0.469,-0.071],[0.393,-0.015]],"i":[[0.04199999999999998,0],[0.03900000000000001,0.013],[0.023999999999999994,0.026999999999999996],[-0.0010000000000000009,0.009999999999999995],[-0.008999999999999994,0.007000000000000006],[-0.009999999999999995,-0.0010000000000000009],[-0.007000000000000006,-0.007000000000000006],[-0.026999999999999996,-0.009999999999999995],[-0.03200000000000003,0],[-0.02200000000000002,0.017],[-0.0010000000000000009,0.023999999999999994],[0.022999999999999965,0.015999999999999986],[0.05199999999999999,0.009000000000000008],[0.031,0.02699999999999997],[0,0.03700000000000003],[-0.018000000000000002,0.022999999999999965],[-0.03,0.01100000000000001],[-0.03600000000000003,0],[-0.03300000000000003,-0.015000000000000013],[-0.019999999999999962,-0.025999999999999968],[0.0010000000000000009,-0.009000000000000008],[0.008999999999999952,-0.006000000000000005],[0.010000000000000009,0.0020000000000000018],[0.007000000000000006,0.008000000000000007],[0.02200000000000002,0.009999999999999953],[0.02899999999999997,0],[0.021999999999999992,-0.013999999999999957],[0,-0.022999999999999965],[-0.009000000000000008,-0.01100000000000001],[-0.02099999999999999,-0.009000000000000008],[-0.03699999999999998,-0.006000000000000005],[-0.02899999999999997,-0.014999999999999958],[-0.012999999999999956,-0.02099999999999999],[0,-0.024999999999999994],[0.018000000000000016,-0.023000000000000007],[0.03199999999999997,-0.013000000000000001]],"o":[[-0.039000000000000035,0],[-0.03900000000000001,-0.013000000000000001],[-0.007000000000000006,-0.008000000000000007],[0.0010000000000000009,-0.010000000000000009],[0.009000000000000008,-0.007000000000000006],[0.010000000000000009,0.0010000000000000009],[0.015999999999999986,0.019000000000000003],[0.025999999999999995,0.009999999999999995],[0.04899999999999999,0],[0.021999999999999964,-0.017],[0,-0.023999999999999994],[-0.02300000000000002,-0.015000000000000013],[-0.06700000000000003,-0.01100000000000001],[-0.031,-0.027000000000000024],[0,-0.033999999999999975],[0.018000000000000002,-0.02300000000000002],[0.03,-0.01100000000000001],[0.044999999999999984,0],[0.03199999999999997,0.015000000000000013],[0.007000000000000006,0.009000000000000008],[-0.0010000000000000009,0.009000000000000008],[-0.008000000000000007,0.0050000000000000044],[-0.01100000000000001,-0.0010000000000000009],[-0.01699999999999996,-0.019000000000000017],[-0.021999999999999964,-0.008000000000000007],[-0.03700000000000003,0],[-0.021999999999999992,0.015000000000000013],[0,0.015000000000000013],[0.00799999999999998,0.01100000000000001],[0.020000000000000018,0.009000000000000008],[0.04999999999999999,0.008000000000000007],[0.029000000000000026,0.016000000000000014],[0.01200000000000001,0.02099999999999999],[0,0.031],[-0.01899999999999996,0.023999999999999994],[-0.03300000000000003,0.013]]}}},{"ty":"st","o":{"a":0,"k":0},"w":{"a":0,"k":0},"c":{"a":0,"k":[0,0,0,0]},"lc":3,"lj":1,"ml":1},{"ty":"fl","o":{"a":0,"k":100},"r":1,"c":{"a":0,"k":[0.3764705882352941,0.3764705882352941,0.3764705882352941,1]}},{"ty":"tr","o":{"a":0,"k":100},"a":{"a":0,"k":[0,0]},"s":{"a":0,"k":[3044.1,6080.2]},"p":{"a":0,"k":[99.814,47.486]},"r":{"a":0,"k":0}}]},{"ty":"gr","nm":"text shape group","it":[{"ty":"sh","ks":{"a":0,"k":{"c":true,"v":[[0.338,0.005],[0.195,-0.031],[0.097,-0.129],[0.061,-0.273],[0.095,-0.418],[0.187,-0.516],[0.323,-0.552],[0.456,-0.518],[0.543,-0.422],[0.574,-0.283],[0.564,-0.258],[0.538,-0.248],[0.113,-0.248],[0.113,-0.312],[0.546,-0.312],[0.503,-0.281],[0.482,-0.385],[0.42,-0.457],[0.323,-0.483],[0.223,-0.456],[0.157,-0.382],[0.133,-0.273],[0.16,-0.165],[0.232,-0.091],[0.338,-0.064],[0.411,-0.077],[0.469,-0.108],[0.494,-0.118],[0.518,-0.11],[0.532,-0.084],[0.52,-0.06],[0.436,-0.014]],"i":[[0.030999999999999972,0],[0.04099999999999998,0.024],[0.022999999999999993,0.04200000000000001],[0,0.05400000000000002],[-0.023000000000000007,0.04199999999999998],[-0.03900000000000001,0.02400000000000002],[-0.05099999999999999,0],[-0.038000000000000034,-0.02300000000000002],[-0.02100000000000002,-0.041000000000000036],[0,-0.052000000000000046],[0.007000000000000006,-0.006000000000000005],[0.01100000000000001,0],[0,0],[0,0],[0,0],[0,0],[0.015000000000000013,0.031000000000000028],[0.027000000000000024,0.017000000000000015],[0.03699999999999998,0],[0.028999999999999998,-0.01799999999999996],[0.014999999999999986,-0.030999999999999972],[0,-0.04099999999999998],[-0.018000000000000016,-0.031],[-0.031,-0.018000000000000002],[-0.040000000000000036,0],[-0.024999999999999967,0.008999999999999994],[-0.014999999999999958,0.012999999999999998],[-0.009000000000000008,0.000999999999999987],[-0.007000000000000006,-0.0050000000000000044],[-0.0010000000000000009,-0.008999999999999994],[0.008000000000000007,-0.007000000000000006],[0.033999999999999975,-0.011999999999999999]],"o":[[-0.05400000000000005,0],[-0.04200000000000001,-0.023],[-0.024000000000000007,-0.04200000000000001],[0,-0.05499999999999999],[0.022000000000000006,-0.041000000000000036],[0.03900000000000001,-0.02400000000000002],[0.05099999999999999,0],[0.03699999999999998,0.02400000000000002],[0.020999999999999908,0.04099999999999998],[0,0.010999999999999954],[-0.006999999999999895,0.007000000000000006],[0,0],[0,0],[0,0],[0,0],[0.0010000000000000009,-0.03899999999999998],[-0.014999999999999958,-0.030999999999999972],[-0.02699999999999997,-0.01699999999999996],[-0.038000000000000034,0],[-0.028999999999999998,0.018000000000000016],[-0.016000000000000014,0.03200000000000003],[0,0.04100000000000001],[0.016999999999999987,0.031],[0.031,0.018000000000000002],[0.023999999999999966,0],[0.02400000000000002,-0.008000000000000007],[0.007000000000000006,-0.006000000000000005],[0.009000000000000008,0],[0.009000000000000008,0.008000000000000007],[0,0.009000000000000008],[-0.02200000000000002,0.018999999999999996],[-0.033999999999999975,0.013000000000000001]]}}},{"ty":"st","o":{"a":0,"k":0},"w":{"a":0,"k":0},"c":{"a":0,"k":[0,0,0,0]},"lc":3,"lj":1,"ml":1},{"ty":"fl","o":{"a":0,"k":100},"r":1,"c":{"a":0,"k":[0.3764705882352941,0.3764705882352941,0.3764705882352941,1]}},{"ty":"tr","o":{"a":0,"k":100},"a":{"a":0,"k":[0,0]},"s":{"a":0,"k":[3044.1,6080.2]},"p":{"a":0,"k":[81.124,47.486]},"r":{"a":0,"k":0}}]},{"ty":"gr","nm":"text shape group","it":[{"ty":"sh","ks":{"a":0,"k":{"c":true,"v":[[0.559,0],[0.531,-0.011],[0.52,-0.038],[0.52,-0.298],[0.497,-0.4],[0.433,-0.46],[0.341,-0.48],[0.253,-0.461],[0.19,-0.409],[0.167,-0.334],[0.112,-0.334],[0.146,-0.447],[0.231,-0.525],[0.349,-0.553],[0.476,-0.524],[0.565,-0.437],[0.597,-0.298],[0.597,-0.038],[0.586,-0.011]],"i":[[0.010999999999999899,0],[0.007000000000000006,0.006999999999999999],[0,0.011],[0,0],[0.015000000000000013,0.027000000000000024],[0.027000000000000024,0.013000000000000012],[0.033999999999999975,0],[0.026000000000000023,-0.012999999999999956],[0.014999999999999986,-0.02200000000000002],[0,-0.02799999999999997],[0,0],[-0.02099999999999999,0.03400000000000003],[-0.035,0.020000000000000018],[-0.04299999999999998,0],[-0.03699999999999998,-0.019000000000000017],[-0.02199999999999991,-0.03799999999999998],[0,-0.05499999999999999],[0,0],[0.007000000000000006,-0.006999999999999999]],"o":[[-0.01100000000000001,0],[-0.007000000000000006,-0.006999999999999999],[0,0],[0,-0.041000000000000036],[-0.016000000000000014,-0.02699999999999997],[-0.02799999999999997,-0.012999999999999956],[-0.03300000000000003,0],[-0.026999999999999996,0.013000000000000012],[-0.015000000000000013,0.021999999999999964],[0,0],[0.0010000000000000009,-0.04199999999999998],[0.02100000000000002,-0.032999999999999974],[0.035,-0.019000000000000017],[0.04700000000000004,0],[0.03700000000000003,0.020000000000000018],[0.02100000000000002,0.03799999999999998],[0,0],[0,0.011],[-0.007000000000000006,0.006999999999999999]]}}},{"ty":"sh","ks":{"a":0,"k":{"c":true,"v":[[0.129,0],[0.101,-0.011],[0.09,-0.038],[0.09,-0.508],[0.101,-0.537],[0.129,-0.547],[0.157,-0.537],[0.167,-0.508],[0.167,-0.038],[0.157,-0.011]],"i":[[0.01100000000000001,0],[0.006999999999999992,0.006999999999999999],[0,0.011],[0,0],[-0.008000000000000007,0.007000000000000006],[-0.011999999999999997,0],[-0.007000000000000006,-0.007000000000000006],[0,-0.01200000000000001],[0,0],[0.007000000000000006,-0.006999999999999999]],"o":[[-0.011999999999999997,0],[-0.008000000000000007,-0.006999999999999999],[0,0],[0,-0.01200000000000001],[0.006999999999999992,-0.007000000000000006],[0.01100000000000001,0],[0.007000000000000006,0.007000000000000006],[0,0],[0,0.011],[-0.007000000000000006,0.006999999999999999]]}}},{"ty":"st","o":{"a":0,"k":0},"w":{"a":0,"k":0},"c":{"a":0,"k":[0,0,0,0]},"lc":3,"lj":1,"ml":1},{"ty":"fl","o":{"a":0,"k":100},"r":1,"c":{"a":0,"k":[0.3764705882352941,0.3764705882352941,0.3764705882352941,1]}},{"ty":"tr","o":{"a":0,"k":100},"a":{"a":0,"k":[0,0]},"s":{"a":0,"k":[3044.1,6080.2]},"p":{"a":0,"k":[60.516,47.486]},"r":{"a":0,"k":0}}]},{"ty":"gr","nm":"text shape group","it":[{"ty":"sh","ks":{"a":0,"k":{"c":true,"v":[[0.208,0],[0.137,-0.022],[0.088,-0.083],[0.07,-0.173],[0.07,-0.743],[0.081,-0.771],[0.108,-0.781],[0.136,-0.771],[0.146,-0.743],[0.146,-0.173],[0.164,-0.103],[0.208,-0.076],[0.233,-0.076],[0.257,-0.066],[0.266,-0.038],[0.254,-0.011],[0.221,0]],"i":[[0,0],[0.02099999999999999,0.015],[0.01100000000000001,0.026000000000000002],[0,0.033999999999999975],[0,0],[-0.007000000000000006,0.008000000000000007],[-0.010999999999999996,0],[-0.007000000000000006,-0.007000000000000006],[0,-0.01100000000000001],[0,0],[-0.01200000000000001,-0.018000000000000002],[-0.017999999999999988,0],[0,0],[-0.006000000000000005,-0.006999999999999992],[0,-0.011000000000000003],[0.008000000000000007,-0.006999999999999999],[0.013000000000000012,0]],"o":[[-0.026999999999999996,0],[-0.021000000000000005,-0.015],[-0.011999999999999997,-0.025999999999999995],[0,0],[0,-0.01100000000000001],[0.006999999999999992,-0.007000000000000006],[0.010999999999999996,0],[0.005999999999999978,0.008000000000000007],[0,0],[0,0.028999999999999998],[0.010999999999999982,0.017999999999999988],[0,0],[0.009999999999999981,0],[0.006000000000000005,0.008],[0,0.011],[-0.009000000000000008,0.006999999999999999],[0,0]]}}},{"ty":"st","o":{"a":0,"k":0},"w":{"a":0,"k":0},"c":{"a":0,"k":[0,0,0,0]},"lc":3,"lj":1,"ml":1},{"ty":"fl","o":{"a":0,"k":100},"r":1,"c":{"a":0,"k":[0.3764705882352941,0.3764705882352941,0.3764705882352941,1]}},{"ty":"tr","o":{"a":0,"k":100},"a":{"a":0,"k":[0,0]},"s":{"a":0,"k":[3044.1,6080.2]},"p":{"a":0,"k":[51.932,47.486]},"r":{"a":0,"k":0}}]},{"ty":"gr","nm":"text shape group","it":[{"ty":"sh","ks":{"a":0,"k":{"c":true,"v":[[0.208,0],[0.137,-0.022],[0.088,-0.083],[0.07,-0.173],[0.07,-0.743],[0.081,-0.771],[0.108,-0.781],[0.136,-0.771],[0.146,-0.743],[0.146,-0.173],[0.164,-0.103],[0.208,-0.076],[0.233,-0.076],[0.257,-0.066],[0.266,-0.038],[0.254,-0.011],[0.221,0]],"i":[[0,0],[0.02099999999999999,0.015],[0.01100000000000001,0.026000000000000002],[0,0.033999999999999975],[0,0],[-0.007000000000000006,0.008000000000000007],[-0.010999999999999996,0],[-0.007000000000000006,-0.007000000000000006],[0,-0.01100000000000001],[0,0],[-0.01200000000000001,-0.018000000000000002],[-0.017999999999999988,0],[0,0],[-0.006000000000000005,-0.006999999999999992],[0,-0.011000000000000003],[0.008000000000000007,-0.006999999999999999],[0.013000000000000012,0]],"o":[[-0.026999999999999996,0],[-0.021000000000000005,-0.015],[-0.011999999999999997,-0.025999999999999995],[0,0],[0,-0.01100000000000001],[0.006999999999999992,-0.007000000000000006],[0.010999999999999996,0],[0.005999999999999978,0.008000000000000007],[0,0],[0,0.028999999999999998],[0.010999999999999982,0.017999999999999988],[0,0],[0.009999999999999981,0],[0.006000000000000005,0.008],[0,0.011],[-0.009000000000000008,0.006999999999999999],[0,0]]}}},{"ty":"st","o":{"a":0,"k":0},"w":{"a":0,"k":0},"c":{"a":0,"k":[0,0,0,0]},"lc":3,"lj":1,"ml":1},{"ty":"fl","o":{"a":0,"k":100},"r":1,"c":{"a":0,"k":[0.3764705882352941,0.3764705882352941,0.3764705882352941,1]}},{"ty":"tr","o":{"a":0,"k":100},"a":{"a":0,"k":[0,0]},"s":{"a":0,"k":[3044.1,6080.2]},"p":{"a":0,"k":[43.347,47.486]},"r":{"a":0,"k":0}}]},{"ty":"gr","nm":"text shape group","it":[{"ty":"sh","ks":{"a":0,"k":{"c":true,"v":[[0.338,0.005],[0.195,-0.031],[0.097,-0.129],[0.061,-0.273],[0.095,-0.418],[0.187,-0.516],[0.323,-0.552],[0.456,-0.518],[0.543,-0.422],[0.574,-0.283],[0.564,-0.258],[0.538,-0.248],[0.113,-0.248],[0.113,-0.312],[0.546,-0.312],[0.503,-0.281],[0.482,-0.385],[0.42,-0.457],[0.323,-0.483],[0.223,-0.456],[0.157,-0.382],[0.133,-0.273],[0.16,-0.165],[0.232,-0.091],[0.338,-0.064],[0.411,-0.077],[0.469,-0.108],[0.494,-0.118],[0.518,-0.11],[0.532,-0.084],[0.52,-0.06],[0.436,-0.014]],"i":[[0.030999999999999972,0],[0.04099999999999998,0.024],[0.022999999999999993,0.04200000000000001],[0,0.05400000000000002],[-0.023000000000000007,0.04199999999999998],[-0.03900000000000001,0.02400000000000002],[-0.05099999999999999,0],[-0.038000000000000034,-0.02300000000000002],[-0.02100000000000002,-0.041000000000000036],[0,-0.052000000000000046],[0.007000000000000006,-0.006000000000000005],[0.01100000000000001,0],[0,0],[0,0],[0,0],[0,0],[0.015000000000000013,0.031000000000000028],[0.027000000000000024,0.017000000000000015],[0.03699999999999998,0],[0.028999999999999998,-0.01799999999999996],[0.014999999999999986,-0.030999999999999972],[0,-0.04099999999999998],[-0.018000000000000016,-0.031],[-0.031,-0.018000000000000002],[-0.040000000000000036,0],[-0.024999999999999967,0.008999999999999994],[-0.014999999999999958,0.012999999999999998],[-0.009000000000000008,0.000999999999999987],[-0.007000000000000006,-0.0050000000000000044],[-0.0010000000000000009,-0.008999999999999994],[0.008000000000000007,-0.007000000000000006],[0.033999999999999975,-0.011999999999999999]],"o":[[-0.05400000000000005,0],[-0.04200000000000001,-0.023],[-0.024000000000000007,-0.04200000000000001],[0,-0.05499999999999999],[0.022000000000000006,-0.041000000000000036],[0.03900000000000001,-0.02400000000000002],[0.05099999999999999,0],[0.03699999999999998,0.02400000000000002],[0.020999999999999908,0.04099999999999998],[0,0.010999999999999954],[-0.006999999999999895,0.007000000000000006],[0,0],[0,0],[0,0],[0,0],[0.0010000000000000009,-0.03899999999999998],[-0.014999999999999958,-0.030999999999999972],[-0.02699999999999997,-0.01699999999999996],[-0.038000000000000034,0],[-0.028999999999999998,0.018000000000000016],[-0.016000000000000014,0.03200000000000003],[0,0.04100000000000001],[0.016999999999999987,0.031],[0.031,0.018000000000000002],[0.023999999999999966,0],[0.02400000000000002,-0.008000000000000007],[0.007000000000000006,-0.006000000000000005],[0.009000000000000008,0],[0.009000000000000008,0.008000000000000007],[0,0.009000000000000008],[-0.02200000000000002,0.018999999999999996],[-0.033999999999999975,0.013000000000000001]]}}},{"ty":"st","o":{"a":0,"k":0},"w":{"a":0,"k":0},"c":{"a":0,"k":[0,0,0,0]},"lc":3,"lj":1,"ml":1},{"ty":"fl","o":{"a":0,"k":100},"r":1,"c":{"a":0,"k":[0.3764705882352941,0.3764705882352941,0.3764705882352941,1]}},{"ty":"tr","o":{"a":0,"k":100},"a":{"a":0,"k":[0,0]},"s":{"a":0,"k":[3044.1,6080.2]},"p":{"a":0,"k":[24.657,47.486]},"r":{"a":0,"k":0}}]},{"ty":"gr","nm":"text shape group","it":[{"ty":"sh","ks":{"a":0,"k":{"c":true,"v":[[0.267,0],[0.243,-0.009],[0.228,-0.032],[0.023,-0.725],[0.026,-0.765],[0.056,-0.781],[0.079,-0.775],[0.094,-0.751],[0.279,-0.107],[0.256,-0.107],[0.431,-0.734],[0.445,-0.752],[0.468,-0.759],[0.491,-0.753],[0.505,-0.733],[0.681,-0.107],[0.658,-0.107],[0.844,-0.755],[0.882,-0.781],[0.911,-0.765],[0.913,-0.725],[0.709,-0.033],[0.694,-0.009],[0.669,0],[0.645,-0.009],[0.63,-0.032],[0.456,-0.667],[0.48,-0.667],[0.307,-0.033],[0.292,-0.009]],"i":[[0.009000000000000008,0],[0.006000000000000005,0.005999999999999999],[0.0030000000000000027,0.009000000000000001],[0,0],[-0.006999999999999999,0.01100000000000001],[-0.013999999999999999,0],[-0.007000000000000006,-0.0040000000000000036],[-0.0030000000000000027,-0.01100000000000001],[0,0],[0,0],[0,0],[-0.007000000000000006,0.0050000000000000044],[-0.009000000000000008,0],[-0.007000000000000006,-0.0040000000000000036],[-0.0020000000000000018,-0.009000000000000008],[0,0],[0,0],[0,0],[-0.02100000000000002,0],[-0.0050000000000000044,-0.01100000000000001],[0.0040000000000000036,-0.015000000000000013],[0,0],[0.006000000000000005,-0.005000000000000001],[0.009000000000000008,0],[0.007000000000000006,0.005999999999999999],[0.0030000000000000027,0.009000000000000001],[0,0],[0,0],[0,0],[0.007000000000000006,-0.006]],"o":[[-0.009000000000000008,0],[-0.007000000000000006,-0.006],[0,0],[-0.005000000000000001,-0.016000000000000014],[0.006000000000000002,-0.01100000000000001],[0.008,0],[0.006999999999999992,0.0050000000000000044],[0,0],[0,0],[0,0],[0.0020000000000000018,-0.007000000000000006],[0.007000000000000006,-0.0050000000000000044],[0.007999999999999952,0],[0.007000000000000006,0.0050000000000000044],[0,0],[0,0],[0,0],[0.0050000000000000044,-0.017000000000000015],[0.014000000000000012,0],[0.0050000000000000044,0.01200000000000001],[0,0],[-0.0030000000000000027,0.011000000000000003],[-0.006999999999999895,0.005999999999999999],[-0.009000000000000008,0],[-0.007000000000000006,-0.006],[0,0],[0,0],[0,0],[-0.0030000000000000027,0.010000000000000002],[-0.007000000000000006,0.005999999999999999]]}}},{"ty":"st","o":{"a":0,"k":0},"w":{"a":0,"k":0},"c":{"a":0,"k":[0,0,0,0]},"lc":3,"lj":1,"ml":1},{"ty":"fl","o":{"a":0,"k":100},"r":1,"c":{"a":0,"k":[0.3764705882352941,0.3764705882352941,0.3764705882352941,1]}},{"ty":"tr","o":{"a":0,"k":100},"a":{"a":0,"k":[0,0]},"s":{"a":0,"k":[3044.1,6080.2]},"p":{"a":0,"k":[-0.548,47.486]},"r":{"a":0,"k":0}}]}],"op":114},{"ty":4,"nm":"heart-right","ip":0,"st":0,"ind":3,"hix":2,"ks":{"o":{"a":0,"k":100},"or":{"a":0,"k":[0,0,0]},"a":{"a":0,"k":[6.897003173828125,9.828498840332031,0]},"p":{"s":true,"x":{"a":0,"k":196.064},"y":{"a":0,"k":18.616}},"rx":{"a":0,"k":0},"ry":{"a":0,"k":0},"rz":{"a":0,"k":0},"s":{"a":0,"k":[113.6,126.1]}},"shapes":[{"ty":"gr","nm":"heart-right shape group","it":[{"ty":"sh","ks":{"a":0,"k":{"c":false,"v":[[406.24,171.349],[417.275,169.383],[417.275,179.211],[406.24,187.074]],"i":[[0,0],[-2.7589999999999577,-1.9660000000000082],[2.7590000000000146,-3.9310000000000116],[4.137999999999977,-1.9660000000000082]],"o":[[2.7590000000000146,-3.931999999999988],[2.7590000000000146,1.9659999999999798],[-1.9309999999999832,2.948999999999984],[0,0]]}}},{"ty":"st","o":{"a":0,"k":100},"c":{"a":0,"k":[0.3764705882352941,0.3764705882352941,0.3764705882352941,1]},"lc":2,"lj":2,"ml":1.5,"w":{"a":0,"k":1.47},"d":[{"n":"d","v":{"a":0,"k":100},"nm":"0"},{"n":"g","v":{"a":0,"k":100},"nm":"1"},{"n":"o","v":{"a":1,"k":[{"t":0,"s":[-40],"e":[-40],"i":{"x":[1],"y":[1]},"o":{"x":[0],"y":[0]}},{"t":42,"s":[-40],"e":[0],"i":{"x":[0.515],"y":[0.955]},"o":{"x":[0.455],"y":[0.03]}},{"t":114}]},"nm":"2"}]},{"ty":"fl","o":{"a":0,"k":0},"c":{"a":0,"k":[0,0,0,0]},"r":1},{"ty":"tr","o":{"a":0,"k":100},"a":{"a":0,"k":[0,0]},"s":{"a":0,"k":[100,100]},"p":{"a":0,"k":[-406.24,-167.417]},"r":{"a":0,"k":0}}]}],"op":114},{"ty":4,"nm":"right-divider","ip":0,"st":0,"ind":2,"hix":4,"ks":{"o":{"a":0,"k":100},"or":{"a":0,"k":[0,0,0]},"a":{"a":0,"k":[174.4290008544922,0.5,0]},"p":{"s":true,"x":{"a":0,"k":468.0996413745575},"y":{"a":0,"k":20.2864175}},"rx":{"a":0,"k":0},"ry":{"a":0,"k":0},"rz":{"a":0,"k":0},"s":{"a":1,"k":[{"t":0,"s":[0,67.9],"e":[47,67.9],"i":{"x":[0.15,1],"y":[0.86,1]},"o":{"x":[0.785,0],"y":[0.135,0]}},{"t":53}]}},"shapes":[{"ty":"gr","nm":"right-divider shape group","it":[{"ty":"sh","ks":{"a":0,"k":{"c":false,"v":[[79.27,188.205],[428.128,188.205]],"i":[[0,0],[0,0]],"o":[[0,0],[0,0]]}}},{"ty":"st","o":{"a":0,"k":100},"c":{"a":0,"k":[0.3764705882352941,0.3764705882352941,0.3764705882352941,1]},"lc":2,"lj":2,"ml":1.5,"w":{"a":0,"k":1.01}},{"ty":"fl","o":{"a":0,"k":0},"c":{"a":0,"k":[0,0,0,0]},"r":1},{"ty":"tr","o":{"a":0,"k":100},"a":{"a":0,"k":[0,0]},"s":{"a":0,"k":[100,100]},"p":{"a":0,"k":[-79.27,-188.205]},"r":{"a":0,"k":0}}]}],"op":114},{"ty":4,"nm":"left-divider","ip":0,"st":0,"ind":1,"hix":5,"ks":{"o":{"a":0,"k":100},"or":{"a":0,"k":[0,0,0]},"a":{"a":0,"k":[174.4290008544922,0.5,0]},"p":{"s":true,"x":{"a":0,"k":82.92314417756653},"y":{"a":0,"k":20.2626335}},"rx":{"a":0,"k":0},"ry":{"a":0,"k":0},"rz":{"a":0,"k":0},"s":{"a":1,"k":[{"t":0,"s":[0,63.1],"e":[47.599999999999994,63.1],"i":{"x":[0.15,1],"y":[0.86,1]},"o":{"x":[0.785,0],"y":[0.135,0]}},{"t":53}]}},"shapes":[{"ty":"gr","nm":"left-divider shape group","it":[{"ty":"sh","ks":{"a":0,"k":{"c":false,"v":[[79.27,188.205],[428.128,188.205]],"i":[[0,0],[0,0]],"o":[[0,0],[0,0]]}}},{"ty":"st","o":{"a":0,"k":100},"c":{"a":0,"k":[0.3764705882352941,0.3764705882352941,0.3764705882352941,1]},"lc":2,"lj":2,"ml":1.5,"w":{"a":0,"k":1.04}},{"ty":"fl","o":{"a":0,"k":0},"c":{"a":0,"k":[0,0,0,0]},"r":1},{"ty":"tr","o":{"a":0,"k":100},"a":{"a":0,"k":[0,0]},"s":{"a":0,"k":[100,100]},"p":{"a":0,"k":[-79.27,-188.205]},"r":{"a":0,"k":0}}]}],"op":114}],"op":114,"w":550,"h":38}